tree
version=v4
num_class=1
num_tree_per_iteration=1
label_index=0
max_feature_idx=15
objective=regression
feature_names=nifty_ret_1m nifty_ret_3m nifty_vol_1m vol_percentile_1y india_vix vix_percentile_1y max_drawdown_3m trend_50_200 top_decile_return_1m bottom_decile_return_1m spread_decile cross_sectional_vol hit_rate_top_k current_drawdown turnover_1m nifty_trend_duration
feature_infos=[-0.067231982946395874:0.085620194673538208] [-0.11583243310451508:0.11519625782966614] [0.085847921669483185:0.28543993830680847] [0.024817518889904022:0.96610170602798462] [13.279999732971191:39.926708221435547] [0.02380952425301075:0.99603176116943359] [-0.12448024749755859:-0.034254826605319977] [0.93224835395812988:1.0884325504302979] [0.10166497528553009:0.72764718532562256] [-0.22188952565193176:-0.067068926990032196] [0.24193346500396729:0.84928488731384277] [0.068980887532234192:0.66067612171173096] [0.13675214350223541:0.87179487943649292] [-0.11126459389925003:-0.032696299254894257] [0.018023582175374031:0.4882219135761261] [-38:51]
tree_sizes=539 543 526 524 606 528 605 605 547 604 607 552 586 545 556 607 596 670 674 673 674 677 673 672 676 674 678 681 680 679 682 679 557 560 616 680 686 557 555 620 704 556 559 706 709 559 622 711 563 712

Tree=0
num_leaves=4
num_cat=0
split_feature=14 0 2
split_gain=8.28261 5.31335 3.44974
threshold=0.33017019927501684 0.058537483215332038 0.12675541639328006
decision_type=2 2 2
left_child=1 2 -1
right_child=-2 -3 -4
leaf_value=-0.10020011067390448 -0.29488455116748813 -0.027234412233034772 -0.21393898548558354
leaf_weight=4.0000000000000027 4.9999999999999991 2.9999999999999991 7.9999999999999991
leaf_count=4 5 3 8
internal_value=-0.183422 -0.146268 -0.176026
internal_weight=20 15 12
internal_count=20 15 12
is_linear=0
shrinkage=1


Tree=1
num_leaves=4
num_cat=0
split_feature=14 0 2
split_gain=6.70892 4.30381 2.79429
threshold=0.33017019927501684 0.058537483215332038 0.12675541639328006
decision_type=2 2 2
left_child=1 2 -1
right_child=-2 -3 -4
leaf_value=0.074899622797965942 -0.10031637191772461 0.14056875308354697 -0.027465362381190062
leaf_weight=4.0000000000000027 4.9999999999999991 2.9999999999999991 7.9999999999999991
leaf_count=4 5 3 8
internal_value=-4.09782e-10 0.0334388 0.0066563
internal_weight=20 15 12
internal_count=20 15 12
is_linear=0
shrinkage=0.1


Tree=2
num_leaves=4
num_cat=0
split_feature=14 0 7
split_gain=5.43422 3.48609 2.44766
threshold=0.33017019927501684 0.058537483215332038 0.98680251836776745
decision_type=2 2 2
left_child=1 2 -1
right_child=-2 -3 -4
leaf_value=0.051153907055656089 -0.090284734964370728 0.12651187976201375 -0.039172566930452984
leaf_weight=6.0000000000000018 4.9999999999999991 2.9999999999999991 6
leaf_count=6 5 3 6
internal_value=2.6077e-10 0.0300949 0.00599067
internal_weight=20 15 12
internal_count=20 15 12
is_linear=0
shrinkage=0.1


Tree=3
num_leaves=4
num_cat=0
split_feature=14 0 2
split_gain=4.40172 2.82373 2.29513
threshold=0.33017019927501684 0.058537483215332038 0.1553570553660393
decision_type=2 2 2
left_child=1 2 -1
right_child=-2 -3 -4
leaf_value=0.042353076168469006 -0.081256260871887212 0.11386068662007649 -0.04635445415973663
leaf_weight=7.0000000000000018 4.9999999999999991 2.9999999999999991 5
leaf_count=7 5 3 5
internal_value=8.9407e-10 0.0270854 0.00539161
internal_weight=20 15 12
internal_count=20 15 12
is_linear=0
shrinkage=0.1


Tree=4
num_leaves=5
num_cat=0
split_feature=2 6 15 12
split_gain=3.83945 2.92671 2.43519 1.20746
threshold=0.11831188574433328 -0.080485537648200975 -16.999999999999996 0.46052631735801702
decision_type=2 2 2 2
left_child=-1 2 -2 -3
right_child=1 3 -4 -5
leaf_value=0.10429973602294909 -0.045624056582649536 -0.090286122560501156 0.068339460492134033 -0.016573438420891758
leaf_weight=3.0000000000000027 3 4.9999999999999964 5.0000000000000036 4
leaf_count=3 3 5 5 4
internal_value=-1.28523e-09 -0.0184058 0.0256031 -0.0575249
internal_weight=20 17 8 9
internal_count=20 17 8 9
is_linear=0
shrinkage=0.1


Tree=5
num_leaves=4
num_cat=0
split_feature=14 0 6
split_gain=3.28752 2.046 1.7978
threshold=0.33017019927501684 0.058537483215332038 -0.080485537648200975
decision_type=2 2 2
left_child=1 2 -1
right_child=-2 -3 -4
leaf_value=0.037654150024588613 -0.070223042964935298 0.097272427876790371 -0.040856225490570053
leaf_weight=7 4.9999999999999991 2.9999999999999991 5.0000000000000018
leaf_count=7 5 3 5
internal_value=-4.23752e-10 0.0234077 0.00494149
internal_weight=20 15 12
internal_count=20 15 12
is_linear=0
shrinkage=0.1


Tree=6
num_leaves=5
num_cat=0
split_feature=2 6 15 12
split_gain=2.90565 1.94673 2.0098 0.8871
threshold=0.11831188574433328 -0.080485537648200975 -16.999999999999996 0.46052631735801702
decision_type=2 2 2 2
left_child=-1 2 -2 -3
right_child=1 3 -4 -5
leaf_value=0.090734086434046332 -0.044827065368493388 -0.075997214317321815 0.058705280721187539 -0.012815349176526068
leaf_weight=3.0000000000000027 3 4.9999999999999964 5.0000000000000036 4
leaf_count=3 3 5 5 4
internal_value=-7.45058e-11 -0.0160119 0.0198807 -0.0479164
internal_weight=20 17 8 9
internal_count=20 17 8 9
is_linear=0
shrinkage=0.1


Tree=7
num_leaves=5
num_cat=0
split_feature=14 12 11 7
split_gain=2.46624 1.51083 1.47878 0.76477
threshold=0.33017019927501684 0.39614365994930273 0.097451426088809981 0.96526518464088451
decision_type=2 2 2 2
left_child=1 3 -3 -1
right_child=-2 2 -4 -5
leaf_value=0.017106547222162267 -0.060822341442108158 -0.011138168970743819 0.074849590162436155 -0.054296993215878789
leaf_weight=3.0000000000000027 4.9999999999999991 2.9999999999999982 6 3
leaf_count=3 5 3 6 3
internal_value=-5.56465e-10 0.0202741 0.046187 -0.0185952
internal_weight=20 15 9 6
internal_count=20 15 9 6
is_linear=0
shrinkage=0.1


Tree=8
num_leaves=4
num_cat=0
split_feature=2 9 0
split_gain=2.04398 1.56851 1.44285
threshold=0.11831188574433328 -0.20575523376464841 0.058537483215332038
decision_type=2 2 2
left_child=-1 -2 -3
right_child=1 2 -4
leaf_value=0.076100486516952434 0.052188409181932516 -0.044255776161497305 0.033982278903325384
leaf_weight=3.0000000000000027 3.0000000000000044 10.999999999999995 3.0000000000000009
leaf_count=3 3 11 3
internal_value=-6.98492e-10 -0.0134295 -0.0274905
internal_weight=20 17 14
internal_count=20 17 14
is_linear=0
shrinkage=0.1


Tree=9
num_leaves=5
num_cat=0
split_feature=14 12 4 7
split_gain=1.79431 1.21271 1.03884 0.544533
threshold=0.33017019927501684 0.39614365994930273 25.758121490478519 0.96526518464088451
decision_type=2 2 2 2
left_child=1 3 -3 -1
right_child=-2 2 -4 -5
leaf_value=0.012594789514938975 -0.051879292130470281 0.070896760225296035 0.0025244630873203274 -0.047656522691249835
leaf_weight=3.0000000000000027 4.9999999999999991 4.9999999999999982 4 3
leaf_count=3 5 5 4 3
internal_value=-3.35276e-10 0.0172931 0.0405091 -0.0175309
internal_weight=20 15 9 6
internal_count=20 15 9 6
is_linear=0
shrinkage=0.1


Tree=10
num_leaves=5
num_cat=0
split_feature=14 12 11 7
split_gain=1.45339 0.982294 0.894659 0.441072
threshold=0.33017019927501684 0.39614365994930273 0.097451426088809981 0.96526518464088451
decision_type=2 2 2 2
left_child=1 3 -3 -1
right_child=-2 2 -4 -5
leaf_value=0.0113353095948696 -0.046691362857818608 -0.0081302970647811924 0.05875239421923955 -0.04289086957772572
leaf_weight=3.0000000000000027 4.9999999999999991 2.9999999999999982 6 3
leaf_count=3 5 3 6 3
internal_value=-1.00583e-09 0.0155638 0.0364582 -0.0157778
internal_weight=20 15 9 6
internal_count=20 15 9 6
is_linear=0
shrinkage=0.1


Tree=11
num_leaves=4
num_cat=0
split_feature=2 9 15
split_gain=1.23065 1.20727 0.953416
threshold=0.11831188574433328 -0.20575523376464841 1.0000000180025095e-35
decision_type=2 2 2
left_child=-1 -2 -3
right_child=1 2 -4
leaf_value=0.05904949307441705 0.047147581477959867 -0.052889814476172151 -0.00015654154121875764
leaf_weight=3.0000000000000027 3.0000000000000044 5.9999999999999973 7.9999999999999991
leaf_count=3 3 6 8
internal_value=2.23517e-10 -0.0104205 -0.0227565
internal_weight=20 17 14
internal_count=20 17 14
is_linear=0
shrinkage=0.1


Tree=12
num_leaves=5
num_cat=0
split_feature=11 12 8 7
split_gain=1.12327 1.15445 0.608 0.354874
threshold=0.097451426088809981 0.39614365994930273 0.26784237474203115 0.98680251836776745
decision_type=2 2 2 2
left_child=3 -2 -3 -1
right_child=1 2 -4 -5
leaf_value=-0.0039991147816181155 -0.014051639735698701 0.082842669884363784 0.019176854193210597 -0.043960784077644338
leaf_weight=4.0000000000000018 4.9999999999999982 3 3 5
leaf_count=4 5 3 3 5
internal_value=-2.98023e-10 0.0214364 0.0510098 -0.0262
internal_weight=20 11 6 9
internal_count=20 11 6 9
is_linear=0
shrinkage=0.1


Tree=13
num_leaves=4
num_cat=0
split_feature=14 4 15
split_gain=0.9705 0.66362 0.623818
threshold=0.33017019927501684 18.51795864105225 -16.999999999999996
decision_type=2 2 2
left_child=1 -1 -3
right_child=-2 2 -4
leaf_value=0.054785357912381427 -0.038154295086860662 -0.037289777398109437 0.015364969770113627
leaf_weight=3.0000000000000027 4.9999999999999991 2.9999999999999991 8.9999999999999982
leaf_count=3 5 3 9
internal_value=-2.98023e-10 0.0127181 0.00220128
internal_weight=20 15 12
internal_count=20 15 12
is_linear=0
shrinkage=0.1


Tree=14
num_leaves=4
num_cat=0
split_feature=2 9 15
split_gain=0.864234 0.882673 0.675358
threshold=0.11831188574433328 -0.20575523376464841 1.0000000180025095e-35
decision_type=2 2 2
left_child=-1 -2 -3
right_child=1 2 -4
leaf_value=0.049483962853749536 0.040491753816604546 -0.044641857097546277 -0.0002595018595457077
leaf_weight=3.0000000000000027 3.0000000000000044 5.9999999999999973 7.9999999999999991
leaf_count=3 3 6 8
internal_value=-3.72529e-10 -0.00873246 -0.0192805
internal_weight=20 17 14
internal_count=20 17 14
is_linear=0
shrinkage=0.1


Tree=15
num_leaves=5
num_cat=0
split_feature=14 12 4 7
split_gain=0.744832 0.563545 0.453733 0.305236
threshold=0.33017019927501684 0.39614365994930273 25.758121490478519 0.96526518464088451
decision_type=2 2 2 2
left_child=1 3 -3 -1
right_child=-2 2 -4 -5
leaf_value=0.0099576408664385357 -0.033425267934799198 0.047050604224205032 0.001864335313439369 -0.035152314603328697
leaf_weight=3.0000000000000027 4.9999999999999991 4.9999999999999982 4 3
leaf_count=3 5 5 4 3
internal_value=7.45058e-11 0.0111418 0.0269678 -0.0125973
internal_weight=20 15 9 6
internal_count=20 15 9 6
is_linear=0
shrinkage=0.1


Tree=16
num_leaves=5
num_cat=0
split_feature=11 12 8 0
split_gain=0.633098 0.650225 0.500739 0.240142
threshold=0.097451426088809981 0.39614365994930273 0.26784237474203115 1.0000000180025095e-35
decision_type=2 2 2 2
left_child=3 -2 -3 -1
right_child=1 2 -4 -5
leaf_value=-0.0050593534111976601 -0.01054004639387131 0.067176617185274748 0.0093989397088686602 -0.037932416796684257
leaf_weight=5.0000000000000018 4.9999999999999982 3 3 4
leaf_count=5 5 3 3 4
internal_value=2.23517e-10 0.0160933 0.0382878 -0.0196696
internal_weight=20 11 6 9
internal_count=20 11 6 9
is_linear=0
shrinkage=0.1


Tree=17
num_leaves=6
num_cat=0
split_feature=6 2 9 9 6
split_gain=0.617045 1.93475 0.472822 0.490964 0.375942
threshold=-0.080485537648200975 0.1553570553660393 -0.13307481259107587 -0.10658408328890799 -0.12326362729072569
decision_type=2 2 2 2 2
left_child=1 -1 -2 -4 -3
right_child=2 4 3 -5 -6
leaf_value=0.084988751014073619 -0.043314540386199946 0.011664918561776476 0.030364909271399173 -0.02315103486180306 -0.038397809863090507
leaf_weight=3.0000000000000018 4 3 3 3.9999999999999982 3
leaf_count=3 4 3 3 4 3
internal_value=2.98023e-10 0.0194186 -0.015888 -0.00021563 -0.0133664
internal_weight=20 9 11 7 6
internal_count=20 9 11 7 6
is_linear=0
shrinkage=0.1


Tree=18
num_leaves=6
num_cat=0
split_feature=6 2 9 9 6
split_gain=0.499806 1.56715 0.382986 0.397681 0.304513
threshold=-0.080485537648200975 0.1553570553660393 -0.13307481259107587 -0.10658408328890799 -0.12326362729072569
decision_type=2 2 2 2 2
left_child=1 -1 -2 -4 -3
right_child=2 4 3 -5 -6
leaf_value=0.076489873727162622 -0.038983086869120588 0.010498426854610441 0.027328418691953016 -0.020835931226611145 -0.034558028976122528
leaf_weight=3.0000000000000018 4 3 3 3.9999999999999982 3
leaf_count=3 4 3 3 4 3
internal_value=-7.45058e-11 0.0174768 -0.0142992 -0.000194067 -0.0120298
internal_weight=20 9 11 7 6
internal_count=20 9 11 7 6
is_linear=0
shrinkage=0.1


Tree=19
num_leaves=6
num_cat=0
split_feature=6 2 9 9 6
split_gain=0.404843 1.26939 0.310219 0.322121 0.246655
threshold=-0.080485537648200975 0.1553570553660393 -0.13307481259107587 -0.10658408328890799 -0.12326362729072569
decision_type=2 2 2 2 2
left_child=1 -1 -2 -4 -3
right_child=2 4 3 -5 -6
leaf_value=0.068840887149174954 -0.035084778070449824 0.0094485844175020844 0.024595577518145239 -0.018752337619662291 -0.031102226177851352
leaf_weight=3.0000000000000018 4 3 3 3.9999999999999982 3
leaf_count=3 4 3 3 4 3
internal_value=2.98023e-10 0.0157291 -0.0128692 -0.00017466 -0.0108268
internal_weight=20 9 11 7 6
internal_count=20 9 11 7 6
is_linear=0
shrinkage=0.1


Tree=20
num_leaves=6
num_cat=0
split_feature=6 2 12 6 5
split_gain=0.327923 1.0282 0.257525 0.199791 0.0968512
threshold=-0.080485537648200975 0.1553570553660393 0.75000000000000011 -0.12326362729072569 0.30158731341362005
decision_type=2 2 2 2 2
left_child=1 -1 4 -3 -2
right_child=2 3 -4 -5 -6
leaf_value=0.061956797043482406 -0.0067473975320657123 0.0085037256280581144 0.013403725127379097 -0.027992004156112665 -0.029474908113479609
leaf_weight=3.0000000000000018 2.9999999999999982 3 3 3 5
leaf_count=3 3 3 3 3 5
internal_value=-1.11759e-10 0.0141562 -0.0115823 -0.00974414 -0.0209521
internal_weight=20 9 11 6 8
internal_count=20 9 11 6 8
is_linear=0
shrinkage=0.1


Tree=21
num_leaves=6
num_cat=0
split_feature=11 12 8 2 1
split_gain=0.281057 0.308372 0.244393 0.114253 0.00818634
threshold=0.097451426088809981 0.39614365994930273 0.26784237474203115 0.12675541639328006 0.021938547492027286
decision_type=2 2 2 2 2
left_child=3 -2 -3 -1 -5
right_child=1 2 -4 4 -6
leaf_value=0.0028284817934036231 -0.0076185873150825525 0.046189466118812555 0.0058250474433104186 -0.024766440689563744 -0.017378910382588701
leaf_weight=3.0000000000000018 4.9999999999999982 3 3 3 3
leaf_count=3 5 3 3 3 3
internal_value=-1.86265e-10 0.0107228 0.0260073 -0.0131056 -0.0210727
internal_weight=20 11 6 9 6
internal_count=20 11 6 9 6
is_linear=0
shrinkage=0.1


Tree=22
num_leaves=6
num_cat=0
split_feature=6 2 9 9 6
split_gain=0.266521 0.779461 0.215494 0.197605 0.139363
threshold=-0.080485537648200975 0.1553570553660393 -0.13307481259107587 -0.10658408328890799 -0.12326362729072569
decision_type=2 2 2 2 2
left_child=1 -1 -2 -4 -3
right_child=2 4 3 -5 -6
leaf_value=0.054381141066551168 -0.02895749174058437 0.0071932047605514499 0.01953936542073885 -0.014411975257098678 -0.023287754257520034
leaf_weight=3.0000000000000018 4 3 3 3.9999999999999982 3
leaf_count=3 4 3 3 4 3
internal_value=1.49012e-10 0.0127622 -0.0104418 0.000138599 -0.00804727
internal_weight=20 9 11 7 6
internal_count=20 9 11 7 6
is_linear=0
shrinkage=0.1


Tree=23
num_leaves=6
num_cat=0
split_feature=6 2 9 9 11
split_gain=0.215882 0.631364 0.17455 0.16006 0.113182
threshold=-0.080485537648200975 0.1553570553660393 -0.13307481259107587 -0.10658408328890799 0.097451426088809981
decision_type=2 2 2 2 2
left_child=1 -1 -2 -4 -3
right_child=2 4 3 -5 -6
leaf_value=0.048943025867144226 -0.026061742007732387 -0.020977053046226497 0.017585429052511845 -0.012970777414739135 0.0064919590950012198
leaf_weight=3.0000000000000018 4 3 3 3.9999999999999982 3
leaf_count=3 4 3 3 4 3
internal_value=2.6077e-10 0.011486 -0.00939762 0.00012474 -0.00724255
internal_weight=20 9 11 7 6
internal_count=20 9 11 7 6
is_linear=0
shrinkage=0.1


Tree=24
num_leaves=6
num_cat=0
split_feature=6 2 9 9 6
split_gain=0.174864 0.511405 0.141385 0.129648 0.105475
threshold=-0.080485537648200975 0.1553570553660393 -0.13307481259107587 -0.10658408328890799 -0.12326362729072569
decision_type=2 2 2 2 2
left_child=1 -1 -2 -4 -3
right_child=2 4 3 -5 -6
leaf_value=0.044048723578453026 -0.023455567657947537 0.0067403227090835557 0.015826886395613349 -0.011673699878156189 -0.019776907066504156
leaf_weight=3.0000000000000018 4 3 3 3.9999999999999982 3
leaf_count=3 4 3 3 4 3
internal_value=3.35276e-10 0.0103374 -0.00845786 0.000112266 -0.00651829
internal_weight=20 9 11 7 6
internal_count=20 9 11 7 6
is_linear=0
shrinkage=0.1


Tree=25
num_leaves=6
num_cat=0
split_feature=6 2 9 9 8
split_gain=0.14164 0.414238 0.114522 0.105015 0.0871177
threshold=-0.080485537648200975 0.1553570553660393 -0.13307481259107587 -0.10658408328890799 0.15615005791187289
decision_type=2 2 2 2 2
left_child=1 -1 -2 -4 -3
right_child=2 4 3 -5 -6
leaf_value=0.039643850922584503 -0.021110011450946327 -0.017916197578112279 0.01424419811616341 -0.010506330057978634 0.0061832711100578289
leaf_weight=3.0000000000000018 4 3 3 3.9999999999999982 3
leaf_count=3 4 3 3 4 3
internal_value=8.3819e-11 0.00930364 -0.00761207 0.000101039 -0.00586646
internal_weight=20 9 11 7 6
internal_count=20 9 11 7 6
is_linear=0
shrinkage=0.1


Tree=26
num_leaves=6
num_cat=0
split_feature=6 2 4 10 6
split_gain=0.114728 0.335533 0.0945289 0.0841856 0.0797797
threshold=-0.080485537648200975 0.1553570553660393 25.758121490478519 0.34373533725738531 -0.12326362729072569
decision_type=2 2 2 2 2
left_child=1 -1 3 -2 -3
right_child=2 4 -4 -5 -6
leaf_value=0.035679464538892085 -0.00934060961008072 0.0062512790163358036 -0.019114098325371739 0.012819778236250079 -0.016810912390549975
leaf_weight=3.0000000000000018 3.9999999999999982 3 4 3 3
leaf_count=3 4 3 4 3 3
internal_value=-1.76951e-10 0.00837328 -0.00685086 0.000156699 -0.00527982
internal_weight=20 9 11 7 6
internal_count=20 9 11 7 6
is_linear=0
shrinkage=0.1


Tree=27
num_leaves=6
num_cat=0
split_feature=11 6 4 2 1
split_gain=0.0955613 0.140627 0.146146 0.0482219 0.00564431
threshold=0.097451426088809981 -0.080485537648200975 25.758121490478519 0.12675541639328006 0.021938547492027286
decision_type=2 2 2 2 2
left_child=3 -2 -3 -1 -5
right_child=1 2 -4 4 -6
leaf_value=0.0027099040647347744 0.018638385534286494 0.011537800162720187 -0.019676090528567627 -0.015884909033775325 -0.0097506798803806277
leaf_weight=3.0000000000000018 5 2.9999999999999982 3 3 3
leaf_count=3 5 3 3 3 3
internal_value=1.01281e-10 0.00625246 -0.00406915 -0.00764189 -0.0128178
internal_weight=20 11 6 9 6
internal_count=20 11 6 9 6
is_linear=0
shrinkage=0.1


Tree=28
num_leaves=6
num_cat=0
split_feature=6 2 9 8 9
split_gain=0.0801789 0.254443 0.0727266 0.058628 0.0521294
threshold=-0.080485537648200975 0.1553570553660393 -0.13307481259107587 0.15615005791187289 -0.10658408328890799
decision_type=2 2 2 2 2
left_child=1 -1 -2 -3 -4
right_child=2 3 4 -5 -6
leaf_value=0.030778630574544243 -0.016483628656715151 -0.014774511257807411 0.010384020054092008 0.0049954938391844417 -0.0070540954824537053
leaf_weight=3.0000000000000018 4 3 3 3 3.9999999999999982
leaf_count=3 4 3 3 3 4
internal_value=1.53668e-10 0.00699987 -0.00572717 -0.00488951 0.000419383
internal_weight=20 9 11 6 7
internal_count=20 9 11 6 7
is_linear=0
shrinkage=0.1


Tree=29
num_leaves=6
num_cat=0
split_feature=11 12 8 2 1
split_gain=0.0658874 0.112486 0.0982432 0.0353033 0.00438659
threshold=0.097451426088809981 0.39614365994930273 0.26784237474203115 0.12675541639328006 0.021938547492027286
decision_type=2 2 2 2 2
left_child=3 -2 -3 -1 -5
right_child=1 2 -4 4 -6
leaf_value=0.0025118681291739125 -0.0058858069777488718 0.02721903423468271 0.001626946435620387 -0.013477967182795203 -0.0080702024822433775
leaf_weight=3.0000000000000018 4.9999999999999982 3 3 3 3
leaf_count=3 5 3 3 3 3
internal_value=1.25729e-10 0.00519172 0.014423 -0.00634543 -0.0107741
internal_weight=20 11 6 9 6
internal_count=20 11 6 9 6
is_linear=0
shrinkage=0.1


Tree=30
num_leaves=6
num_cat=0
split_feature=6 2 9 6 4
split_gain=0.0652066 0.190839 0.0567494 0.0464093 0.0376588
threshold=-0.080485537648200975 0.1553570553660393 -0.13307481259107587 -0.12326362729072569 21.257919311523441
decision_type=2 2 2 2 2
left_child=1 -1 -2 -3 -4
right_child=2 3 4 -5 -6
leaf_value=0.026905930042266823 -0.014666568767279384 0.0048106975853443139 -0.0060873220441862962 -0.012778931359450019 0.0087341573710242888
leaf_weight=3.0000000000000018 4 3 3.9999999999999982 3 3
leaf_count=3 4 3 4 3 3
internal_value=-1.16415e-10 0.00631257 -0.00516483 -0.00398412 0.000264741
internal_weight=20 9 11 6 7
internal_count=20 9 11 6 7
is_linear=0
shrinkage=0.1


Tree=31
num_leaves=6
num_cat=0
split_feature=6 2 4 8 14
split_gain=0.0528174 0.15458 0.0471543 0.0376839 0.0307204
threshold=-0.080485537648200975 0.1553570553660393 25.758121490478519 0.15615005791187289 0.33017019927501684
decision_type=2 2 2 2 2
left_child=1 -1 4 -3 -2
right_child=2 3 -4 -5 -6
leaf_value=0.024215337634086589 0.0079504870499173819 -0.011510763565699257 -0.01330964583903551 0.0043393534918626138 -0.0054361653048545112
leaf_weight=3.0000000000000018 2.9999999999999982 3 4 3 4
leaf_count=3 3 3 4 3 4
internal_value=-3.72529e-11 0.00568131 -0.00464834 -0.00358571 0.000300971
internal_weight=20 9 11 6 7
internal_count=20 9 11 6 7
is_linear=0
shrinkage=0.1


Tree=32
num_leaves=4
num_cat=0
split_feature=9 14 4
split_gain=0.0448155 0.0534833 0.0581985
threshold=-0.20575523376464841 0.020628991536796096 25.758121490478519
decision_type=2 2 2
left_child=-1 -2 -3
right_child=1 2 -4
leaf_value=0.011268422255913403 0.010128257299462942 -0.00050724191823974256 -0.014779405016452075
leaf_weight=3.0000000000000027 3.0000000000000027 9.9999999999999982 3.9999999999999991
leaf_count=3 3 10 4
internal_value=-2.91038e-11 -0.00198855 -0.004585
internal_weight=20 17 14
internal_count=20 17 14
is_linear=0
shrinkage=0.1


Tree=33
num_leaves=4
num_cat=0
split_feature=9 14 1
split_gain=0.0363006 0.0433215 0.0488656
threshold=-0.20575523376464841 0.020628991536796096 1.0000000180025095e-35
decision_type=2 2 2
left_child=-1 -2 -3
right_child=1 2 -4
leaf_value=0.010141580551862706 0.009115431395669768 -0.012052863724529744 0.00027703129324234193
leaf_weight=3.0000000000000027 3.0000000000000027 4.9999999999999991 8.9999999999999982
leaf_count=3 3 5 9
internal_value=-5.70435e-11 -0.00178969 -0.0041265
internal_weight=20 17 14
internal_count=20 17 14
is_linear=0
shrinkage=0.1


Tree=34
num_leaves=5
num_cat=0
split_feature=7 6 2 4
split_gain=0.0347832 0.0605743 0.0701558 0.0407839
threshold=0.94901025295257579 -0.080485537648200975 0.1553570553660393 25.758121490478519
decision_type=2 2 2 2
left_child=-1 2 -2 -3
right_child=1 3 -4 -5
leaf_value=-0.0099273604651292056 0.020446354647477433 0.0019719913369044672 0.00021661520004272457 -0.01106384810991585
leaf_weight=3.0000000000000027 3.0000000000000044 5.9999999999999964 4 4
leaf_count=3 3 6 4 4
internal_value=-5.3551e-11 0.00175189 0.0088865 -0.00324234
internal_weight=20 17 7 10
internal_count=20 17 7 10
is_linear=0
shrinkage=0.1


Tree=35
num_leaves=6
num_cat=0
split_feature=11 12 8 2 5
split_gain=0.0315393 0.0616371 0.0530682 0.0200186 0.00273071
threshold=0.097451426088809981 0.39614365994930273 0.26784237474203115 0.12675541639328006 0.23015873134136203
decision_type=2 2 2 2 2
left_child=3 -2 -3 -1 -5
right_child=1 2 -4 4 -6
leaf_value=0.0022795471362769583 -0.0046080268919467936 0.019829983264207835 0.001020724202195803 -0.0055917530320584762 -0.0098584565023581167
leaf_weight=3.0000000000000018 4.9999999999999982 3 3 3 3
leaf_count=3 5 3 3 3 3
internal_value=3.72529e-11 0.003592 0.0104254 -0.00439022 -0.0077251
internal_weight=20 11 6 9 6
internal_count=20 11 6 9 6
is_linear=0
shrinkage=0.1


Tree=36
num_leaves=6
num_cat=0
split_feature=6 2 12 11 10
split_gain=0.0268395 0.085306 0.0300327 0.0207725 0.0173643
threshold=-0.080485537648200975 0.1553570553660393 0.39614365994930273 0.097451426088809981 0.34373533725738531
decision_type=2 2 2 2 2
left_child=1 -1 -2 -3 -4
right_child=2 3 4 -5 -6
leaf_value=0.017818335443735105 -0.011846252158284188 -0.0087182208895683257 -0.0047727274220960673 0.0030496781071027114 0.0045450722333043809
leaf_weight=3.0000000000000018 2.9999999999999991 3 4 3 4
leaf_count=3 3 3 4 3 4
internal_value=3.76895e-11 0.00404993 -0.00331358 -0.00283427 -0.000113828
internal_weight=20 9 11 6 8
internal_count=20 9 11 6 8
is_linear=0
shrinkage=0.1


Tree=37
num_leaves=4
num_cat=0
split_feature=9 0 2
split_gain=0.0236496 0.0274541 0.0382425
threshold=-0.20575523376464841 0.058537483215332038 0.12675541639328006
decision_type=2 2 2
left_child=-1 2 -2
right_child=1 -3 -4
leaf_value=0.0081857924660046801 0.003186896042898295 0.0058001535944640636 -0.0079615589580498639
leaf_weight=3.0000000000000027 5.0000000000000027 3.9999999999999991 7.9999999999999991
leaf_count=3 5 4 8
internal_value=1.62981e-11 -0.00144455 -0.00367369
internal_weight=20 17 13
internal_count=20 17 13
is_linear=0
shrinkage=0.1


Tree=38
num_leaves=4
num_cat=0
split_feature=15 1 4
split_gain=0.0215316 0.0608535 0.0314009
threshold=-16.999999999999996 -0.03205007687211036 25.758121490478519
decision_type=2 2 2
left_child=-1 -2 -3
right_child=1 2 -4
leaf_value=-0.0065622560214251228 0.014478458215792956 0.0019544590109338371 -0.008694120007567108
leaf_weight=4.0000000000000027 3.0000000000000027 8.9999999999999947 3.9999999999999991
leaf_count=4 3 9 4
internal_value=8.14907e-11 0.00164056 -0.00132203
internal_weight=20 16 13
internal_count=20 16 13
is_linear=0
shrinkage=0.1


Tree=39
num_leaves=5
num_cat=0
split_feature=7 6 2 12
split_gain=0.0204143 0.0292282 0.035497 0.0247254
threshold=0.94901025295257579 -0.080485537648200975 0.1553570553660393 0.39614365994930273
decision_type=2 2 2 2
left_child=-1 2 -2 -3
right_child=1 3 -4 -5
leaf_value=-0.0076052881777286451 0.014520803093910193 -0.0097226270784934454 0.00013101575896143911 0.0011281819947596106
leaf_weight=3.0000000000000027 3.0000000000000044 2.9999999999999964 4 7
leaf_count=3 3 3 4 7
internal_value=2.56114e-11 0.00134211 0.00629807 -0.00212706
internal_weight=20 17 7 10
internal_count=20 17 7 10
is_linear=0
shrinkage=0.1


Tree=40
num_leaves=6
num_cat=0
split_feature=12 11 8 0 7
split_gain=0.0167798 0.0382056 0.0312809 0.012515 0.0121114
threshold=0.39614365994930273 0.097451426088809981 0.26784237474203115 -1.0000000180025095e-35 0.98680251836776745
decision_type=2 2 2 2 2
left_child=4 3 -3 -2 -1
right_child=1 2 -4 -5 -6
leaf_value=-0.00034500658512115451 0.0019888794980943195 0.015201433499654131 0.00076054058348139111 -0.0065553599037230046 -0.0087503645680044404
leaf_weight=4.0000000000000027 3.0000000000000009 3 3 3.9999999999999973 3
leaf_count=4 3 3 3 4 3
internal_value=5.4215e-11 0.00212547 0.00798099 -0.00289354 -0.0039473
internal_weight=20 13 6 7 7
internal_count=20 13 6 7 7
is_linear=0
shrinkage=0.1


Tree=41
num_leaves=4
num_cat=0
split_feature=15 1 4
split_gain=0.0156158 0.0382443 0.0213213
threshold=-16.999999999999996 -0.03205007687211036 25.758121490478519
decision_type=2 2 2
left_child=-1 -2 -3
right_child=1 2 -4
leaf_value=-0.0055885326582938389 0.011574477454026526 0.0017483901853362729 -0.0070262030465528371
leaf_weight=4.0000000000000027 3.0000000000000027 8.9999999999999947 3.9999999999999991
leaf_count=4 3 9 4
internal_value=6.0536e-11 0.00139713 -0.000951485
internal_weight=20 16 13
internal_count=20 16 13
is_linear=0
shrinkage=0.1


Tree=42
num_leaves=4
num_cat=0
split_feature=7 6 15
split_gain=0.0141264 0.0196358 0.020264
threshold=0.94901025295257579 -0.061688659712672227 -16.999999999999996
decision_type=2 2 2
left_child=-1 2 -2
right_child=1 -3 -4
leaf_value=-0.0063265100121498042 -0.0042066225471595851 -0.0050104598398320399 0.0051641237689182169
leaf_weight=3.0000000000000027 3.0000000000000044 3.9999999999999973 9.9999999999999982
leaf_count=3 3 4 10
internal_value=3.25963e-11 0.00111644 0.00300164
internal_weight=20 17 13
internal_count=20 17 13
is_linear=0
shrinkage=0.1


Tree=43
num_leaves=6
num_cat=0
split_feature=12 11 8 0 7
split_gain=0.0130084 0.0284251 0.019771 0.00777769 0.00769226
threshold=0.39614365994930273 0.097451426088809981 0.26784237474203115 -1.0000000180025095e-35 0.98680251836776745
decision_type=2 2 2 2 2
left_child=4 3 -3 -2 -1
right_child=1 2 -4 -5 -6
leaf_value=-0.00060468115843832445 0.0013912265188992016 0.01266250188151995 0.001181796643262108 -0.0053444873541593574 -0.0073033008414010187
leaf_weight=4.0000000000000027 3.0000000000000009 3 3 3.9999999999999973 3
leaf_count=4 3 3 3 4 3
internal_value=-7.21775e-11 0.00187143 0.00692215 -0.00245775 -0.00347552
internal_weight=20 13 6 7 7
internal_count=20 13 6 7 7
is_linear=0
shrinkage=0.1


Tree=44
num_leaves=6
num_cat=0
split_feature=12 11 8 0 7
split_gain=0.0105368 0.0230244 0.0160145 0.00629993 0.00623073
threshold=0.39614365994930273 0.097451426088809981 0.26784237474203115 -1.0000000180025095e-35 0.98680251836776745
decision_type=2 2 2 2 2
left_child=4 3 -3 -2 -1
right_child=1 2 -4 -5 -6
leaf_value=-0.00054421299137175029 0.0012521039340451044 0.011396251867214836 0.0010636170084277786 -0.0048100384883582618 -0.0065729709963003773
leaf_weight=4.0000000000000027 3.0000000000000009 3 3 3.9999999999999973 3
leaf_count=4 3 3 3 4 3
internal_value=-2.39379e-11 0.00168429 0.00622993 -0.00221198 -0.00312797
internal_weight=20 13 6 7 7
internal_count=20 13 6 7 7
is_linear=0
shrinkage=0.1


Tree=45
num_leaves=4
num_cat=0
split_feature=15 1 4
split_gain=0.00924865 0.0242255 0.0157436
threshold=-16.999999999999996 -0.03205007687211036 25.758121490478519
decision_type=2 2 2
left_child=-1 -2 -3
right_child=1 2 -4
leaf_value=-0.0043008474865928251 0.0091752513622244108 0.0015259752929624591 -0.0060140353394672278
leaf_weight=4.0000000000000027 3.0000000000000027 8.9999999999999947 3.9999999999999991
leaf_count=4 3 9 4
internal_value=2.09548e-11 0.00107521 -0.000794028
internal_weight=20 16 13
internal_count=20 16 13
is_linear=0
shrinkage=0.1


Tree=46
num_leaves=5
num_cat=0
split_feature=7 6 2 4
split_gain=0.00860245 0.0104469 0.0177367 0.011815
threshold=0.94901025295257579 -0.080485537648200975 0.1553570553660393 25.758121490478519
decision_type=2 2 2 2
left_child=-1 2 -2 -3
right_child=1 3 -4 -5
leaf_value=-0.0049369643131891832 0.0096465667088826337 0.0016037246522804108 -0.00052515682764351366 -0.0054126318544149392
leaf_weight=3.0000000000000027 3.0000000000000044 5.9999999999999964 4 4
leaf_count=3 3 6 4 4
internal_value=1.86265e-11 0.000871229 0.00383415 -0.00120282
internal_weight=20 17 7 10
internal_count=20 17 7 10
is_linear=0
shrinkage=0.1


Tree=47
num_leaves=6
num_cat=0
split_feature=12 11 14 0 7
split_gain=0.00799652 0.0173009 0.011052 0.00454163 0.00336917
threshold=0.39614365994930273 0.097451426088809981 0.023986122570931915 -1.0000000180025095e-35 0.98680251836776745
decision_type=2 2 2 2 2
left_child=4 3 -3 -2 -1
right_child=1 2 -4 -5 -6
leaf_value=-0.00082499417476355964 0.0010310411142806207 0.0011157830944284793 0.0096994909147421499 -0.0041160775814205429 -0.0052582190061608936
leaf_weight=4.0000000000000027 3.0000000000000009 3 3 3.9999999999999973 3
leaf_count=4 3 3 3 4 3
internal_value=6.63567e-11 0.00146728 0.00540764 -0.00191017 -0.00272495
internal_weight=20 13 6 7 7
internal_count=20 13 6 7 7
is_linear=0
shrinkage=0.1


Tree=48
num_leaves=4
num_cat=0
split_feature=15 8 6
split_gain=0.00664271 0.0156407 0.00950058
threshold=-16.999999999999996 0.15615005791187289 -0.061688659712672227
decision_type=2 2 2
left_child=-1 -2 -3
right_child=1 2 -4
leaf_value=-0.0036449168575927583 0.00741970892995596 0.00088996186153963205 -0.0055263592551151909
leaf_weight=4.0000000000000027 2.9999999999999991 9.9999999999999982 2.9999999999999991
leaf_count=4 3 10 3
internal_value=1.04774e-11 0.000911229 -0.000590728
internal_weight=20 16 13
internal_count=20 16 13
is_linear=0
shrinkage=0.1


Tree=49
num_leaves=6
num_cat=0
split_feature=12 11 14 7 0
split_gain=0.00627307 0.0140585 0.00859663 0.00305349 0.00293959
threshold=0.39614365994930273 0.097451426088809981 0.023986122570931915 0.98680251836776745 -1.0000000180025095e-35
decision_type=2 2 2 2 2
left_child=3 4 -3 -1 -2
right_child=1 2 -4 -5 -6
leaf_value=-0.0006047470495104785 0.00062128260421256184 0.0010663712397217748 0.0086367649336655909 -0.0048251745601495099 -0.0035196859855204836
leaf_weight=4.0000000000000027 3.0000000000000009 3 3 3 3.9999999999999973
leaf_count=4 3 3 3 3 4
internal_value=2.56114e-11 0.00129958 0.00485157 -0.0024135 -0.00174499
internal_weight=20 13 6 7 7
internal_count=20 13 6 7 7
is_linear=0
shrinkage=0.1


end of trees

feature_importances:
max_drawdown_3m=30
nifty_vol_1m=29
bottom_decile_return_1m=23
hit_rate_top_k=19
trend_50_200=15
cross_sectional_vol=15
turnover_1m=15
nifty_ret_1m=13
india_vix=13
top_decile_return_1m=12
nifty_trend_duration=10
nifty_ret_3m=7
vix_percentile_1y=2
spread_decile=2

parameters:
[boosting: gbdt]
[objective: regression]
[metric: l2]
[tree_learner: serial]
[device_type: cpu]
[data_sample_strategy: bagging]
[data: ]
[valid: ]
[num_iterations: 50]
[learning_rate: 0.1]
[num_leaves: 31]
[num_threads: 2]
[seed: 0]
[deterministic: 0]
[force_col_wise: 0]
[force_row_wise: 0]
[histogram_pool_size: -1]
[max_depth: 3]
[min_data_in_leaf: 3]
[min_sum_hessian_in_leaf: 0.001]
[bagging_fraction: 1]
[pos_bagging_fraction: 1]
[neg_bagging_fraction: 1]
[bagging_freq: 0]
[bagging_seed: 3]
[bagging_by_query: 0]
[feature_fraction: 1]
[feature_fraction_bynode: 1]
[feature_fraction_seed: 2]
[extra_trees: 0]
[extra_seed: 6]
[early_stopping_round: 0]
[early_stopping_min_delta: 0]
[first_metric_only: 0]
[max_delta_step: 0]
[lambda_l1: 0]
[lambda_l2: 0]
[linear_lambda: 0]
[min_gain_to_split: 0]
[drop_rate: 0.1]
[max_drop: 50]
[skip_drop: 0.5]
[xgboost_dart_mode: 0]
[uniform_drop: 0]
[drop_seed: 4]
[top_rate: 0.2]
[other_rate: 0.1]
[min_data_per_group: 100]
[max_cat_threshold: 32]
[cat_l2: 10]
[cat_smooth: 10]
[max_cat_to_onehot: 4]
[top_k: 20]
[monotone_constraints: ]
[monotone_constraints_method: basic]
[monotone_penalty: 0]
[feature_contri: ]
[forcedsplits_filename: ]
[refit_decay_rate: 0.9]
[cegb_tradeoff: 1]
[cegb_penalty_split: 0]
[cegb_penalty_feature_lazy: ]
[cegb_penalty_feature_coupled: ]
[path_smooth: 0]
[interaction_constraints: ]
[verbosity: -1]
[saved_feature_importance_type: 0]
[use_quantized_grad: 0]
[num_grad_quant_bins: 4]
[quant_train_renew_leaf: 0]
[stochastic_rounding: 1]
[linear_tree: 0]
[max_bin: 255]
[max_bin_by_feature: ]
[min_data_in_bin: 3]
[bin_construct_sample_cnt: 200000]
[data_random_seed: 1]
[is_enable_sparse: 1]
[enable_bundle: 1]
[use_missing: 1]
[zero_as_missing: 0]
[feature_pre_filter: 1]
[pre_partition: 0]
[two_round: 0]
[header: 0]
[label_column: ]
[weight_column: ]
[group_column: ]
[ignore_column: ]
[categorical_feature: ]
[forcedbins_filename: ]
[precise_float_parser: 0]
[parser_config_file: ]
[objective_seed: 5]
[num_class: 1]
[is_unbalance: 0]
[scale_pos_weight: 1]
[sigmoid: 1]
[boost_from_average: 1]
[reg_sqrt: 0]
[alpha: 0.9]
[fair_c: 1]
[poisson_max_delta_step: 0.7]
[tweedie_variance_power: 1.5]
[lambdarank_truncation_level: 30]
[lambdarank_norm: 1]
[label_gain: ]
[lambdarank_position_bias_regularization: 0]
[eval_at: ]
[multi_error_top_k: 1]
[auc_mu_weights: ]
[num_machines: 1]
[local_listen_port: 12400]
[time_out: 120]
[machine_list_filename: ]
[machines: ]
[gpu_platform_id: -1]
[gpu_device_id: -1]
[gpu_use_dp: 0]
[num_gpu: 1]

end of parameters

pandas_categorical:null
