tree
version=v4
num_class=1
num_tree_per_iteration=1
label_index=0
max_feature_idx=22
objective=regression
feature_names=nifty_ret_1m nifty_ret_3m nifty_vol_1m vol_percentile_1y india_vix vix_percentile_1y max_drawdown_3m trend_50_200 top_decile_return_1m bottom_decile_return_1m spread_decile cross_sectional_vol hit_rate_top_k sector_dispersion cash_ratio current_drawdown portfolio_vol_1m turnover_1m exposure_concentration top5_weight_sum avg_cost_per_turnover turnover_capacity_utilization nifty_trend_duration
feature_infos=[-0.061950217932462692:0.10700655728578568] [-0.11633323132991791:0.091446787118911743] [0:0.22141033411026001] [0:0.1349206417798996] none none [-0.82460588216781616:0] none [0.10166497528553009:0.72764718532562256] [-0.22188952565193176:-0.067068926990032196] [0.24193346500396729:0.84928488731384277] [0.068980887532234192:0.66067612171173096] [0.13675214350223541:0.87179487943649292] [0.068980887532234192:0.66067612171173096] none [-0.11126459389925003:-0.032696299254894257] [0.016348149627447128:0.055632296949625015] [0.018023582175374031:0.4882219135761261] none none none [0.040052406489849091:1] [-38:51]
tree_sizes=541 549 613 547 624 552 625 628 554 531 628 634 556 611 554 609 554 614 580 556 615 631 557 554 553 536 559 558 556 622 556 558 640 633 643 635 561 559 642 559 618 643 618 602 559 721 644 635 542 642

Tree=0
num_leaves=4
num_cat=0
split_feature=9 17 12
split_gain=2.77401 3.53655 1.86575
threshold=-0.20575523376464841 0.020628991536796096 0.39614365994930273
decision_type=2 2 2
left_child=-1 -2 -3
right_child=1 2 -4
leaf_value=-0.25692303528388333 -0.25115324407815925 -0.073788832873106003 -0.15459794305264951
leaf_weight=3.0000000000000027 3.0000000000000027 3.9999999999999991 9.9999999999999982
leaf_count=3 3 4 10
internal_value=-0.168268 -0.152623 -0.13151
internal_weight=20 17 14
internal_count=20 17 14
is_linear=0
shrinkage=1


Tree=1
num_leaves=4
num_cat=0
split_feature=9 17 22
split_gain=2.24694 2.8646 1.5878
threshold=-0.20575523376464841 0.020628991536796096 1.0000000180025095e-35
decision_type=2 2 2
left_child=-1 -2 -3
right_child=1 2 -4
leaf_value=-0.079789372285207022 -0.074596560001373199 0.071969622001051906 0.0039175065001472833
leaf_weight=3.0000000000000027 3.0000000000000027 5.9999999999999991 7.9999999999999991
leaf_count=3 3 6 8
internal_value=-6.42613e-10 0.0140805 0.0330827
internal_weight=20 17 14
internal_count=20 17 14
is_linear=0
shrinkage=0.1


Tree=2
num_leaves=5
num_cat=0
split_feature=17 6 17 17
split_gain=2.01066 1.62852 0.680569 0.838443
threshold=0.1155377132818103 -0.58863858878612507 0.020628991536796096 0.0258247209712863
decision_type=2 2 2 2
left_child=2 -2 -1 -4
right_child=1 -3 3 -5
leaf_value=-0.06713690161705009 -0.019414521257082609 0.073781319856643685 0.009443296492099764 -0.055304036537806182
leaf_weight=3.0000000000000027 3.0000000000000009 4.9999999999999991 5.9999999999999982 3
leaf_count=3 3 5 6 3
internal_value=0 0.0388329 -0.0258886 -0.0121391
internal_weight=20 8 12 9
internal_count=20 8 12 9
is_linear=0
shrinkage=0.1


Tree=3
num_leaves=4
num_cat=0
split_feature=9 17 12
split_gain=1.7114 1.92597 1.26377
threshold=-0.20575523376464841 0.020628991536796096 0.39614365994930273
decision_type=2 2 2
left_child=-1 -2 -3
right_child=1 2 -4
leaf_value=-0.069634591539700738 -0.06042321324348443 0.075374521315097809 0.0088675320707261567
leaf_weight=3.0000000000000027 3.0000000000000027 3.9999999999999991 9.9999999999999982
leaf_count=3 3 4 10
internal_value=-4.19095e-10 0.0122885 0.0278695
internal_weight=20 17 14
internal_count=20 17 14
is_linear=0
shrinkage=0.1


Tree=4
num_leaves=5
num_cat=0
split_feature=17 6 17 8
split_gain=1.48576 1.15835 0.412847 0.70484
threshold=0.1155377132818103 -0.58863858878612507 0.020628991536796096 0.26784237474203115
decision_type=2 2 2 2
left_child=2 -2 -1 -4
right_child=1 -3 3 -5
leaf_value=-0.054380891720453843 -0.015743085555732242 0.062856156229972843 -0.031333753466606148 0.028031220038731888
leaf_weight=3.0000000000000027 3.0000000000000009 4.9999999999999991 5.9999999999999982 3
leaf_count=3 3 5 6 3
internal_value=-5.68107e-10 0.0333814 -0.0222543 -0.0115454
internal_weight=20 8 12 9
internal_count=20 8 12 9
is_linear=0
shrinkage=0.1


Tree=5
num_leaves=4
num_cat=0
split_feature=9 17 22
split_gain=1.27302 1.29145 1.08391
threshold=-0.20575523376464841 0.020628991536796096 1.0000000180025095e-35
decision_type=2 2 2
left_child=-1 -2 -3
right_child=1 2 -4
leaf_value=-0.060057446360588011 -0.048942802349726304 0.055486505851149559 -0.00073978538275696346
leaf_weight=3.0000000000000027 3.0000000000000027 5.9999999999999991 7.9999999999999991
leaf_count=3 3 6 8
internal_value=2.95695e-10 0.0105984 0.0233572
internal_weight=20 17 14
internal_count=20 17 14
is_linear=0
shrinkage=0.1


Tree=6
num_leaves=5
num_cat=0
split_feature=17 6 17 17
split_gain=1.15665 0.829496 0.254066 0.48454
threshold=0.1155377132818103 -0.58863858878612507 0.0258247209712863 0.020628991536796096
decision_type=2 2 2 2
left_child=2 -2 3 -1
right_child=1 -3 -4 -5
leaf_value=-0.044048521916071538 -0.012117542761067543 0.054395467936992653 -0.044837872187296554 0.0051724128425121307
leaf_weight=3.0000000000000018 3.0000000000000009 4.9999999999999991 2.9999999999999991 6
leaf_count=3 3 5 3 6
internal_value=3.07336e-10 0.0294531 -0.0196354 -0.0112346
internal_weight=20 8 12 9
internal_count=20 8 12 9
is_linear=0
shrinkage=0.1


Tree=7
num_leaves=5
num_cat=0
split_feature=9 17 12 22
split_gain=0.966342 0.983271 0.48916 0.381559
threshold=-0.20575523376464841 0.1155377132818103 0.46052631735801702 -1.0000000180025095e-35
decision_type=2 2 2 2
left_child=-1 3 -3 -2
right_child=1 2 -4 -5
leaf_value=-0.052325601379076582 0.0050614625215530361 0.068503279487291971 0.015085765591356902 -0.034811217337846763
leaf_weight=3.0000000000000027 6.0000000000000036 2.9999999999999991 4 3.9999999999999982
leaf_count=3 6 3 4 4
internal_value=1.234e-10 0.00923393 0.037979 -0.0108876
internal_weight=20 17 7 10
internal_count=20 17 7 10
is_linear=0
shrinkage=0.1


Tree=8
num_leaves=4
num_cat=0
split_feature=9 17 22
split_gain=0.782737 0.809208 0.751278
threshold=-0.20575523376464841 0.020628991536796096 1.0000000180025095e-35
decision_type=2 2 2
left_child=-1 -2 -3
right_child=1 2 -4
leaf_value=-0.047093041737874292 -0.038820726672808281 0.045158971349398301 -0.001651566184591502
leaf_weight=3.0000000000000027 3.0000000000000027 5.9999999999999991 7.9999999999999991
leaf_count=3 3 6 8
internal_value=-3.3062e-10 0.00831054 0.0184101
internal_weight=20 17 14
internal_count=20 17 14
is_linear=0
shrinkage=0.1


Tree=9
num_leaves=4
num_cat=0
split_feature=17 6 8
split_gain=0.73018 0.488117 0.163069
threshold=0.1155377132818103 -0.58863858878612507 0.20641204714775088
decision_type=2 2 2
left_child=2 -2 -1
right_child=1 -3 -4
leaf_value=-0.027258282154798499 -0.0084874471959968372 0.042535026073455814 -0.0039438501000404356
leaf_weight=6.0000000000000018 3.0000000000000009 4.9999999999999991 6
leaf_count=6 3 5 6
internal_value=-2.37487e-10 0.0234016 -0.0156011
internal_weight=20 8 12
internal_count=20 8 12
is_linear=0
shrinkage=0.1


Tree=10
num_leaves=5
num_cat=0
split_feature=17 6 17 8
split_gain=0.591446 0.395375 0.155649 0.363739
threshold=0.1155377132818103 -0.58863858878612507 0.020628991536796096 0.26784237474203115
decision_type=2 2 2 2
left_child=2 -2 -1 -4
right_child=1 -3 3 -5
leaf_value=-0.03376712203025814 -0.0076387019284690372 0.038281524479389192 -0.021680964902043347 0.020965210596720373
leaf_weight=3.0000000000000027 3.0000000000000009 4.9999999999999991 5.9999999999999982 3
leaf_count=3 3 5 6 3
internal_value=-3.55067e-10 0.0210614 -0.014041 -0.00746557
internal_weight=20 8 12 9
internal_count=20 8 12 9
is_linear=0
shrinkage=0.1


Tree=11
num_leaves=5
num_cat=0
split_feature=9 17 12 22
split_gain=0.525421 0.519211 0.275768 0.252428
threshold=-0.20575523376464841 0.1155377132818103 0.46052631735801702 -1.0000000180025095e-35
decision_type=2 2 2 2
left_child=-1 3 -3 -2
right_child=1 2 -4 -5
leaf_value=-0.038583581397930736 0.0051597038904825816 0.050615751743316652 0.010507825529202817 -0.027271507959812886
leaf_weight=3.0000000000000027 6.0000000000000036 2.9999999999999991 4 3.9999999999999982
leaf_count=3 6 3 4 4
internal_value=2.32831e-10 0.00680887 0.0276969 -0.00781278
internal_weight=20 17 7 10
internal_count=20 17 7 10
is_linear=0
shrinkage=0.1


Tree=12
num_leaves=4
num_cat=0
split_feature=9 17 22
split_gain=0.425591 0.470891 0.562703
threshold=-0.20575523376464841 0.020628991536796096 1.0000000180025095e-35
decision_type=2 2 2
left_child=-1 -2 -3
right_child=1 2 -4
leaf_value=-0.034725223730007769 -0.029825339217980668 0.036981946726640062 -0.003529999360762304
leaf_weight=3.0000000000000027 3.0000000000000027 5.9999999999999991 7.9999999999999991
leaf_count=3 3 6 8
internal_value=-1.68511e-10 0.00612798 0.0138323
internal_weight=20 17 14
internal_count=20 17 14
is_linear=0
shrinkage=0.1


Tree=13
num_leaves=5
num_cat=0
split_feature=17 6 9 8
split_gain=0.373827 0.224792 0.141392 0.225466
threshold=0.1155377132818103 -0.58863858878612507 -0.11789804697036742 0.26784237474203115
decision_type=2 2 2 2
left_child=2 -2 3 -1
right_child=1 -3 -4 -5
leaf_value=-0.016087720450013873 -0.0048963942332193233 0.02972863644361496 -0.029963893194993318 0.017487998803456622
leaf_weight=6 3.0000000000000009 4.9999999999999991 3.0000000000000009 3
leaf_count=6 3 5 3 3
internal_value=-3.17814e-10 0.0167442 -0.0111628 -0.00489581
internal_weight=20 8 12 9
internal_count=20 8 12 9
is_linear=0
shrinkage=0.1


Tree=14
num_leaves=4
num_cat=0
split_feature=9 17 12
split_gain=0.318007 0.354333 0.452083
threshold=-0.20575523376464841 0.020628991536796096 0.39614365994930273
decision_type=2 2 2
left_child=-1 -2 -3
right_child=1 2 -4
leaf_value=-0.030016972807546421 -0.025890683631102213 0.040393078513443474 0.00061506582191213962
leaf_weight=3.0000000000000027 3.0000000000000027 3.9999999999999991 9.9999999999999982
leaf_count=3 3 4 10
internal_value=1.47847e-10 0.00529711 0.0119802
internal_weight=20 17 14
internal_count=20 17 14
is_linear=0
shrinkage=0.1


Tree=15
num_leaves=5
num_cat=0
split_feature=17 6 9 8
split_gain=0.276356 0.152835 0.10953 0.174507
threshold=0.1155377132818103 -0.58863858878612507 -0.11789804697036742 0.20641204714775088
decision_type=2 2 2 2
left_child=2 -2 3 -1
right_child=1 -3 -4 -5
leaf_value=-0.016536564072594042 -0.0034471936834355177 0.025103145688772199 -0.026145485540231057 0.0114862831949722
leaf_weight=5 3.0000000000000009 4.9999999999999991 3.0000000000000009 4
leaf_count=5 3 5 3 4
internal_value=1.59489e-10 0.0143968 -0.00959785 -0.00408197
internal_weight=20 8 12 9
internal_count=20 8 12 9
is_linear=0
shrinkage=0.1


Tree=16
num_leaves=4
num_cat=0
split_feature=9 17 22
split_gain=0.234894 0.261925 0.4042
threshold=-0.20575523376464841 0.020628991536796096 1.0000000180025095e-35
decision_type=2 2 2
left_child=-1 -2 -3
right_child=1 2 -4
leaf_value=-0.025797932098309169 -0.022261757155259423 0.029918704181909561 -0.0044166442123241721
leaf_weight=3.0000000000000027 3.0000000000000027 5.9999999999999991 7.9999999999999991
leaf_count=3 3 6 8
internal_value=1.81608e-10 0.00455258 0.0102985
internal_weight=20 17 14
internal_count=20 17 14
is_linear=0
shrinkage=0.1


Tree=17
num_leaves=5
num_cat=0
split_feature=17 6 9 8
split_gain=0.218714 0.104511 0.0912103 0.121935
threshold=0.1155377132818103 -0.58863858878612507 -0.11789804697036742 0.20641204714775088
decision_type=2 2 2 2
left_child=2 -2 3 -1
right_child=1 -3 -4 -5
leaf_value=-0.013915796428918837 -0.0019480994902551165 0.021661082208156587 -0.023638947308063495 0.0095086795161478197
leaf_weight=5 3.0000000000000009 4.9999999999999991 3.0000000000000009 4
leaf_count=5 3 5 3 4
internal_value=3.28291e-10 0.0128076 -0.00853843 -0.00350492
internal_weight=20 8 12 9
internal_count=20 8 12 9
is_linear=0
shrinkage=0.1


Tree=18
num_leaves=5
num_cat=0
split_feature=17 3 9 8
split_gain=0.177158 0.0891706 0.0738803 0.101759
threshold=0.1155377132818103 0.069444447755813613 -0.11789804697036742 0.26784237474203115
decision_type=2 2 2 2
left_child=2 -2 3 -1
right_child=1 -3 -4 -5
leaf_value=-0.010673273649687568 0.019704769738018511 -0.002102950789655248 -0.021275052924950907 0.011883265773455299
leaf_weight=6 5 3 3.0000000000000009 3
leaf_count=6 5 3 3 3
internal_value=-3.51574e-10 0.0115269 -0.00768458 -0.00315443
internal_weight=20 8 12 9
internal_count=20 8 12 9
is_linear=0
shrinkage=0.1


Tree=19
num_leaves=4
num_cat=0
split_feature=9 17 22
split_gain=0.162296 0.179795 0.319673
threshold=-0.20575523376464841 0.020628991536796096 1.0000000180025095e-35
decision_type=2 2 2
left_child=-1 -2 -3
right_child=1 2 -4
leaf_value=-0.021443832417329129 -0.018431877469023049 0.025993291909495994 -0.0045415772299747916
leaf_weight=3.0000000000000027 3.0000000000000027 5.9999999999999991 7.9999999999999991
leaf_count=3 3 6 8
internal_value=1.97906e-10 0.00378421 0.0085448
internal_weight=20 17 14
internal_count=20 17 14
is_linear=0
shrinkage=0.1


Tree=20
num_leaves=5
num_cat=0
split_feature=17 6 9 8
split_gain=0.140802 0.0637962 0.061478 0.0709447
threshold=0.1155377132818103 -0.58863858878612507 -0.11789804697036742 0.20641204714775088
decision_type=2 2 2 2
left_child=2 -2 3 -1
right_child=1 -3 -4 -5
leaf_value=-0.010659533552825451 -0.0012523527955636375 0.017193414177745583 -0.019248208403587333 0.0072080701269442203
leaf_weight=5 3.0000000000000009 4.9999999999999991 3.0000000000000009 4
leaf_count=5 3 5 3 4
internal_value=1.74623e-12 0.0102763 -0.00685083 -0.00271838
internal_weight=20 8 12 9
internal_count=20 8 12 9
is_linear=0
shrinkage=0.1


Tree=21
num_leaves=5
num_cat=0
split_feature=9 17 9 22
split_gain=0.12141 0.143589 0.0793185 0.069807
threshold=-0.20575523376464841 0.1155377132818103 -0.13307481259107587 12.500000000000002
decision_type=2 2 2 2
left_child=-1 2 -2 -3
right_child=1 3 -4 -5
leaf_value=-0.018547069281339625 0.0064914384158328113 0.025788752098257345 -0.011688049137592318 0.0056093723454978305
leaf_weight=3.0000000000000027 4.0000000000000036 2.9999999999999991 5.9999999999999982 4
leaf_count=3 4 3 6 4
internal_value=-1.66474e-10 0.00327301 -0.00441625 0.0142577
internal_weight=20 17 10 7
internal_count=20 17 10 7
is_linear=0
shrinkage=0.1


Tree=22
num_leaves=4
num_cat=0
split_feature=9 22 17
split_gain=0.0983418 0.14139 0.0747646
threshold=-0.20575523376464841 -16.999999999999996 0.020628991536796096
decision_type=2 2 2
left_child=-1 -2 -3
right_child=1 2 -4
leaf_value=-0.016692362725734693 0.022646680474281259 -0.015269212238490601 0.0025404257541099054
leaf_weight=3.0000000000000027 3.0000000000000062 2.9999999999999956 10.999999999999998
leaf_count=3 3 3 11
internal_value=-8.73115e-12 0.00294571 -0.00127593
internal_weight=20 17 14
internal_count=20 17 14
is_linear=0
shrinkage=0.1


Tree=23
num_leaves=4
num_cat=0
split_feature=8 17 17
split_gain=0.0862999 0.0622923 0.0710304
threshold=0.12918264046311381 0.33017019927501684 0.0258247209712863
decision_type=2 2 2
left_child=-1 2 -2
right_child=1 -3 -4
leaf_value=0.015637015799681329 -0.002224942464898857 0.0066182661335915331 -0.01999263328810533
leaf_weight=3.0000000000000027 9.0000000000000018 4.9999999999999991 2.9999999999999991
leaf_count=3 9 5 3
internal_value=-1.9907e-10 -0.00275947 -0.00666687
internal_weight=20 17 12
internal_count=20 17 12
is_linear=0
shrinkage=0.1


Tree=24
num_leaves=4
num_cat=0
split_feature=9 9 9
split_gain=0.0902562 0.117428 0.0393169
threshold=-0.20575523376464841 -0.16815669089555738 -0.10658408328890799
decision_type=2 2 2
left_child=-1 -2 -3
right_child=1 2 -4
leaf_value=-0.015991428246100725 0.020776149425849592 -0.0049752275769909208 0.0060845776647329396
leaf_weight=3.0000000000000027 3.0000000000000044 9.0000000000000018 4.9999999999999938
leaf_count=3 3 9 5
internal_value=1.835e-10 0.00282202 -0.0010253
internal_weight=20 17 14
internal_count=20 17 14
is_linear=0
shrinkage=0.1


Tree=25
num_leaves=4
num_cat=0
split_feature=8 17 8
split_gain=0.0736631 0.0498659 0.107867
threshold=0.12918264046311381 0.020628991536796096 0.20641204714775088
decision_type=2 2 2
left_child=-1 -2 -3
right_child=1 2 -4
leaf_value=0.014446871976057672 -0.014249312815566843 -0.007644029642688112 0.01009326030810674
leaf_weight=3.0000000000000027 3.0000000000000027 7.9999999999999982 6
leaf_count=3 3 8 6
internal_value=1.0943e-10 -0.00254945 -4.23339e-05
internal_weight=20 17 14
internal_count=20 17 14
is_linear=0
shrinkage=0.1


Tree=26
num_leaves=4
num_cat=0
split_feature=9 22 17
split_gain=0.0804806 0.0982202 0.0547125
threshold=-0.20575523376464841 -16.999999999999996 0.020628991536796096
decision_type=2 2 2
left_child=-1 -2 -3
right_child=1 2 -4
leaf_value=-0.015100609759489679 0.019085048635800635 -0.012824382120743409 0.0024108936470425267
leaf_weight=3.0000000000000027 3.0000000000000062 2.9999999999999956 10.999999999999998
leaf_count=3 3 3 11
internal_value=1.92085e-11 0.00266481 -0.000853808
internal_weight=20 17 14
internal_count=20 17 14
is_linear=0
shrinkage=0.1


Tree=27
num_leaves=4
num_cat=0
split_feature=9 9 9
split_gain=0.0651893 0.0963051 0.0399548
threshold=-0.20575523376464841 -0.16815669089555738 -0.10658408328890799
decision_type=2 2 2
left_child=-1 -2 -3
right_child=1 2 -4
leaf_value=-0.013590547939141577 0.018657697597518532 -0.0050676604396560111 0.0060814988333731954
leaf_weight=3.0000000000000027 3.0000000000000044 9.0000000000000018 4.9999999999999938
leaf_count=3 3 9 5
internal_value=-4.07454e-11 0.00239833 -0.00108582
internal_weight=20 17 14
internal_count=20 17 14
is_linear=0
shrinkage=0.1


Tree=28
num_leaves=4
num_cat=0
split_feature=8 9 9
split_gain=0.0658268 0.0440213 0.0409805
threshold=0.12918264046311381 -0.10658408328890799 -0.11789804697036742
decision_type=2 2 2
left_child=-1 2 -2
right_child=1 -3 -4
leaf_value=0.013656837244828527 -0.0023208327591419209 0.0054733492340892573 -0.01581658571958541
leaf_weight=3.0000000000000027 9.0000000000000018 4.9999999999999973 3.0000000000000009
leaf_count=3 9 5 3
internal_value=2.95695e-10 -0.00241003 -0.00569477
internal_weight=20 17 12
internal_count=20 17 12
is_linear=0
shrinkage=0.1


Tree=29
num_leaves=5
num_cat=0
split_feature=9 9 22 17
split_gain=0.0602412 0.0812472 0.231479 0.0563921
threshold=-0.20575523376464841 -0.13307481259107587 -1.0000000180025095e-35 0.1155377132818103
decision_type=2 2 2 2
left_child=-1 2 -2 -3
right_child=1 3 -4 -5
leaf_value=-0.013064588606357558 0.031307810048262268 -0.009336377874327206 -0.0079757227717588194 0.0050431541446596378
leaf_weight=3.0000000000000027 3 5.9999999999999964 3.0000000000000044 5
leaf_count=3 3 6 3 5
internal_value=-2.56114e-11 0.00230552 0.011666 -0.00280023
internal_weight=20 17 6 11
internal_count=20 17 6 11
is_linear=0
shrinkage=0.1


Tree=30
num_leaves=4
num_cat=0
split_feature=8 17 17
split_gain=0.0518325 0.0384848 0.0552852
threshold=0.12918264046311381 0.33017019927501684 0.0258247209712863
decision_type=2 2 2
left_child=-1 2 -2
right_child=1 -3 -4
leaf_value=0.012118531763553606 -0.0012910086920277935 0.0052324219420552256 -0.016966209126015507
leaf_weight=3.0000000000000027 9.0000000000000018 4.9999999999999991 2.9999999999999991
leaf_count=3 9 5 3
internal_value=-3.0268e-11 -0.00213856 -0.00520981
internal_weight=20 17 12
internal_count=20 17 12
is_linear=0
shrinkage=0.1


Tree=31
num_leaves=4
num_cat=0
split_feature=9 22 17
split_gain=0.0553502 0.0723499 0.041282
threshold=-0.20575523376464841 -16.999999999999996 0.020628991536796096
decision_type=2 2 2
left_child=-1 -2 -3
right_child=1 2 -4
leaf_value=-0.012522997955481197 0.016302763919035554 -0.011208000546321288 0.0020258820594542407
leaf_weight=3.0000000000000027 3.0000000000000062 2.9999999999999956 10.999999999999998
leaf_count=3 3 3 11
internal_value=-5.47152e-11 0.00220994 -0.00080995
internal_weight=20 17 14
internal_count=20 17 14
is_linear=0
shrinkage=0.1


Tree=32
num_leaves=5
num_cat=0
split_feature=9 9 22 9
split_gain=0.0448336 0.064631 0.170213 0.0500265
threshold=-0.20575523376464841 -0.13307481259107587 -1.0000000180025095e-35 -0.10658408328890799
decision_type=2 2 2 2
left_child=-1 2 -2 -3
right_child=1 3 -4 -5
leaf_value=-0.011270698408285764 0.027180661261081693 -0.0087210713420063195 -0.0065054494577149432 0.0048225779738277257
leaf_weight=3.0000000000000027 3 6.0000000000000036 3.0000000000000044 4.9999999999999929
leaf_count=3 3 6 3 5
internal_value=1.00117e-10 0.00198895 0.0103376 -0.00256487
internal_weight=20 17 6 11
internal_count=20 17 6 11
is_linear=0
shrinkage=0.1


Tree=33
num_leaves=5
num_cat=0
split_feature=8 8 17 9
split_gain=0.0430441 0.035325 0.0429869 0.0167635
threshold=0.12918264046311381 0.20641204714775088 0.1155377132818103 -0.11789804697036742
decision_type=2 2 2 2
left_child=-1 2 -2 -3
right_child=1 3 -4 -5
leaf_value=0.011043477555116005 -0.012428064416162662 0.0074637009296566227 0.0014802516903728244 -0.0016914800857193769
leaf_weight=3.0000000000000027 5.0000000000000018 4.0000000000000009 4 3.9999999999999991
leaf_count=3 5 4 4 4
internal_value=3.60887e-11 -0.00194885 -0.00624659 0.00288611
internal_weight=20 17 9 8
internal_count=20 17 9 8
is_linear=0
shrinkage=0.1


Tree=34
num_leaves=5
num_cat=0
split_feature=9 9 22 9
split_gain=0.0386572 0.0556262 0.129087 0.0411121
threshold=-0.20575523376464841 -0.13307481259107587 -1.0000000180025095e-35 -0.10658408328890799
decision_type=2 2 2 2
left_child=-1 2 -2 -3
right_child=1 3 -4 -5
leaf_value=-0.010465592145919788 0.024259958136826746 -0.0079586325159956024 -0.0050757089008887524 0.0043191641941666657
leaf_weight=3.0000000000000027 3 6.0000000000000036 3.0000000000000044 4.9999999999999929
leaf_count=3 3 6 3 5
internal_value=-1.42754e-10 0.00184687 0.00959212 -0.00237782
internal_weight=20 17 6 11
internal_count=20 17 6 11
is_linear=0
shrinkage=0.1


Tree=35
num_leaves=5
num_cat=0
split_feature=8 8 17 9
split_gain=0.0340916 0.0294959 0.0332609 0.0129543
threshold=0.12918264046311381 0.20641204714775088 0.1155377132818103 -0.11789804697036742
decision_type=2 2 2 2
left_child=-1 2 -2 -3
right_child=1 3 -4 -5
leaf_value=0.0098281711339950461 -0.011098944488912816 0.0067077297251671528 0.0011351818218827247 -0.0013403587276116014
leaf_weight=3.0000000000000027 5.0000000000000018 4.0000000000000009 4 3.9999999999999991
leaf_count=3 5 4 4 4
internal_value=1.11759e-10 -0.00173438 -0.00566156 0.00268369
internal_weight=20 17 9 8
internal_count=20 17 9 8
is_linear=0
shrinkage=0.1


Tree=36
num_leaves=4
num_cat=0
split_feature=9 22 17
split_gain=0.0332375 0.0522248 0.025572
threshold=-0.20575523376464841 -16.999999999999996 0.020628991536796096
decision_type=2 2 2
left_child=-1 -2 -3
right_child=1 2 -4
leaf_value=-0.0097042794028917839 0.013685911148786513 -0.0090369823699196286 0.0013787319799038497
leaf_weight=3.0000000000000027 3.0000000000000062 2.9999999999999956 10.999999999999998
leaf_count=3 3 3 11
internal_value=-4.65661e-12 0.00171252 -0.000853207
internal_weight=20 17 14
internal_count=20 17 14
is_linear=0
shrinkage=0.1


Tree=37
num_leaves=4
num_cat=0
split_feature=8 17 17
split_gain=0.0288181 0.0250295 0.0408298
threshold=0.12918264046311381 0.33017019927501684 0.0258247209712863
decision_type=2 2 2
left_child=-1 2 -2
right_child=1 -3 -4
leaf_value=0.0090361083547274169 -0.00070370299120744041 0.0043497786298394205 -0.014174631300071875
leaf_weight=3.0000000000000027 9.0000000000000018 4.9999999999999991 2.9999999999999991
leaf_count=3 9 5 3
internal_value=-1.30385e-10 -0.00159461 -0.00407144
internal_weight=20 17 12
internal_count=20 17 12
is_linear=0
shrinkage=0.1


Tree=38
num_leaves=5
num_cat=0
split_feature=9 9 22 9
split_gain=0.03061 0.0471243 0.0875276 0.0355191
threshold=-0.20575523376464841 -0.13307481259107587 -1.0000000180025095e-35 -0.10658408328890799
decision_type=2 2 2 2
left_child=-1 2 -2 -3
right_child=1 3 -4 -5
leaf_value=-0.0093128020564714961 0.020850327517837282 -0.0074323507840745101 -0.003305778590341403 0.0039797722641378699
leaf_weight=3.0000000000000027 3 6.0000000000000036 3.0000000000000044 4.9999999999999929
leaf_count=3 3 6 3 5
internal_value=-1.38534e-10 0.00164344 0.00877227 -0.00224502
internal_weight=20 17 6 11
internal_count=20 17 6 11
is_linear=0
shrinkage=0.1


Tree=39
num_leaves=4
num_cat=0
split_feature=9 22 17
split_gain=0.0247941 0.0392832 0.0192014
threshold=-0.20575523376464841 -16.999999999999996 0.020628991536796096
decision_type=2 2 2
left_child=-1 -2 -3
right_child=1 2 -4
leaf_value=-0.0083815212051073628 0.01186350981394447 -0.0078376356512308218 0.0011879039462655784
leaf_weight=3.0000000000000027 3.0000000000000062 2.9999999999999956 10.999999999999998
leaf_count=3 3 3 11
internal_value=1.14087e-10 0.00147909 -0.00074614
internal_weight=20 17 14
internal_count=20 17 14
is_linear=0
shrinkage=0.1


Tree=40
num_leaves=5
num_cat=0
split_feature=8 8 22 17
split_gain=0.0238573 0.0244821 0.0259777 0.00877372
threshold=0.12918264046311381 0.20641204714775088 -5.4999999999999991 0.0258247209712863
decision_type=2 2 2 2
left_child=-1 2 -2 -3
right_child=1 3 -4 -5
leaf_value=0.0082216575741767793 -0.012626661298175634 0.0051394255459308617 -0.001229789263258378 -0.001701128824303547
leaf_weight=3.0000000000000027 3.0000000000000036 5 5.9999999999999982 3
leaf_count=3 3 5 6 3
internal_value=-2.7474e-10 -0.00145088 -0.00502875 0.00257422
internal_weight=20 17 9 8
internal_count=20 17 9 8
is_linear=0
shrinkage=0.1


Tree=41
num_leaves=5
num_cat=0
split_feature=9 9 22 9
split_gain=0.0207663 0.0385096 0.0657495 0.0309432
threshold=-0.20575523376464841 -0.13307481259107587 -1.0000000180025095e-35 -0.10658408328890799
decision_type=2 2 2 2
left_child=-1 2 -2 -3
right_child=1 3 -4 -5
leaf_value=-0.0076705912748972482 0.018266170254598056 -0.0070031565458824191 -0.0026701608051856313 0.0036485368479043292
leaf_weight=3.0000000000000027 3 6.0000000000000036 3.0000000000000044 4.9999999999999929
leaf_count=3 3 6 3 5
internal_value=-2.56114e-11 0.00135363 0.007798 -0.00216148
internal_weight=20 17 6 11
internal_count=20 17 6 11
is_linear=0
shrinkage=0.1


Tree=42
num_leaves=5
num_cat=0
split_feature=8 8 22 8
split_gain=0.0188185 0.0209512 0.0213336 0.00692299
threshold=0.12918264046311381 0.20641204714775088 -5.4999999999999991 0.26784237474203115
decision_type=2 2 2 2
left_child=-1 2 -2 -3
right_child=1 3 -4 -5
leaf_value=0.0073019931713739945 -0.011483742296695694 0.006232703166703382 -0.0011557290330529216 0.00015630315989255904
leaf_weight=3.0000000000000027 3.0000000000000036 3 5.9999999999999982 5
leaf_count=3 3 3 6 5
internal_value=1.86265e-10 -0.00128859 -0.0045984 0.00243495
internal_weight=20 17 9 8
internal_count=20 17 9 8
is_linear=0
shrinkage=0.1


Tree=43
num_leaves=5
num_cat=0
split_feature=17 11 17 10
split_gain=0.0179252 0.0382807 0.0539455 0.0181413
threshold=0.020628991536796096 0.097451426088809981 0.33017019927501684 0.34373533725738531
decision_type=2 2 2 2
left_child=-1 2 -2 -3
right_child=1 3 -4 -5
leaf_value=-0.007126577695210766 -0.011872184392996124 0.012438514828681942 0.0037084088660776608 0.0026021758466958996
leaf_weight=3.0000000000000027 4.0000000000000018 3 5 5
leaf_count=3 4 3 5 5
internal_value=-1.30385e-10 0.00125763 -0.0032163 0.0062908
internal_weight=20 17 9 8
internal_count=20 17 9 8
is_linear=0
shrinkage=0.1


Tree=44
num_leaves=4
num_cat=0
split_feature=9 22 9
split_gain=0.0178578 0.0313986 0.0175344
threshold=-0.20575523376464841 -16.999999999999996 -0.13307481259107587
decision_type=2 2 2
left_child=-1 -2 -3
right_child=1 2 -4
leaf_value=-0.0071131567160288419 0.010539247095584845 0.0040139163285493823 -0.0033719835854652881
leaf_weight=3.0000000000000027 3.0000000000000062 5.0000000000000027 8.9999999999999911
leaf_count=3 3 5 9
internal_value=2.56114e-11 0.00125526 -0.000734162
internal_weight=20 17 14
internal_count=20 17 14
is_linear=0
shrinkage=0.1


Tree=45
num_leaves=6
num_cat=0
split_feature=22 0 12 9 10
split_gain=0.015557 0.0294513 0.0265662 0.0235543 0.00488211
threshold=12.500000000000002 1.0000000180025095e-35 0.39614365994930273 -0.11789804697036742 0.34373533725738531
decision_type=2 2 2 2 2
left_child=2 -2 4 -4 -1
right_child=1 -3 3 -5 -6
leaf_value=-0.00035167783498763996 -0.011266357731074095 0.0027458450756967061 0.011024463083595032 0.00017221586313098674 -0.0060567130645116157
leaf_weight=3.0000000000000027 2.9999999999999991 3 4.0000000000000018 3.9999999999999982 3
leaf_count=3 3 3 4 4 3
internal_value=2.56114e-10 -0.00426026 0.00182582 0.00559834 -0.0032042
internal_weight=20 6 14 8 6
internal_count=20 6 14 8 6
is_linear=0
shrinkage=0.1


Tree=46
num_leaves=5
num_cat=0
split_feature=9 9 22 9
split_gain=0.0151685 0.0288447 0.0436559 0.0275787
threshold=-0.20575523376464841 -0.13307481259107587 -1.0000000180025095e-35 -0.10658408328890799
decision_type=2 2 2 2
left_child=-1 2 -2 -3
right_child=1 3 -4 -5
leaf_value=-0.0065557102362314781 0.015264193589488662 -0.0064561945075790042 -0.001795676661034422 0.0035997492447495507
leaf_weight=3.0000000000000027 3 6.0000000000000036 3.0000000000000044 4.9999999999999929
leaf_count=3 3 6 3 5
internal_value=-3.72529e-11 0.00115689 0.00673426 -0.00188531
internal_weight=20 17 6 11
internal_count=20 17 6 11
is_linear=0
shrinkage=0.1


Tree=47
num_leaves=5
num_cat=0
split_feature=17 8 17 10
split_gain=0.014183 0.0354532 0.0423599 0.0369635
threshold=0.020628991536796096 0.20641204714775088 0.0258247209712863 0.32746414840221411
decision_type=2 2 2 2
left_child=-1 3 -3 -2
right_child=1 2 -4 -5
leaf_value=-0.006339179351925843 0.0012957560655195261 0.01570440474897623 -0.0011003376916050907 -0.011720236639181774
leaf_weight=3.0000000000000027 8.0000000000000018 2.9999999999999991 3 2.9999999999999991
leaf_count=3 8 3 3 3
internal_value=8.61473e-11 0.00111868 0.00730203 -0.00225406
internal_weight=20 17 6 11
internal_count=20 17 6 11
is_linear=0
shrinkage=0.1


Tree=48
num_leaves=4
num_cat=0
split_feature=8 17 17
split_gain=0.0115308 0.0143959 0.0257294
threshold=0.12918264046311381 0.33017019927501684 0.023986122570931915
decision_type=2 2 2
left_child=-1 2 -2
right_child=1 -3 -4
leaf_value=0.0057158291339874205 0.0017433790800472093 0.0034995011985301974 -0.0075175441015138253
leaf_weight=3.0000000000000027 6.0000000000000018 4.9999999999999991 6
leaf_count=3 6 5 6
internal_value=1.63291e-10 -0.00100868 -0.00288708
internal_weight=20 17 12
internal_count=20 17 12
is_linear=0
shrinkage=0.1


Tree=49
num_leaves=5
num_cat=0
split_feature=9 9 22 9
split_gain=0.0128546 0.0253259 0.0317345 0.0229344
threshold=-0.20575523376464841 -0.13307481259107587 -1.0000000180025095e-35 -0.10658408328890799
decision_type=2 2 2 2
left_child=-1 2 -2 -3
right_child=1 3 -4 -5
leaf_value=-0.0060350159804026214 0.013563722247878707 -0.0059538811522846374 -0.00098149801294008707 0.0032163325045257846
leaf_weight=3.0000000000000027 3 6.0000000000000036 3.0000000000000044 4.9999999999999929
leaf_count=3 3 6 3 5
internal_value=1.86265e-11 0.001065 0.00629111 -0.0017856
internal_weight=20 17 6 11
internal_count=20 17 6 11
is_linear=0
shrinkage=0.1


end of trees

feature_importances:
bottom_decile_return_1m=56
turnover_1m=50
top_decile_return_1m=25
nifty_trend_duration=25
max_drawdown_3m=9
hit_rate_top_k=6
spread_decile=3
nifty_ret_1m=1
vol_percentile_1y=1
cross_sectional_vol=1

parameters:
[boosting: gbdt]
[objective: regression]
[metric: l2]
[tree_learner: serial]
[device_type: cpu]
[data_sample_strategy: bagging]
[data: ]
[valid: ]
[num_iterations: 50]
[learning_rate: 0.1]
[num_leaves: 31]
[num_threads: 2]
[seed: 0]
[deterministic: 0]
[force_col_wise: 0]
[force_row_wise: 0]
[histogram_pool_size: -1]
[max_depth: 3]
[min_data_in_leaf: 3]
[min_sum_hessian_in_leaf: 0.001]
[bagging_fraction: 1]
[pos_bagging_fraction: 1]
[neg_bagging_fraction: 1]
[bagging_freq: 0]
[bagging_seed: 3]
[bagging_by_query: 0]
[feature_fraction: 1]
[feature_fraction_bynode: 1]
[feature_fraction_seed: 2]
[extra_trees: 0]
[extra_seed: 6]
[early_stopping_round: 0]
[early_stopping_min_delta: 0]
[first_metric_only: 0]
[max_delta_step: 0]
[lambda_l1: 0]
[lambda_l2: 0]
[linear_lambda: 0]
[min_gain_to_split: 0]
[drop_rate: 0.1]
[max_drop: 50]
[skip_drop: 0.5]
[xgboost_dart_mode: 0]
[uniform_drop: 0]
[drop_seed: 4]
[top_rate: 0.2]
[other_rate: 0.1]
[min_data_per_group: 100]
[max_cat_threshold: 32]
[cat_l2: 10]
[cat_smooth: 10]
[max_cat_to_onehot: 4]
[top_k: 20]
[monotone_constraints: ]
[monotone_constraints_method: basic]
[monotone_penalty: 0]
[feature_contri: ]
[forcedsplits_filename: ]
[refit_decay_rate: 0.9]
[cegb_tradeoff: 1]
[cegb_penalty_split: 0]
[cegb_penalty_feature_lazy: ]
[cegb_penalty_feature_coupled: ]
[path_smooth: 0]
[interaction_constraints: ]
[verbosity: -1]
[saved_feature_importance_type: 0]
[use_quantized_grad: 0]
[num_grad_quant_bins: 4]
[quant_train_renew_leaf: 0]
[stochastic_rounding: 1]
[linear_tree: 0]
[max_bin: 255]
[max_bin_by_feature: ]
[min_data_in_bin: 3]
[bin_construct_sample_cnt: 200000]
[data_random_seed: 1]
[is_enable_sparse: 1]
[enable_bundle: 1]
[use_missing: 1]
[zero_as_missing: 0]
[feature_pre_filter: 1]
[pre_partition: 0]
[two_round: 0]
[header: 0]
[label_column: ]
[weight_column: ]
[group_column: ]
[ignore_column: ]
[categorical_feature: ]
[forcedbins_filename: ]
[precise_float_parser: 0]
[parser_config_file: ]
[objective_seed: 5]
[num_class: 1]
[is_unbalance: 0]
[scale_pos_weight: 1]
[sigmoid: 1]
[boost_from_average: 1]
[reg_sqrt: 0]
[alpha: 0.9]
[fair_c: 1]
[poisson_max_delta_step: 0.7]
[tweedie_variance_power: 1.5]
[lambdarank_truncation_level: 30]
[lambdarank_norm: 1]
[label_gain: ]
[lambdarank_position_bias_regularization: 0]
[eval_at: ]
[multi_error_top_k: 1]
[auc_mu_weights: ]
[num_machines: 1]
[local_listen_port: 12400]
[time_out: 120]
[machine_list_filename: ]
[machines: ]
[gpu_platform_id: -1]
[gpu_device_id: -1]
[gpu_use_dp: 0]
[num_gpu: 1]

end of parameters

pandas_categorical:null
