tree
version=v4
num_class=1
num_tree_per_iteration=1
label_index=0
max_feature_idx=15
objective=regression
feature_names=nifty_ret_1m nifty_ret_3m nifty_vol_1m vol_percentile_1y india_vix vix_percentile_1y max_drawdown_3m trend_50_200 top_decile_return_1m bottom_decile_return_1m spread_decile cross_sectional_vol hit_rate_top_k current_drawdown turnover_1m nifty_trend_duration
feature_infos=[-0.067231982946395874:0.085620194673538208] [-0.11583243310451508:0.11519625782966614] [0.085847921669483185:0.28543993830680847] [0.024817518889904022:0.96610170602798462] [13.279999732971191:39.926708221435547] [0.02380952425301075:0.99603176116943359] [-0.12448024749755859:-0.034254826605319977] [0.93224835395812988:1.0884325504302979] [0.10166497528553009:0.72764718532562256] [-0.22188952565193176:-0.067068926990032196] [0.24193346500396729:0.84928488731384277] [0.068980887532234192:0.66067612171173096] [0.13675214350223541:0.87179487943649292] [-0.11126459389925003:-0.032696299254894257] [0.018023582175374031:0.4882219135761261] [-38:51]
tree_sizes=642 546 665 545 545 665 511 585 513 585 550 587 586 514 595 529 624 530 627 614 625 632 592 533 591 532 630 630 531 595 549 634 636 622 598 539 639 599 557 554 557 614 536 620 616 621 545 620 617 641

Tree=0
num_leaves=6
num_cat=0
split_feature=11 4 10 1 10
split_gain=4.41963 5.5449 2.02097 1.04106 0.132074
threshold=0.097451426088809981 25.758121490478519 0.26643852889537817 -0.015393524430692194 0.30678001046180731
decision_type=2 2 2 2 2
left_child=2 -2 -1 -3 -4
right_child=1 3 4 -5 -6
leaf_value=0.33664489462971686 0.23139397516846649 0.33232718283931412 0.42233117992679275 0.415636446326971 0.45200429335236547
leaf_weight=3.0000000000000018 4.9999999999999982 3 3 3 3
leaf_count=3 5 3 3 3 3
internal_value=0.35169 0.309169 0.40366 0.373982 0.437168
internal_weight=20 11 9 6 6
internal_count=20 11 9 6 6
is_linear=0
shrinkage=1


Tree=1
num_leaves=4
num_cat=0
split_feature=2 15 15
split_gain=3.70603 2.25147 5.41039
threshold=0.11831188574433328 12.500000000000002 -1.0000000180025095e-35
decision_type=2 2 2
left_child=-1 2 -2
right_child=1 -3 -4
leaf_value=-0.10247156620025624 0.033359222031301913 0.074461765885353096 -0.1217090408007304
leaf_weight=3.0000000000000027 9.0000000000000018 4.9999999999999991 2.9999999999999991
leaf_count=3 9 5 3
internal_value=3.35276e-10 0.0180832 -0.00540784
internal_weight=20 17 12
internal_count=20 17 12
is_linear=0
shrinkage=0.1


Tree=2
num_leaves=6
num_cat=0
split_feature=11 4 10 1 10
split_gain=3.0083 3.8593 1.34075 0.744494 0.118238
threshold=0.097451426088809981 25.758121490478519 0.26643852889537817 -0.015393524430692194 0.30678001046180731
decision_type=2 2 2 2 2
left_child=2 -2 -1 -3 -4
right_child=1 3 4 -5 -6
leaf_value=-0.011707661549250275 -0.099966468811035172 -0.01623484889666239 0.056130801637967409 0.054215796291828149 0.084206686417261742
leaf_weight=3.0000000000000018 4.9999999999999982 3 3 3 3
leaf_count=3 5 3 3 3 3
internal_value=-1.11759e-09 -0.0350809 0.0428766 0.0189905 0.0701687
internal_weight=20 11 9 6 6
internal_count=20 11 9 6 6
is_linear=0
shrinkage=0.1


Tree=3
num_leaves=4
num_cat=0
split_feature=2 15 15
split_gain=2.55113 1.45203 3.8905
threshold=0.11831188574433328 12.500000000000002 -1.0000000180025095e-35
decision_type=2 2 2
left_child=-1 2 -2
right_child=1 -3 -4
leaf_value=-0.085018816590309049 0.02901216054128275 0.060279473066329962 -0.10248345136642456
leaf_weight=3.0000000000000027 9.0000000000000018 4.9999999999999991 2.9999999999999991
leaf_count=3 9 5 3
internal_value=3.1665e-10 0.0150033 -0.00386174
internal_weight=20 17 12
internal_count=20 17 12
is_linear=0
shrinkage=0.1


Tree=4
num_leaves=4
num_cat=0
split_feature=2 2 6
split_gain=2.06641 1.24836 4.18061
threshold=0.11831188574433328 0.17404410243034366 -0.080485537648200975
decision_type=2 2 2
left_child=-1 2 -2
right_child=1 -3 -4
leaf_value=-0.076516937216122863 -0.10622177124023424 0.055483862161636359 0.030088533316221501
leaf_weight=3.0000000000000027 3.0000000000000027 4.9999999999999991 8.9999999999999982
leaf_count=3 3 5 9
internal_value=-7.35745e-10 0.013503 -0.00398904
internal_weight=20 17 12
internal_count=20 17 12
is_linear=0
shrinkage=0.1


Tree=5
num_leaves=6
num_cat=0
split_feature=11 4 2 1 1
split_gain=1.78967 2.52832 0.964488 0.411139 0.14115
threshold=0.097451426088809981 25.758121490478519 0.12675541639328006 -0.015393524430692194 0.021938547492027286
decision_type=2 2 2 2 2
left_child=2 -2 -1 -3 -4
right_child=1 3 4 -5 -6
leaf_value=-0.01322495291630426 -0.079576308131217965 -0.0094697182377179445 0.071556723117828347 0.042884145056207967 0.040880984564622233
leaf_weight=3.0000000000000018 4.9999999999999982 3 3 3 3
leaf_count=3 5 3 3 3 3
internal_value=2.04891e-10 -0.027058 0.0330709 0.0167072 0.0562189
internal_weight=20 11 9 6 6
internal_count=20 11 9 6 6
is_linear=0
shrinkage=0.1


Tree=6
num_leaves=4
num_cat=0
split_feature=2 6 10
split_gain=1.49929 1.88765 1.74795
threshold=0.17404410243034366 -0.080485537648200975 0.34373533725738531
decision_type=2 2 2
left_child=1 -1 -3
right_child=-2 2 -4
leaf_value=-0.074635296687483754 0.047422992587089541 0.04197387099266052 -0.038083398491144171
leaf_weight=4.0000000000000009 4.9999999999999991 6 5
leaf_count=4 5 6 5
internal_value=4.84288e-10 -0.0158077 0.0055842
internal_weight=20 15 11
internal_count=20 15 11
is_linear=0
shrinkage=0.1


Tree=7
num_leaves=5
num_cat=0
split_feature=4 14 6 7
split_gain=1.28139 2.42944 1.11825 0.52256
threshold=25.758121490478519 0.33017019927501684 -0.11173070967197417 1.0377548336982729
decision_type=2 2 2 2
left_child=1 2 -1 -2
right_child=3 -3 -4 -5
leaf_value=-0.012542755405108129 0.011203661039471624 0.032571517378091809 -0.093308603018522229 0.063995593786239605
leaf_weight=3.0000000000000009 5 5 4.0000000000000009 3
leaf_count=3 5 5 4 3
internal_value=-2.42144e-10 -0.0206671 -0.0586947 0.0310006
internal_weight=20 12 7 8
internal_count=20 12 7 8
is_linear=0
shrinkage=0.1


Tree=8
num_leaves=4
num_cat=0
split_feature=2 6 10
split_gain=1.18064 1.42196 1.10499
threshold=0.17404410243034366 -0.080485537648200975 0.34373533725738531
decision_type=2 2 2
left_child=1 -1 -3
right_child=-2 2 -4
leaf_value=-0.06508566811680791 0.042082827091217044 0.033471862599253652 -0.030180528089404104
leaf_weight=4.0000000000000009 4.9999999999999991 6 5
leaf_count=4 5 6 5
internal_value=-9.31323e-11 -0.0140276 0.00453896
internal_weight=20 15 11
internal_count=20 15 11
is_linear=0
shrinkage=0.1


Tree=9
num_leaves=5
num_cat=0
split_feature=4 14 6 7
split_gain=1.07491 1.71448 0.796481 0.375708
threshold=25.758121490478519 0.33017019927501684 -0.11173070967197417 1.0377548336982729
decision_type=2 2 2 2
left_child=1 2 -1 -2
right_child=3 -3 -4 -5
leaf_value=-0.011924478411674494 0.011607019938528536 0.02579496011137962 -0.080087061971425982 0.056370597084363289
leaf_weight=3.0000000000000009 5 5 4.0000000000000009 3
leaf_count=3 5 5 4 3
internal_value=4.19095e-10 -0.0189289 -0.0508745 0.0283934
internal_weight=20 12 7 8
internal_count=20 12 7 8
is_linear=0
shrinkage=0.1


Tree=10
num_leaves=4
num_cat=0
split_feature=2 6 6
split_gain=0.931078 1.07529 0.751912
threshold=0.17404410243034366 -0.080485537648200975 -0.0703274831175804
decision_type=2 2 2
left_child=1 -1 -3
right_child=-2 2 -4
leaf_value=-0.056857164390385129 0.037371344566345215 0.046382808685302708 -0.012322061439044775
leaf_weight=4.0000000000000009 4.9999999999999991 3.0000000000000009 7.9999999999999991
leaf_count=4 5 3 8
internal_value=-9.31323e-12 -0.0124571 0.00368836
internal_weight=20 15 11
internal_count=20 15 11
is_linear=0
shrinkage=0.1


Tree=11
num_leaves=5
num_cat=0
split_feature=4 14 6 2
split_gain=0.846025 1.30859 0.584759 0.287065
threshold=25.758121490478519 0.33017019927501684 -0.11173070967197417 0.1553570553660393
decision_type=2 2 2 2
left_child=1 2 -1 -2
right_child=3 -3 -4 -5
leaf_value=-0.01132821341355641 0.010516598150134086 0.022279704883694646 -0.069732772931456535 0.049644741415977467
leaf_weight=3.0000000000000009 5 5 4.0000000000000009 3
leaf_count=3 5 5 4 3
internal_value=3.72529e-10 -0.0167931 -0.0447022 0.0251897
internal_weight=20 12 7 8
internal_count=20 12 7 8
is_linear=0
shrinkage=0.1


Tree=12
num_leaves=5
num_cat=0
split_feature=4 7 14 7
split_gain=0.68528 1.15617 0.927749 0.254483
threshold=25.758121490478519 0.94901025295257579 0.33017019927501684 1.0377548336982729
decision_type=2 2 2 2
left_child=1 -1 -3 -2
right_child=3 2 -4 -5
leaf_value=0.038648779193560238 0.0088554041832685452 -0.055737428863843287 0.012370915462573366 0.04569615125656127
leaf_weight=3.0000000000000027 5 5.9999999999999982 3 3
leaf_count=3 5 6 3 3
internal_value=-7.26432e-10 -0.0151138 -0.0330346 0.0226707
internal_weight=20 12 9 8
internal_count=20 12 9 8
is_linear=0
shrinkage=0.1


Tree=13
num_leaves=4
num_cat=0
split_feature=2 6 4
split_gain=0.635327 0.7482 0.444217
threshold=0.17404410243034366 -0.080485537648200975 25.758121490478519
decision_type=2 2 2
left_child=1 -1 -3
right_child=-2 2 -4
leaf_value=-0.047326651960611324 0.030870534777641297 -0.012013219217104569 0.029761616420000789
leaf_weight=4.0000000000000009 4.9999999999999991 7 4
leaf_count=4 5 7 4
internal_value=-1.39698e-10 -0.0102902 0.00317763
internal_weight=20 15 11
internal_count=20 15 11
is_linear=0
shrinkage=0.1


Tree=14
num_leaves=5
num_cat=0
split_feature=11 4 5 1
split_gain=0.526168 0.722517 0.396458 0.0830853
threshold=0.097451426088809981 25.758121490478519 0.23015873134136203 -0.015393524430692194
decision_type=2 2 2 2
left_child=2 -2 -1 -3
right_child=1 3 -4 -5
leaf_value=-0.0055338949430733886 -0.042746316641569145 -0.0030432235449552526 0.036704228073358533 0.020491898308197653
leaf_weight=4.0000000000000018 4.9999999999999982 3 5 3
leaf_count=4 5 3 5 3
internal_value=8.3819e-11 -0.0146714 0.0179317 0.00872434
internal_weight=20 11 9 6
internal_count=20 11 9 6
is_linear=0
shrinkage=0.1


Tree=15
num_leaves=4
num_cat=0
split_feature=2 15 7
split_gain=0.498382 0.592348 0.505195
threshold=0.17404410243034366 12.500000000000002 1.0377548336982729
decision_type=2 2 2
left_child=1 2 -1
right_child=-2 -3 -4
leaf_value=-0.04151761271059512 0.02734178215265274 0.018989394307136538 0.0043624495156109324
leaf_weight=6.0000000000000018 4.9999999999999991 4.9999999999999991 4
leaf_count=6 5 5 4
internal_value=2.04891e-10 -0.00911393 -0.0231656
internal_weight=20 15 10
internal_count=20 15 10
is_linear=0
shrinkage=0.1


Tree=16
num_leaves=5
num_cat=0
split_feature=4 7 14 9
split_gain=0.445639 0.705733 0.546553 0.163774
threshold=25.758121490478519 0.94901025295257579 0.33017019927501684 -0.13307481259107587
decision_type=2 2 2 2
left_child=1 -1 -3 -2
right_child=3 2 -4 -5
leaf_value=0.029815993209679887 0.0071990630775690054 -0.043614567319552114 0.0086612855394681259 0.036753418482840063
leaf_weight=3.0000000000000027 5.0000000000000009 5.9999999999999982 3 2.9999999999999991
leaf_count=3 5 6 3 3
internal_value=1.58325e-10 -0.012188 -0.0261893 0.0182819
internal_weight=20 12 9 8
internal_count=20 12 9 8
is_linear=0
shrinkage=0.1


Tree=17
num_leaves=4
num_cat=0
split_feature=2 15 7
split_gain=0.365296 0.45678 0.379003
threshold=0.17404410243034366 12.500000000000002 1.0377548336982729
decision_type=2 2 2
left_child=1 2 -1
right_child=-2 -3 -4
leaf_value=-0.03603764947814244 0.023408205807209016 0.016875993758440018 0.0037012246204540127
leaf_weight=6.0000000000000018 4.9999999999999991 4.9999999999999991 4
leaf_count=6 5 5 4
internal_value=-2.79397e-11 -0.00780274 -0.0201421
internal_weight=20 15 10
internal_count=20 15 10
is_linear=0
shrinkage=0.1


Tree=18
num_leaves=5
num_cat=0
split_feature=4 14 2 0
split_gain=0.381556 0.545622 0.261707 0.138236
threshold=25.758121490478519 0.0258247209712863 0.12675541639328006 -0.028445906005799767
decision_type=2 2 2 2
left_child=1 -1 -3 -2
right_child=3 2 -4 -5
leaf_value=-0.048210781812667795 -5.3869684537251761e-05 -0.023082405825455992 0.013091290548133353 0.027098686210811143
leaf_weight=3.0000000000000027 3.0000000000000009 2.9999999999999982 6 4.9999999999999991
leaf_count=3 3 3 6 5
internal_value=1.18744e-10 -0.0112777 0.00103339 0.0169165
internal_weight=20 12 9 8
internal_count=20 12 9 8
is_linear=0
shrinkage=0.1


Tree=19
num_leaves=5
num_cat=0
split_feature=5 14 2 1
split_gain=0.314192 0.589134 0.401094 0.206378
threshold=0.23015873134136203 0.33017019927501684 0.17404410243034366 -0.015393524430692194
decision_type=2 2 2 2
left_child=1 -1 3 -2
right_child=2 -3 -4 -5
leaf_value=-0.050480823715527791 -0.023001732254245622 0.012189420343687134 0.040616493423779806 0.0077537412056699409
leaf_weight=3.0000000000000027 3 3 2.9999999999999991 7.9999999999999982
leaf_count=3 3 3 3 8
internal_value=1.51922e-10 -0.0191457 0.0082053 -0.000634115
internal_weight=20 6 14 11
internal_count=20 6 14 11
is_linear=0
shrinkage=0.1


Tree=20
num_leaves=5
num_cat=0
split_feature=4 7 14 9
split_gain=0.276356 0.380282 0.290227 0.114183
threshold=25.758121490478519 0.94901025295257579 0.33017019927501684 -0.13307481259107587
decision_type=2 2 2 2
left_child=1 -1 -3 -2
right_child=3 2 -4 -5
leaf_value=0.021235673626263912 0.0051427184045314779 -0.032573608246942366 0.0055201473956306762 0.029820200055837631
leaf_weight=3.0000000000000027 5.0000000000000009 5.9999999999999982 3 2.9999999999999991
leaf_count=3 5 6 3 3
internal_value=2.8871e-10 -0.00959785 -0.0198757 0.0143968
internal_weight=20 12 9 8
internal_count=20 12 9 8
is_linear=0
shrinkage=0.1


Tree=21
num_leaves=5
num_cat=0
split_feature=5 14 2 9
split_gain=0.230602 0.398551 0.291951 0.186023
threshold=0.23015873134136203 0.33017019927501684 0.17404410243034366 -0.11789804697036742
decision_type=2 2 2 2
left_child=1 -1 3 -2
right_child=2 -3 -4 -5
leaf_value=-0.042175380388895622 -0.0084753775969147686 0.0093707616751392657 0.03468155761559804 0.020724067697301507
leaf_weight=3.0000000000000027 7.9999999999999991 3 2.9999999999999991 2.9999999999999991
leaf_count=3 8 3 3 3
internal_value=-4.88944e-11 -0.0164023 0.00702956 -0.000511893
internal_weight=20 6 14 11
internal_count=20 6 14 11
is_linear=0
shrinkage=0.1


Tree=22
num_leaves=5
num_cat=0
split_feature=4 14 7 7
split_gain=0.203716 0.264005 0.130176 0.118604
threshold=25.758121490478519 0.0258247209712863 0.94901025295257579 1.0377548336982729
decision_type=2 2 2 2
left_child=1 -1 -3 -2
right_child=3 2 -4 -5
leaf_value=-0.033931207656860314 0.0029292416392127049 0.017331336935361232 -0.0081810211141904177 0.028079843148589131
leaf_weight=3.0000000000000027 5 2.9999999999999982 6 3
leaf_count=3 5 3 6 3
internal_value=-6.03904e-11 -0.00824048 0.000323098 0.0123607
internal_weight=20 12 9 8
internal_count=20 12 9 8
is_linear=0
shrinkage=0.1


Tree=23
num_leaves=4
num_cat=0
split_feature=2 15 8
split_gain=0.189104 0.259592 0.192126
threshold=0.17404410243034366 12.500000000000002 0.15615005791187289
decision_type=2 2 2
left_child=1 2 -1
right_child=-2 -3 -4
leaf_value=-0.036089147379000951 0.016842078268527984 0.012990350760519504 -0.0058421000871541236
leaf_weight=3.0000000000000018 4.9999999999999991 4.9999999999999991 7
leaf_count=3 5 5 7
internal_value=1.19908e-10 -0.00561403 -0.0149162
internal_weight=20 15 10
internal_count=20 15 10
is_linear=0
shrinkage=0.1


Tree=24
num_leaves=5
num_cat=0
split_feature=4 14 2 7
split_gain=0.169785 0.215056 0.110557 0.0933274
threshold=25.758121490478519 0.0258247209712863 0.12675541639328006 1.0377548336982729
decision_type=2 2 2 2
left_child=1 -1 -3 -2
right_child=3 2 -4 -5
leaf_value=-0.030710016687711048 0.0029181006737053392 -0.015468211161593602 0.0080432018575568986 0.025228321366012094
leaf_weight=3.0000000000000027 5 2.9999999999999982 6 3
leaf_count=3 5 3 6 3
internal_value=-2.468e-10 -0.00752296 0.000206064 0.0112844
internal_weight=20 12 9 8
internal_count=20 12 9 8
is_linear=0
shrinkage=0.1


Tree=25
num_leaves=4
num_cat=0
split_feature=2 15 8
split_gain=0.156747 0.206544 0.153436
threshold=0.17404410243034366 12.500000000000002 0.15615005791187289
decision_type=2 2 2
left_child=1 2 -1
right_child=-2 -3 -4
leaf_value=-0.03233000288407005 0.015333618223667146 0.011483749523758888 -0.0052995471038489728
leaf_weight=3.0000000000000018 4.9999999999999991 4.9999999999999991 7
leaf_count=3 5 5 7
internal_value=1.78989e-11 -0.00511121 -0.0134087
internal_weight=20 15 10
internal_count=20 15 10
is_linear=0
shrinkage=0.1


Tree=26
num_leaves=5
num_cat=0
split_feature=5 14 2 9
split_gain=0.145425 0.199951 0.171246 0.11368
threshold=0.23015873134136203 0.33017019927501684 0.17404410243034366 -0.11789804697036742
decision_type=2 2 2 2
left_child=1 -1 3 -2
right_child=2 -3 -4 -5
leaf_value=-0.031280616422494217 -0.0064187569485511633 0.0052297050133347503 0.026760190725326538 0.016407405150433384
leaf_weight=3.0000000000000027 7.9999999999999991 3 2.9999999999999991 2.9999999999999991
leaf_count=3 8 3 3 3
internal_value=-1.0943e-10 -0.0130255 0.00558234 -0.00019344
internal_weight=20 6 14 11
internal_count=20 6 14 11
is_linear=0
shrinkage=0.1


Tree=27
num_leaves=5
num_cat=0
split_feature=4 14 0 2
split_gain=0.128715 0.1436 0.0795802 0.0721828
threshold=25.758121490478519 0.0258247209712863 -0.028445906005799767 0.12675541639328006
decision_type=2 2 2 2
left_child=1 -1 -2 -3
right_child=2 3 -4 -5
leaf_value=-0.025497498363256429 -0.0030507466755807385 -0.012899573519825938 0.017550896834582091 0.0060981627864142253
leaf_weight=3.0000000000000027 3.0000000000000009 2.9999999999999982 4.9999999999999991 6
leaf_count=3 3 3 5 6
internal_value=2.6077e-10 -0.00655019 0.00982528 -0.000234416
internal_weight=20 12 8 9
internal_count=20 12 8 9
is_linear=0
shrinkage=0.1


Tree=28
num_leaves=4
num_cat=0
split_feature=2 15 7
split_gain=0.107386 0.14664 0.118158
threshold=0.17404410243034366 12.500000000000002 1.0377548336982729
decision_type=2 2 2
left_child=1 2 -1
right_child=-2 -3 -4
leaf_value=-0.020097355397107691 0.012691683620214462 0.0097522728890180599 0.0020910870749503373
leaf_weight=6.0000000000000018 4.9999999999999991 4.9999999999999991 4
leaf_count=6 5 5 4
internal_value=-7.68341e-11 -0.00423056 -0.011222
internal_weight=20 15 10
internal_count=20 15 10
is_linear=0
shrinkage=0.1


Tree=29
num_leaves=5
num_cat=0
split_feature=4 14 7 2
split_gain=0.110533 0.111565 0.0681926 0.0553125
threshold=25.758121490478519 0.0258247209712863 1.0377548336982729 0.12675541639328006
decision_type=2 2 2 2
left_child=1 -1 -2 -3
right_child=2 3 -4 -5
leaf_value=-0.022770597040653203 0.0019533960148692127 -0.01158985607326031 0.021024153785159184 0.0050403192716961106
leaf_weight=3.0000000000000027 5 2.9999999999999982 3 6
leaf_count=3 5 3 3 6
internal_value=-1.14087e-10 -0.00606995 0.00910493 -0.000503073
internal_weight=20 12 8 9
internal_count=20 12 8 9
is_linear=0
shrinkage=0.1


Tree=30
num_leaves=4
num_cat=0
split_feature=2 6 4
split_gain=0.0896785 0.117336 0.109219
threshold=0.17404410243034366 -0.080485537648200975 36.260013580322273
decision_type=2 2 2
left_child=1 -1 -3
right_child=-2 2 -4
leaf_value=-0.018532879697158926 0.01159817872568965 -0.0046346116112545134 0.0177391738941272
leaf_weight=4.0000000000000009 4.9999999999999991 7.9999999999999991 3.0000000000000009
leaf_count=4 5 8 3
internal_value=1.81608e-10 -0.00386606 0.00146733
internal_weight=20 15 11
internal_count=20 15 11
is_linear=0
shrinkage=0.1


Tree=31
num_leaves=5
num_cat=0
split_feature=5 2 14 9
split_gain=0.0867333 0.102184 0.0976399 0.0705102
threshold=0.23015873134136203 0.17404410243034366 0.33017019927501684 -0.11789804697036742
decision_type=2 2 2 2
left_child=2 3 -1 -2
right_child=1 -3 -4 -5
leaf_value=-0.02281595592697459 -0.0050533042347524317 0.020670338968435925 0.0026974196623389913 0.012923675340910754
leaf_weight=3.0000000000000027 7.9999999999999991 2.9999999999999991 3 2.9999999999999991
leaf_count=3 8 3 3 3
internal_value=1.28057e-11 0.00431111 -0.0100593 -0.000150492
internal_weight=20 14 6 11
internal_count=20 14 6 11
is_linear=0
shrinkage=0.1


Tree=32
num_leaves=5
num_cat=0
split_feature=4 14 0 2
split_gain=0.0729748 0.0778369 0.0556154 0.0342471
threshold=25.758121490478519 0.0258247209712863 -0.028445906005799767 0.12675541639328006
decision_type=2 2 2 2
left_child=1 -1 -2 -3
right_child=2 3 -4 -5
leaf_value=-0.018881661196549715 -0.0033660315986101808 -0.0090059472868839942 0.013856491670012475 0.0040797437832225105
leaf_weight=3.0000000000000027 3.0000000000000009 2.9999999999999982 4.9999999999999991 6
leaf_count=3 3 3 5 6
internal_value=4.01633e-11 -0.00493203 0.00739805 -0.000282153
internal_weight=20 12 8 9
internal_count=20 12 8 9
is_linear=0
shrinkage=0.1


Tree=33
num_leaves=5
num_cat=0
split_feature=5 2 14 0
split_gain=0.0616061 0.0801032 0.0661191 0.0601503
threshold=0.23015873134136203 0.17404410243034366 0.33017019927501684 -0.028445906005799767
decision_type=2 2 2 2
left_child=2 3 -1 -2
right_child=1 -3 -4 -5
leaf_value=-0.018975384533405283 -0.012392441912864642 0.018117631475130718 0.0020197034347802395 0.0042114340933039791
leaf_weight=3.0000000000000027 3 2.9999999999999991 3 7.9999999999999982
leaf_count=3 3 3 3 8
internal_value=-9.31323e-11 0.00363336 -0.00847784 -0.000316896
internal_weight=20 14 6 11
internal_count=20 14 6 11
is_linear=0
shrinkage=0.1


Tree=34
num_leaves=5
num_cat=0
split_feature=4 7 15 6
split_gain=0.0529963 0.0561524 0.0556273 0.0614219
threshold=25.758121490478519 1.0377548336982729 29.500000000000004 -0.11173070967197417
decision_type=2 2 2 2
left_child=2 -2 3 -1
right_child=1 -3 -4 -5
leaf_value=0.001102311152499169 -0.00018501557409763333 0.017120465884606039 0.0075896975894769033 -0.015522930845618241
leaf_weight=4 5 3 2.9999999999999991 5.0000000000000018
leaf_count=4 5 3 3 5
internal_value=1.46683e-10 0.00630454 -0.00420303 -0.00813393
internal_weight=20 8 12 9
internal_count=20 8 12 9
is_linear=0
shrinkage=0.1


Tree=35
num_leaves=4
num_cat=0
split_feature=2 15 8
split_gain=0.0516086 0.0788563 0.0607171
threshold=0.17404410243034366 12.500000000000002 0.15615005791187289
decision_type=2 2 2
left_child=1 2 -1
right_child=-2 -3 -4
leaf_value=-0.019962407089769825 0.0087984634935855868 0.0073210432007908824 -0.0029586157295852897
leaf_weight=3.0000000000000018 4.9999999999999991 4.9999999999999991 7
leaf_count=3 5 5 7
internal_value=1.04774e-10 -0.00293282 -0.00805975
internal_weight=20 15 10
internal_count=20 15 10
is_linear=0
shrinkage=0.1


Tree=36
num_leaves=5
num_cat=0
split_feature=0 15 14 8
split_gain=0.0515489 0.0499562 0.0897149 0.00718465
threshold=-0.055367941036820405 12.500000000000002 0.020628991536796096 0.20641204714775088
decision_type=2 2 2 2
left_child=-1 2 -2 -3
right_child=1 3 -4 -5
leaf_value=0.012085330486297594 0.0086112732688585821 0.0086676150560379035 -0.011666633468121291 0.0017468030874927835
leaf_weight=3.0000000000000027 3.0000000000000027 2.9999999999999991 7.9999999999999991 3
leaf_count=3 3 3 8 3
internal_value=-1.02445e-10 -0.00213271 -0.0061363 0.00520721
internal_weight=20 17 11 6
internal_count=20 17 11 6
is_linear=0
shrinkage=0.1


Tree=37
num_leaves=5
num_cat=0
split_feature=4 14 7 2
split_gain=0.0459223 0.0446356 0.0415674 0.0182101
threshold=25.758121490478519 0.0258247209712863 1.0377548336982729 0.12675541639328006
decision_type=2 2 2 2
left_child=1 -1 -2 -3
right_child=2 3 -4 -5
leaf_value=-0.014476040502389254 0.00028520539402961727 -0.006752645596861841 0.015174550501008825 0.0027893965442975358
leaf_weight=3.0000000000000027 5 2.9999999999999982 3 6
leaf_count=3 5 3 3 6
internal_value=-2.79397e-11 -0.00391247 0.00586871 -0.000391284
internal_weight=20 12 8 9
internal_count=20 12 8 9
is_linear=0
shrinkage=0.1


Tree=38
num_leaves=4
num_cat=0
split_feature=0 9 4
split_gain=0.0402674 0.0437725 0.0749075
threshold=-0.055367941036820405 -0.16815669089555738 25.758121490478519
decision_type=2 2 2
left_child=-1 -2 -3
right_child=1 2 -4
leaf_value=0.010681331157684314 -0.012846683441118004 -0.0049880783384044988 0.010277751963585612
leaf_weight=3.0000000000000027 3.0000000000000044 8.9999999999999947 5.0000000000000009
leaf_count=3 3 9 5
internal_value=-1.03901e-10 -0.00188494 0.000464004
internal_weight=20 17 14
internal_count=20 17 14
is_linear=0
shrinkage=0.1


Tree=39
num_leaves=4
num_cat=0
split_feature=2 6 6
split_gain=0.0360326 0.059183 0.0467546
threshold=0.17404410243034366 -0.080485537648200975 -0.0703274831175804
decision_type=2 2 2
left_child=1 -1 -3
right_child=-2 2 -4
leaf_value=-0.012867038720287377 0.0073517983779311184 0.011983535873393212 -0.0026551805902272465
leaf_weight=4.0000000000000009 4.9999999999999991 3.0000000000000009 7.9999999999999991
leaf_count=4 5 3 8
internal_value=-4.65661e-12 -0.0024506 0.0013372
internal_weight=20 15 11
internal_count=20 15 11
is_linear=0
shrinkage=0.1


Tree=40
num_leaves=4
num_cat=0
split_feature=0 9 4
split_gain=0.0322025 0.0371018 0.0595472
threshold=-0.055367941036820405 -0.16815669089555738 25.758121490478519
decision_type=2 2 2
left_child=-1 -2 -3
right_child=1 2 -4
leaf_value=0.0095519794151186846 -0.011777624293851336 -0.0043841284389297191 0.009226818326860663
leaf_weight=3.0000000000000027 3.0000000000000044 8.9999999999999947 5.0000000000000009
leaf_count=3 3 9 5
internal_value=5.23869e-11 -0.00168564 0.000476924
internal_weight=20 17 14
internal_count=20 17 14
is_linear=0
shrinkage=0.1


Tree=41
num_leaves=5
num_cat=0
split_feature=8 4 15 0
split_gain=0.0287611 0.0709177 0.049151 0.0294633
threshold=0.12918264046311381 25.758121490478519 12.500000000000002 -0.024609474465250965
decision_type=2 2 2 2
left_child=-1 2 -2 -3
right_child=1 3 -4 -5
leaf_value=-0.0090271678442756225 -0.010821576481685038 0.01493131718598306 0.0031999718118458985 0.001821419845024745
leaf_weight=3.0000000000000027 5.0000000000000018 4 5 2.9999999999999991
leaf_count=3 5 4 5 3
internal_value=6.98492e-11 0.00159303 -0.0038108 0.00931279
internal_weight=20 17 10 7
internal_count=20 17 10 7
is_linear=0
shrinkage=0.1


Tree=42
num_leaves=4
num_cat=0
split_feature=2 15 7
split_gain=0.0270611 0.0451117 0.0378223
threshold=0.17404410243034366 12.500000000000002 1.0377548336982729
decision_type=2 2 2
left_child=1 2 -1
right_child=-2 -3 -4
leaf_value=-0.011022945749573404 0.0063711589761078352 0.0056318536959588531 0.0015306532412068916
leaf_weight=6.0000000000000018 4.9999999999999991 4.9999999999999991 4
leaf_count=6 5 5 4
internal_value=9.1386e-11 -0.00212372 -0.00600151
internal_weight=20 15 10
internal_count=20 15 10
is_linear=0
shrinkage=0.1


Tree=43
num_leaves=5
num_cat=0
split_feature=0 9 5 15
split_gain=0.0263687 0.0307293 0.0409477 0.0329383
threshold=-0.055367941036820405 -0.11789804697036742 0.30158731341362005 -5.4999999999999991
decision_type=2 2 2 2
left_child=-1 3 -3 -2
right_child=1 2 -4 -5
leaf_value=0.0086435699214537833 -0.01408925789097943 -0.0025575671065598739 0.012220377102494236 -0.0012560383571932712
leaf_weight=3.0000000000000027 3.0000000000000036 4.9999999999999973 3 6
leaf_count=3 3 5 3 6
internal_value=8.61473e-11 -0.00152534 0.00298416 -0.00553378
internal_weight=20 17 8 9
internal_count=20 17 8 9
is_linear=0
shrinkage=0.1


Tree=44
num_leaves=5
num_cat=0
split_feature=0 9 5 2
split_gain=0.0213586 0.0248907 0.0331676 0.0289176
threshold=-0.055367941036820405 -0.11789804697036742 0.30158731341362005 0.12675541639328006
decision_type=2 2 2 2
left_child=-1 3 -3 -2
right_child=1 2 -4 -5
leaf_value=0.0077792129479348562 0.0013570578768849358 -0.0023018105141818534 0.01099833926806847 -0.010050366763025521
leaf_weight=3.0000000000000027 4.0000000000000036 4.9999999999999973 3 5
leaf_count=3 4 5 3 5
internal_value=8.84756e-11 -0.0013728 0.00268575 -0.0049804
internal_weight=20 17 8 9
internal_count=20 17 8 9
is_linear=0
shrinkage=0.1


Tree=45
num_leaves=5
num_cat=0
split_feature=8 4 14 0
split_gain=0.0219833 0.0518832 0.0326311 0.0204055
threshold=0.12918264046311381 25.758121490478519 0.33017019927501684 -0.024609474465250965
decision_type=2 2 2 2
left_child=-1 2 -2 -3
right_child=1 3 -4 -5
leaf_value=-0.0078921576185772731 -0.0089417167007923085 0.012671504914760587 0.0024830124806612727 0.0017613246416052183
leaf_weight=3.0000000000000027 5.0000000000000018 4 5 2.9999999999999991
leaf_count=3 5 4 5 3
internal_value=-1.86265e-11 0.00139273 -0.00322935 0.00799571
internal_weight=20 17 10 7
internal_count=20 17 10 7
is_linear=0
shrinkage=0.1


Tree=46
num_leaves=4
num_cat=0
split_feature=0 14 11
split_gain=0.0178171 0.0210352 0.0424017
threshold=-0.055367941036820405 0.020628991536796096 0.097451426088809981
decision_type=2 2 2
left_child=-1 -2 -3
right_child=1 2 -4
leaf_value=0.0071050517261028213 0.0063451025130537575 0.0018838711897842591 -0.0092369052542683964
leaf_weight=3.0000000000000027 3.0000000000000027 7.9999999999999982 6
leaf_count=3 3 8 6
internal_value=3.55067e-11 -0.00125383 -0.00288218
internal_weight=20 17 14
internal_count=20 17 14
is_linear=0
shrinkage=0.1


Tree=47
num_leaves=5
num_cat=0
split_feature=8 4 15 0
split_gain=0.0186474 0.0405957 0.0244746 0.0159081
threshold=0.12918264046311381 25.758121490478519 12.500000000000002 -0.024609474465250965
decision_type=2 2 2 2
left_child=-1 2 -2 -3
right_child=1 3 -4 -5
leaf_value=-0.0072687151220937486 -0.0077529787784442264 0.011251926235854623 0.0021413928549736737 0.0016187898969898624
leaf_weight=3.0000000000000027 5.0000000000000018 4 5 2.9999999999999991
leaf_count=3 5 4 5 3
internal_value=-1.74623e-11 0.00128271 -0.00280579 0.00712344
internal_weight=20 17 10 7
internal_count=20 17 10 7
is_linear=0
shrinkage=0.1


Tree=48
num_leaves=5
num_cat=0
split_feature=8 4 14 2
split_gain=0.0151044 0.0328825 0.0207506 0.013642
threshold=0.12918264046311381 25.758121490478519 0.33017019927501684 0.14306686073541644
decision_type=2 2 2 2
left_child=-1 2 -2 -3
right_child=1 3 -4 -5
leaf_value=-0.0065418436812857712 -0.0070804999305983038 0.0013135769094030064 0.0020300722960382698 0.010234234097879378
leaf_weight=3.0000000000000027 5.0000000000000018 2.9999999999999991 5 4
leaf_count=3 5 3 5 4
internal_value=-1.04847e-10 0.00115444 -0.00252521 0.0064111
internal_weight=20 17 10 7
internal_count=20 17 10 7
is_linear=0
shrinkage=0.1


Tree=49
num_leaves=5
num_cat=0
split_feature=0 15 14 2
split_gain=0.0153697 0.0157406 0.0319654 0.00124689
threshold=-0.055367941036820405 12.500000000000002 0.020628991536796096 0.12675541639328006
decision_type=2 2 2 2
left_child=-1 2 -2 -3
right_child=1 3 -4 -5
leaf_value=0.0065990454827745681 0.0053910903787861208 0.0043971291122337185 -0.0067129622533684602 0.0015139681287109847
leaf_weight=3.0000000000000027 3.0000000000000027 2.9999999999999991 7.9999999999999991 3
leaf_count=3 3 3 8 3
internal_value=6.40284e-11 -0.00116454 -0.00341186 0.00295555
internal_weight=20 17 11 6
internal_count=20 17 11 6
is_linear=0
shrinkage=0.1


end of trees

feature_importances:
nifty_vol_1m=33
india_vix=26
turnover_1m=23
nifty_trend_duration=17
trend_50_200=16
nifty_ret_1m=14
max_drawdown_3m=13
bottom_decile_return_1m=9
vix_percentile_1y=8
top_decile_return_1m=8
nifty_ret_3m=6
spread_decile=6
cross_sectional_vol=5

parameters:
[boosting: gbdt]
[objective: regression]
[metric: l2]
[tree_learner: serial]
[device_type: cpu]
[data_sample_strategy: bagging]
[data: ]
[valid: ]
[num_iterations: 50]
[learning_rate: 0.1]
[num_leaves: 31]
[num_threads: 2]
[seed: 0]
[deterministic: 0]
[force_col_wise: 0]
[force_row_wise: 0]
[histogram_pool_size: -1]
[max_depth: 3]
[min_data_in_leaf: 3]
[min_sum_hessian_in_leaf: 0.001]
[bagging_fraction: 1]
[pos_bagging_fraction: 1]
[neg_bagging_fraction: 1]
[bagging_freq: 0]
[bagging_seed: 3]
[bagging_by_query: 0]
[feature_fraction: 1]
[feature_fraction_bynode: 1]
[feature_fraction_seed: 2]
[extra_trees: 0]
[extra_seed: 6]
[early_stopping_round: 0]
[early_stopping_min_delta: 0]
[first_metric_only: 0]
[max_delta_step: 0]
[lambda_l1: 0]
[lambda_l2: 0]
[linear_lambda: 0]
[min_gain_to_split: 0]
[drop_rate: 0.1]
[max_drop: 50]
[skip_drop: 0.5]
[xgboost_dart_mode: 0]
[uniform_drop: 0]
[drop_seed: 4]
[top_rate: 0.2]
[other_rate: 0.1]
[min_data_per_group: 100]
[max_cat_threshold: 32]
[cat_l2: 10]
[cat_smooth: 10]
[max_cat_to_onehot: 4]
[top_k: 20]
[monotone_constraints: ]
[monotone_constraints_method: basic]
[monotone_penalty: 0]
[feature_contri: ]
[forcedsplits_filename: ]
[refit_decay_rate: 0.9]
[cegb_tradeoff: 1]
[cegb_penalty_split: 0]
[cegb_penalty_feature_lazy: ]
[cegb_penalty_feature_coupled: ]
[path_smooth: 0]
[interaction_constraints: ]
[verbosity: -1]
[saved_feature_importance_type: 0]
[use_quantized_grad: 0]
[num_grad_quant_bins: 4]
[quant_train_renew_leaf: 0]
[stochastic_rounding: 1]
[linear_tree: 0]
[max_bin: 255]
[max_bin_by_feature: ]
[min_data_in_bin: 3]
[bin_construct_sample_cnt: 200000]
[data_random_seed: 1]
[is_enable_sparse: 1]
[enable_bundle: 1]
[use_missing: 1]
[zero_as_missing: 0]
[feature_pre_filter: 1]
[pre_partition: 0]
[two_round: 0]
[header: 0]
[label_column: ]
[weight_column: ]
[group_column: ]
[ignore_column: ]
[categorical_feature: ]
[forcedbins_filename: ]
[precise_float_parser: 0]
[parser_config_file: ]
[objective_seed: 5]
[num_class: 1]
[is_unbalance: 0]
[scale_pos_weight: 1]
[sigmoid: 1]
[boost_from_average: 1]
[reg_sqrt: 0]
[alpha: 0.9]
[fair_c: 1]
[poisson_max_delta_step: 0.7]
[tweedie_variance_power: 1.5]
[lambdarank_truncation_level: 30]
[lambdarank_norm: 1]
[label_gain: ]
[lambdarank_position_bias_regularization: 0]
[eval_at: ]
[multi_error_top_k: 1]
[auc_mu_weights: ]
[num_machines: 1]
[local_listen_port: 12400]
[time_out: 120]
[machine_list_filename: ]
[machines: ]
[gpu_platform_id: -1]
[gpu_device_id: -1]
[gpu_use_dp: 0]
[num_gpu: 1]

end of parameters

pandas_categorical:null
