tree
version=v4
num_class=1
num_tree_per_iteration=1
label_index=0
max_feature_idx=15
objective=regression
feature_names=nifty_ret_1m nifty_ret_3m nifty_vol_1m vol_percentile_1y india_vix vix_percentile_1y max_drawdown_3m trend_50_200 top_decile_return_1m bottom_decile_return_1m spread_decile cross_sectional_vol hit_rate_top_k current_drawdown turnover_1m nifty_trend_duration
feature_infos=[-0.067231982946395874:0.085620194673538208] [-0.11583243310451508:0.11519625782966614] [0.085847921669483185:0.28543993830680847] [0.024817518889904022:0.96610170602798462] [13.279999732971191:39.926708221435547] [0.02380952425301075:0.99603176116943359] [-0.12448024749755859:-0.034254826605319977] [0.93224835395812988:1.0884325504302979] [0.10166497528553009:0.72764718532562256] [-0.22188952565193176:-0.067068926990032196] [0.24193346500396729:0.84928488731384277] [0.068980887532234192:0.66067612171173096] [0.13675214350223541:0.87179487943649292] [-0.11126459389925003:-0.032696299254894257] [0.018023582175374031:0.4882219135761261] [-38:51]
tree_sizes=597 622 550 537 551 571 573 552 593 590 594 557 556 556 592 592 556 575 599 553 597 596 552 680 681 555 683 536 557 615 558 686 538 558 634 557 684 619 560 620 560 688 538 560 637 691 635 686 622 690

Tree=0
num_leaves=5
num_cat=0
split_feature=6 14 12 14
split_gain=2.94052 2.3562 1.1935 0.856553
threshold=-0.12326362729072569 0.1155377132818103 0.46052631735801702 0.0258247209712863
decision_type=2 2 2 2
left_child=-1 3 -3 -2
right_child=1 2 -4 -5
leaf_value=-0.25954500983158735 -0.16414883945669448 -0.059983755648136128 -0.14342297706753016 -0.22801450639963147
leaf_weight=3.0000000000000027 7.0000000000000018 2.9999999999999991 4 3
leaf_count=3 7 3 4 3
internal_value=-0.168268 -0.152161 -0.107663 -0.183309
internal_weight=20 17 7 10
internal_count=20 17 7 10
is_linear=0
shrinkage=1


Tree=1
num_leaves=5
num_cat=0
split_feature=6 14 12 1
split_gain=2.38182 1.90852 0.966738 0.735322
threshold=-0.12326362729072569 0.1155377132818103 0.46052631735801702 -0.03205007687211036
decision_type=2 2 2 2
left_child=-1 3 -3 -2
right_child=1 2 -4 -5
leaf_value=-0.08214914600054414 -0.054957965885599369 0.097455978393554688 0.022360684722661967 0.004215809702873231
leaf_weight=3.0000000000000027 3.0000000000000036 2.9999999999999991 4 6.9999999999999982
leaf_count=3 3 3 4 7
internal_value=3.1665e-10 0.0144969 0.0545444 -0.0135363
internal_weight=20 17 7 10
internal_count=20 17 7 10
is_linear=0
shrinkage=0.1


Tree=2
num_leaves=4
num_cat=0
split_feature=14 9 15
split_gain=2.02185 2.73364 1.59953
threshold=0.020628991536796096 -0.20575523376464841 1.0000000180025095e-35
decision_type=2 2 2
left_child=-1 -2 -3
right_child=1 2 -4
leaf_value=-0.07568741639455151 -0.073269647359847895 0.070949638585443633 0.0026466678828001022
leaf_weight=3.0000000000000027 3.0000000000000044 5.9999999999999973 7.9999999999999991
leaf_count=3 3 6 8
internal_value=-8.34407e-10 0.0133566 0.0319194
internal_weight=20 17 14
internal_count=20 17 14
is_linear=0
shrinkage=0.1


Tree=3
num_leaves=4
num_cat=0
split_feature=14 9 12
split_gain=1.6377 2.21425 1.38107
threshold=0.020628991536796096 -0.20575523376464841 0.39614365994930273
decision_type=2 2 2
left_child=-1 -2 -3
right_child=1 2 -4
leaf_value=-0.068118675549824953 -0.065942684809366756 0.078388181328773537 0.0088631355762481684
leaf_weight=3.0000000000000027 3.0000000000000044 3.9999999999999973 9.9999999999999982
leaf_count=3 3 4 10
internal_value=0 0.0120209 0.0287274
internal_weight=20 17 14
internal_count=20 17 14
is_linear=0
shrinkage=0.1


Tree=4
num_leaves=4
num_cat=0
split_feature=14 9 15
split_gain=1.32654 1.79354 1.18805
threshold=0.020628991536796096 -0.20575523376464841 1.0000000180025095e-35
decision_type=2 2 2
left_child=-1 -2 -3
right_child=1 2 -4
leaf_value=-0.061306807398796008 -0.059348415335019326 0.059492110709349337 0.00062662586569786074
leaf_weight=3.0000000000000027 3.0000000000000044 5.9999999999999973 7.9999999999999991
leaf_count=3 3 6 8
internal_value=1.49012e-10 0.0108188 0.0258547
internal_weight=20 17 14
internal_count=20 17 14
is_linear=0
shrinkage=0.1


Tree=5
num_leaves=5
num_cat=0
split_feature=14 7 6 14
split_gain=1.24708 1.01551 0.63483 0.695094
threshold=0.1155377132818103 0.94901025295257579 -0.11173070967197417 0.0258247209712863
decision_type=2 2 2 2
left_child=2 -2 -1 -4
right_child=1 -3 3 -5
leaf_value=-0.060226637125015227 -0.015413410464922584 0.058180500268936147 0.01254188244541486 -0.046411219239234913
leaf_weight=3.0000000000000009 3 5 6 3
leaf_count=3 3 5 6 3
internal_value=-2.23517e-10 0.0305828 -0.0203885 -0.00710915
internal_weight=20 8 12 9
internal_count=20 8 12 9
is_linear=0
shrinkage=0.1


Tree=6
num_leaves=5
num_cat=0
split_feature=14 7 6 14
split_gain=1.01013 0.822565 0.514212 0.563026
threshold=0.1155377132818103 0.94901025295257579 -0.11173070967197417 0.0258247209712863
decision_type=2 2 2 2
left_child=2 -2 -1 -4
right_child=1 -3 3 -5
leaf_value=-0.05420397222042081 -0.013872068872054414 0.052362449765205377 0.011287694672743478 -0.041770098606745389
leaf_weight=3.0000000000000009 3 5 6 3
leaf_count=3 3 5 6 3
internal_value=-1.11759e-10 0.0275245 -0.0183497 -0.00639824
internal_weight=20 8 12 9
internal_count=20 8 12 9
is_linear=0
shrinkage=0.1


Tree=7
num_leaves=4
num_cat=0
split_feature=14 9 12
split_gain=0.824797 1.07072 0.860732
threshold=0.020628991536796096 -0.20575523376464841 0.39614365994930273
decision_type=2 2 2
left_child=-1 -2 -3
right_child=1 2 -4
leaf_value=-0.048341739177703805 -0.045683660109837772 0.059353160485625292 0.0044663547351956366
leaf_weight=3.0000000000000027 3.0000000000000044 3.9999999999999973 9.9999999999999982
leaf_count=3 3 4 10
internal_value=-4.28408e-10 0.00853089 0.0201483
internal_weight=20 17 14
internal_count=20 17 14
is_linear=0
shrinkage=0.1


Tree=8
num_leaves=5
num_cat=0
split_feature=14 7 6 10
split_gain=0.741363 0.582635 0.358705 0.242582
threshold=0.1155377132818103 0.94901025295257579 -0.0703274831175804 0.34373533725738531
decision_type=2 2 2 2
left_child=2 -2 3 -1
right_child=1 -3 -4 -5
leaf_value=-0.0088366478681564282 -0.011259830867250758 0.044484098255634305 0.0047369259595870959 -0.046453922986984246
leaf_weight=3.0000000000000009 3 5 5.0000000000000009 4
leaf_count=3 3 5 5 4
internal_value=-3.53903e-10 0.0235801 -0.0157201 -0.0303322
internal_weight=20 8 12 7
internal_count=20 8 12 7
is_linear=0
shrinkage=0.1


Tree=9
num_leaves=5
num_cat=0
split_feature=14 7 6 10
split_gain=0.600504 0.471934 0.290551 0.196491
threshold=0.1155377132818103 0.94901025295257579 -0.0703274831175804 0.34373533725738531
decision_type=2 2 2 2
left_child=2 -2 3 -1
right_child=1 -3 -4 -5
leaf_value=-0.0079529831806818604 -0.010133846725026764 0.040035689175128931 0.004263233542442321 -0.041808530688285821
leaf_weight=3.0000000000000009 3 5 5.0000000000000009 4
leaf_count=3 3 5 5 4
internal_value=5.58794e-11 0.0212221 -0.0141481 -0.027299
internal_weight=20 8 12 7
internal_count=20 8 12 7
is_linear=0
shrinkage=0.1


Tree=10
num_leaves=5
num_cat=0
split_feature=14 7 6 10
split_gain=0.486408 0.382267 0.235346 0.159158
threshold=0.1155377132818103 0.94901025295257579 -0.0703274831175804 0.34373533725738531
decision_type=2 2 2 2
left_child=2 -2 3 -1
right_child=1 -3 -4 -5
leaf_value=-0.0071576848626136742 -0.0091204625243941923 0.036032119095325464 0.0038369113206863392 -0.037627677246928205
leaf_weight=3.0000000000000009 3 5 5.0000000000000009 4
leaf_count=3 3 5 5 4
internal_value=4.65661e-11 0.0190999 -0.0127333 -0.0245691
internal_weight=20 8 12 7
internal_count=20 8 12 7
is_linear=0
shrinkage=0.1


Tree=11
num_leaves=4
num_cat=0
split_feature=9 0 13
split_gain=0.434916 0.622035 0.389675
threshold=-0.20575523376464841 -0.028445906005799767 -0.090732485055923448
decision_type=2 2 2
left_child=-1 -2 -3
right_child=1 2 -4
leaf_value=-0.035103573898474336 0.047517235577106395 0.0078915070742368674 -0.029039013758301774
leaf_weight=3.0000000000000027 3.0000000000000044 10.000000000000002 3.9999999999999938
leaf_count=3 3 10 4
internal_value=3.72529e-11 0.00619475 -0.00266007
internal_weight=20 17 14
internal_count=20 17 14
is_linear=0
shrinkage=0.1


Tree=12
num_leaves=4
num_cat=0
split_feature=9 0 13
split_gain=0.352282 0.503849 0.315637
threshold=-0.20575523376464841 -0.028445906005799767 -0.090732485055923448
decision_type=2 2 2
left_child=-1 -2 -3
right_child=1 2 -4
leaf_value=-0.031593217452367116 0.042765513559182414 0.0071023568324744676 -0.026135112717747724
leaf_weight=3.0000000000000027 3.0000000000000044 10.000000000000002 3.9999999999999938
leaf_count=3 3 10 4
internal_value=2.8871e-10 0.00557527 -0.00239406
internal_weight=20 17 14
internal_count=20 17 14
is_linear=0
shrinkage=0.1


Tree=13
num_leaves=4
num_cat=0
split_feature=14 9 15
split_gain=0.319322 0.414746 0.645668
threshold=0.020628991536796096 -0.20575523376464841 1.0000000180025095e-35
decision_type=2 2 2
left_child=-1 -2 -3
right_child=1 2 -4
leaf_value=-0.030079005161921149 -0.028433894614378563 0.037336101258794482 -0.0060597382020205265
leaf_weight=3.0000000000000027 3.0000000000000044 5.9999999999999973 7.9999999999999991
leaf_count=3 3 6 8
internal_value=1.30385e-10 0.00530806 0.0125385
internal_weight=20 17 14
internal_count=20 17 14
is_linear=0
shrinkage=0.1


Tree=14
num_leaves=5
num_cat=0
split_feature=14 7 14 6
split_gain=0.28539 0.197087 0.189361 0.57976
threshold=0.1155377132818103 0.94901025295257579 0.0258247209712863 -0.0703274831175804
decision_type=2 2 2 2
left_child=2 -2 3 -1
right_child=1 -3 -4 -5
leaf_value=-0.020447687432169914 -0.0056330023333430283 0.026788105666637418 -0.031511270503203077 0.033392803867657951
leaf_weight=6 3 5 2.9999999999999991 3.0000000000000018
leaf_count=6 3 5 3 3
internal_value=-1.58325e-10 0.0146302 -0.00975346 -0.00250086
internal_weight=20 8 12 9
internal_count=20 8 12 9
is_linear=0
shrinkage=0.1


Tree=15
num_leaves=5
num_cat=0
split_feature=14 7 14 6
split_gain=0.231166 0.15964 0.153382 0.469605
threshold=0.1155377132818103 0.94901025295257579 0.0258247209712863 -0.0703274831175804
decision_type=2 2 2 2
left_child=2 -2 3 -1
right_child=1 -3 -4 -5
leaf_value=-0.018402919049064315 -0.0050697019323706618 0.024109295904636383 -0.028360142807165784 0.030053523679574309
leaf_weight=6 3 5 2.9999999999999991 3.0000000000000018
leaf_count=6 3 5 3 3
internal_value=1.02445e-10 0.0131672 -0.00877811 -0.00225077
internal_weight=20 8 12 9
internal_count=20 8 12 9
is_linear=0
shrinkage=0.1


Tree=16
num_leaves=4
num_cat=0
split_feature=14 9 15
split_gain=0.189739 0.246914 0.481557
threshold=0.020628991536796096 -0.20575523376464841 1.0000000180025095e-35
decision_type=2 2 2
left_child=-1 -2 -3
right_child=1 2 -4
leaf_value=-0.0231860437740882 -0.021943014860153161 0.031086053078373282 -0.0063911432400345809
leaf_weight=3.0000000000000027 3.0000000000000044 5.9999999999999973 7.9999999999999991
leaf_count=3 3 6 8
internal_value=-1.67638e-10 0.00409165 0.00967051
internal_weight=20 17 14
internal_count=20 17 14
is_linear=0
shrinkage=0.1


Tree=17
num_leaves=5
num_cat=0
split_feature=14 9 8 7
split_gain=0.18399 0.117241 0.203041 0.110204
threshold=0.1155377132818103 -0.11789804697036742 0.26784237474203115 0.94901025295257579
decision_type=2 2 2 2
left_child=1 2 -1 -2
right_child=3 -3 -4 -5
leaf_value=-0.012745380401611326 -0.0034052212412158641 -0.024951604257027294 0.019116934140523272 0.020838391855359073
leaf_weight=6 3 3.0000000000000009 3 5
leaf_count=6 3 3 3 5
internal_value=1.39698e-10 -0.00783136 -0.00212461 0.011747
internal_weight=20 12 9 8
internal_count=20 12 9 8
is_linear=0
shrinkage=0.1


Tree=18
num_leaves=5
num_cat=0
split_feature=14 15 1 7
split_gain=0.149032 0.102431 0.256959 0.089265
threshold=0.1155377132818103 1.0000000180025095e-35 -0.03205007687211036 0.94901025295257579
decision_type=2 2 2 2
left_child=1 2 -1 -2
right_child=3 -3 -4 -5
leaf_value=-0.01843726998195052 -0.0030646991450339546 -0.020114169945009055 0.017406773194670665 0.018754552863538262
leaf_weight=4 3 3.9999999999999991 4.0000000000000018 5
leaf_count=4 3 4 4 5
internal_value=-2.32831e-12 -0.00704822 -0.000515248 0.0105723
internal_weight=20 12 8 8
internal_count=20 12 8 8
is_linear=0
shrinkage=0.1


Tree=19
num_leaves=4
num_cat=0
split_feature=14 2 1
split_gain=0.134802 0.173179 0.428271
threshold=0.020628991536796096 0.17404410243034366 1.0000000180025095e-35
decision_type=2 2 2
left_child=-1 2 -2
right_child=1 -3 -4
leaf_value=-0.019543282051260252 0.03627313559409228 -0.014746724208816887 -0.0030528663554125362
leaf_weight=3.0000000000000027 4.0000000000000027 3.9999999999999991 8.9999999999999982
leaf_count=3 4 4 9
internal_value=1.0943e-10 0.00344881 0.00904744
internal_weight=20 17 13
internal_count=20 17 13
is_linear=0
shrinkage=0.1


Tree=20
num_leaves=5
num_cat=0
split_feature=14 14 6 7
split_gain=0.123422 0.0938952 0.234746 0.0612317
threshold=0.1155377132818103 0.0258247209712863 -0.0703274831175804 0.94901025295257579
decision_type=2 2 2 2
left_child=1 2 -1 -2
right_child=3 -3 -4 -5
leaf_value=-0.012726959151526291 -0.0016733521906038122 -0.021735266844431559 0.021532762547334019 0.016397864744067191
leaf_weight=6 3 2.9999999999999991 3.0000000000000018 5
leaf_count=6 3 3 3 5
internal_value=-3.25963e-11 -0.00641411 -0.00130705 0.00962116
internal_weight=20 12 9 8
internal_count=20 12 9 8
is_linear=0
shrinkage=0.1


Tree=21
num_leaves=5
num_cat=0
split_feature=14 14 6 7
split_gain=0.099972 0.0760551 0.190144 0.0495977
threshold=0.1155377132818103 0.0258247209712863 -0.0703274831175804 0.94901025295257579
decision_type=2 2 2 2
left_child=1 2 -1 -2
right_child=3 -3 -4 -5
leaf_value=-0.01145426332950592 -0.0015060177383323507 -0.019561739203830562 0.019379486640294374 0.014758077766746281
leaf_weight=6 3 2.9999999999999991 3.0000000000000018 5
leaf_count=6 3 3 3 5
internal_value=-1.02445e-10 -0.00577269 -0.00117635 0.00865904
internal_weight=20 12 9 8
internal_count=20 12 9 8
is_linear=0
shrinkage=0.1


Tree=22
num_leaves=4
num_cat=0
split_feature=9 15 2
split_gain=0.0836123 0.172933 0.150297
threshold=-0.20575523376464841 -16.999999999999996 0.12675541639328006
decision_type=2 2 2
left_child=-1 -2 -3
right_child=1 2 -4
leaf_value=-0.015391608964030924 0.024504193042715335 -0.015853726565837872 0.0057700980144242443
leaf_weight=3.0000000000000027 3.0000000000000062 4.9999999999999956 8.9999999999999982
leaf_count=3 3 5 9
internal_value=7.68341e-11 0.00271617 -0.0019527
internal_weight=20 17 14
internal_count=20 17 14
is_linear=0
shrinkage=0.1


Tree=23
num_leaves=6
num_cat=0
split_feature=14 9 15 12 7
split_gain=0.0808513 0.0779894 0.0627503 0.045215 0.039002
threshold=0.1155377132818103 -0.13307481259107587 -5.4999999999999991 0.39614365994930273 0.94901025295257579
decision_type=2 2 2 2 2
left_child=1 3 -3 -1 -2
right_child=4 2 -4 -5 -6
leaf_value=0.011551249027252191 -0.0012270345042149223 -0.0030264629671970995 -0.023479713996251414 -0.0058105890328685426 0.013195532001554964
leaf_weight=3.0000000000000009 3 3 3.0000000000000009 3 5
leaf_count=3 3 3 3 3 5
internal_value=2.79397e-10 -0.00519138 -0.0132531 0.00287033 0.00778707
internal_weight=20 12 6 6 8
internal_count=20 12 6 6 8
is_linear=0
shrinkage=0.1


Tree=24
num_leaves=6
num_cat=0
split_feature=5 9 11 8 6
split_gain=0.0706956 0.147318 0.190286 0.0369615 0.0256603
threshold=0.23015873134136203 -0.13307481259107587 0.097451426088809981 0.26784237474203115 -0.080485537648200975
decision_type=2 2 2 2 2
left_child=4 2 -2 -3 -1
right_child=1 3 -4 -5 -6
leaf_value=0.0025420874978105221 -0.014918975376834467 -0.0078884134689966891 0.016937844343483447 -0.023585859437783553 0.015621419499317788
leaf_weight=3 3 2.9999999999999973 5 3 3.0000000000000027
leaf_count=3 3 3 5 3 3
internal_value=-1.07102e-10 -0.00389218 0.00499154 -0.0157371 0.00908175
internal_weight=20 14 8 6 6
internal_count=20 14 8 6 6
is_linear=0
shrinkage=0.1


Tree=25
num_leaves=4
num_cat=0
split_feature=9 15 2
split_gain=0.0755919 0.123476 0.0922193
threshold=-0.20575523376464841 -16.999999999999996 0.12675541639328006
decision_type=2 2 2
left_child=-1 -2 -3
right_child=1 2 -4
leaf_value=-0.014634792436845585 0.020993323748310359 -0.012251423690468083 0.0046868355737792119
leaf_weight=3.0000000000000027 3.0000000000000062 4.9999999999999956 8.9999999999999982
leaf_count=3 3 5 9
internal_value=-2.17697e-10 0.00258261 -0.00136254
internal_weight=20 17 14
internal_count=20 17 14
is_linear=0
shrinkage=0.1


Tree=26
num_leaves=6
num_cat=0
split_feature=14 9 15 0 7
split_gain=0.0617729 0.0531595 0.0332331 0.0313835 0.0295314
threshold=0.1155377132818103 -0.13307481259107587 -5.4999999999999991 -0.028445906005799767 0.94901025295257579
decision_type=2 2 2 2 2
left_child=1 3 -3 -1 -2
right_child=4 2 -4 -5 -6
leaf_value=-0.0051142152709265521 -0.0010371117309356727 -0.0037511716286341341 -0.01863587200641631 0.0093503437936305975 0.011512816250324248
leaf_weight=3.0000000000000009 3 3 3.0000000000000009 3 5
leaf_count=3 3 3 3 3 5
internal_value=3.60887e-11 -0.00453773 -0.0111935 0.00211806 0.00680659
internal_weight=20 12 6 6 8
internal_count=20 12 6 6 8
is_linear=0
shrinkage=0.1


Tree=27
num_leaves=4
num_cat=0
split_feature=9 12 5
split_gain=0.0577879 0.118805 0.130068
threshold=-0.20575523376464841 0.39614365994930273 0.23015873134136203
decision_type=2 2 2
left_child=-1 -2 -3
right_child=1 2 -4
leaf_value=-0.012795795189837601 0.015208963565528383 0.0072729142382740994 -0.013549152885874112
leaf_weight=3.0000000000000027 5.0000000000000027 5.9999999999999982 6
leaf_count=3 5 6 6
internal_value=1.86265e-11 0.00225808 -0.00313812
internal_weight=20 17 12
internal_count=20 17 12
is_linear=0
shrinkage=0.1


Tree=28
num_leaves=4
num_cat=0
split_feature=14 2 1
split_gain=0.0527856 0.087831 0.229771
threshold=0.020628991536796096 0.17404410243034366 1.0000000180025095e-35
decision_type=2 2 2
left_child=-1 2 -2
right_child=1 -3 -4
leaf_value=-0.012229443279405422 0.026087159244343617 -0.010799958952702582 -0.0027178302562485142
leaf_weight=3.0000000000000027 4.0000000000000027 3.9999999999999991 8.9999999999999982
leaf_count=3 4 4 9
internal_value=-4.88944e-11 0.00215814 0.00614524
internal_weight=20 17 13
internal_count=20 17 13
is_linear=0
shrinkage=0.1


Tree=29
num_leaves=5
num_cat=0
split_feature=9 7 2 8
split_gain=0.048032 0.0875559 0.156115 0.0302193
threshold=-0.20575523376464841 0.99401733279228222 0.12675541639328006 0.17261020839214328
decision_type=2 2 2 2
left_child=-1 2 -2 -3
right_child=1 3 -4 -5
leaf_value=-0.011665790644474315 -0.0044315623864531499 0.0010678652673959733 0.020557635845616457 -0.012209148053079842
leaf_weight=3.0000000000000027 5.0000000000000018 2.9999999999999991 5 4
leaf_count=3 5 3 5 4
internal_value=-5.23869e-11 0.00205867 0.00806304 -0.006519
internal_weight=20 17 10 7
internal_count=20 17 10 7
is_linear=0
shrinkage=0.1


Tree=30
num_leaves=4
num_cat=0
split_feature=14 2 1
split_gain=0.0437768 0.0709041 0.173028
threshold=0.020628991536796096 0.17404410243034366 1.0000000180025095e-35
decision_type=2 2 2
left_child=-1 2 -2
right_child=1 -3 -4
leaf_value=-0.011137063242495047 0.022852995712310059 -0.0096773110097274195 -0.0021435053605172371
leaf_weight=3.0000000000000027 4.0000000000000027 3.9999999999999991 8.9999999999999982
leaf_count=3 4 4 9
internal_value=4.19095e-11 0.00196536 0.00554773
internal_weight=20 17 13
internal_count=20 17 13
is_linear=0
shrinkage=0.1


Tree=31
num_leaves=6
num_cat=0
split_feature=14 9 7 15 7
split_gain=0.0409274 0.0273576 0.0229727 0.0223428 0.0172026
threshold=0.1155377132818103 -0.13307481259107587 0.99401733279228222 -5.4999999999999991 0.94901025295257579
decision_type=2 2 2 2 2
left_child=1 2 -1 -3 -2
right_child=4 3 -4 -5 -6
leaf_value=0.0072688697526852256 -0.00044618874477843432 -0.0023659922182559961 -0.0051065666445841377 -0.014570591847101839 0.0091322817280888539
leaf_weight=3.0000000000000009 3 3 3 3.0000000000000009 5
leaf_count=3 3 3 3 3 5
internal_value=-2.32831e-11 -0.00369357 0.00108115 -0.00846829 0.00554036
internal_weight=20 12 6 6 8
internal_count=20 12 6 6 8
is_linear=0
shrinkage=0.1


Tree=32
num_leaves=4
num_cat=0
split_feature=9 12 4
split_gain=0.0402048 0.0669944 0.0703969
threshold=-0.20575523376464841 0.39614365994930273 21.257919311523441
decision_type=2 2 2
left_child=-1 -2 -3
right_child=1 2 -4
leaf_value=-0.010673027966792373 0.011608718298375599 0.0043045349784993706 -0.011231251247227191
leaf_weight=3.0000000000000027 5.0000000000000027 6.9999999999999982 5
leaf_count=3 5 7 5
internal_value=-1.89757e-10 0.00188348 -0.00216871
internal_weight=20 17 12
internal_count=20 17 12
is_linear=0
shrinkage=0.1


Tree=33
num_leaves=4
num_cat=0
split_feature=14 2 1
split_gain=0.0342931 0.0506732 0.132706
threshold=0.020628991536796096 0.17404410243034366 1.0000000180025095e-35
decision_type=2 2 2
left_child=-1 2 -2
right_child=1 -3 -4
leaf_value=-0.0098571664343277497 0.01992325664032249 -0.0081030230270698663 -0.0019677153322845697
leaf_weight=3.0000000000000027 4.0000000000000027 3.9999999999999991 8.9999999999999982
leaf_count=3 4 4 9
internal_value=-1.42027e-10 0.0017395 0.00476797
internal_weight=20 17 13
internal_count=20 17 13
is_linear=0
shrinkage=0.1


Tree=34
num_leaves=5
num_cat=0
split_feature=9 2 12 4
split_gain=0.0334114 0.0579952 0.108811 0.0510867
threshold=-0.20575523376464841 0.12675541639328006 0.39614365994930273 21.257919311523441
decision_type=2 2 2 2
left_child=-1 3 -3 -2
right_child=1 2 -4 -5
leaf_value=-0.0097296321454147378 0.003035909240134057 0.022272142209112646 -5.9837549633812161e-05 -0.015418851872285203
leaf_weight=3.0000000000000027 3.0000000000000027 2.9999999999999991 7.9999999999999991 3
leaf_count=3 3 3 8 3
internal_value=9.48785e-11 0.00171699 0.0060307 -0.00619147
internal_weight=20 17 11 6
internal_count=20 17 11 6
is_linear=0
shrinkage=0.1


Tree=35
num_leaves=4
num_cat=0
split_feature=9 15 2
split_gain=0.0270633 0.0486939 0.0423194
threshold=-0.20575523376464841 -16.999999999999996 0.12675541639328006
decision_type=2 2 2
left_child=-1 -2 -3
right_child=1 2 -4
leaf_value=-0.0087566689898570284 0.013106853390733371 -0.0083085419877898022 0.003165795287350193
leaf_weight=3.0000000000000027 3.0000000000000062 4.9999999999999956 8.9999999999999982
leaf_count=3 3 5 9
internal_value=4.24916e-11 0.00154529 -0.000932182
internal_weight=20 17 14
internal_count=20 17 14
is_linear=0
shrinkage=0.1


Tree=36
num_leaves=6
num_cat=0
split_feature=14 9 7 2 15
split_gain=0.025841 0.0173735 0.0155848 0.0120204 0.00995752
threshold=0.1155377132818103 -0.13307481259107587 0.99401733279228222 0.14306686073541644 -5.4999999999999991
decision_type=2 2 2 2 2
left_child=1 2 -1 -2 -3
right_child=3 4 -4 -5 -6
leaf_value=0.0059666194642583499 0.00052608997793868173 -0.0026660875727732968 -0.0042264602457483596 0.0082786254817619909 -0.010813692460457477
leaf_weight=3.0000000000000009 4 3 3 4 3.0000000000000009
leaf_count=3 4 3 3 4 3
internal_value=-3.0268e-11 -0.00293491 0.00087008 0.00440236 -0.00673989
internal_weight=20 12 6 8 6
internal_count=20 12 6 8 6
is_linear=0
shrinkage=0.1


Tree=37
num_leaves=5
num_cat=0
split_feature=9 7 2 8
split_gain=0.0238184 0.0429465 0.0752968 0.0131253
threshold=-0.20575523376464841 0.99401733279228222 0.12675541639328006 0.17261020839214328
decision_type=2 2 2 2
left_child=-1 2 -2 -3
right_child=1 3 -4 -5
leaf_value=-0.008214961582173894 -0.0030224545858800397 0.0004422986026232441 0.014332285821437833 -0.0083077919669449322
leaf_weight=3.0000000000000027 5.0000000000000018 2.9999999999999991 5 4
leaf_count=3 5 3 5 4
internal_value=-3.14321e-11 0.0014497 0.00565492 -0.00455775
internal_weight=20 17 10 7
internal_count=20 17 10 7
is_linear=0
shrinkage=0.1


Tree=38
num_leaves=4
num_cat=0
split_feature=14 2 1
split_gain=0.0233698 0.0392581 0.0797422
threshold=0.020628991536796096 0.17404410243034366 1.0000000180025095e-35
decision_type=2 2 2
left_child=-1 2 -2
right_child=1 -3 -4
leaf_value=-0.0081372299852470464 0.015849599987268436 -0.0072272911202162504 -0.0011197275818429062
leaf_weight=3.0000000000000027 4.0000000000000027 3.9999999999999991 8.9999999999999982
leaf_count=3 4 4 9
internal_value=-1.36206e-10 0.00143598 0.0041016
internal_weight=20 17 13
internal_count=20 17 13
is_linear=0
shrinkage=0.1


Tree=39
num_leaves=5
num_cat=0
split_feature=9 7 2 8
split_gain=0.0195364 0.0311396 0.0593056 0.0107076
threshold=-0.20575523376464841 0.99401733279228222 0.12675541639328006 0.17261020839214328
decision_type=2 2 2 2
left_child=-1 2 -2 -3
right_child=1 3 -4 -5
leaf_value=-0.0074399658090745328 -0.0028072729520499692 0.00071362697829802828 0.012594758179038762 -0.0071896023582667104
leaf_weight=3.0000000000000027 5.0000000000000018 2.9999999999999991 5 4
leaf_count=3 5 3 5 4
internal_value=1.04774e-11 0.00131294 0.00489374 -0.0038025
internal_weight=20 17 10 7
internal_count=20 17 10 7
is_linear=0
shrinkage=0.1


Tree=40
num_leaves=4
num_cat=0
split_feature=14 2 1
split_gain=0.0193799 0.0316036 0.0600147
threshold=0.020628991536796096 0.17404410243034366 1.0000000180025095e-35
decision_type=2 2 2
left_child=-1 2 -2
right_child=1 -3 -4
leaf_value=-0.007410103063254298 0.013891083491034795 -0.0064652733039110904 -0.00083032568088836156
leaf_weight=3.0000000000000027 4.0000000000000027 3.9999999999999991 8.9999999999999982
leaf_count=3 4 4 9
internal_value=2.15368e-11 0.00130767 0.00369934
internal_weight=20 17 13
internal_count=20 17 13
is_linear=0
shrinkage=0.1


Tree=41
num_leaves=6
num_cat=0
split_feature=10 7 2 0 5
split_gain=0.0178204 0.0124637 0.0105905 0.0172425 0.00140807
threshold=0.32746414840221411 0.96526518464088451 0.12675541639328006 -0.024609474465250965 0.30158731341362005
decision_type=2 2 2 2 2
left_child=1 -1 -2 -4 -3
right_child=2 4 3 -5 -6
leaf_value=0.0085628519455591759 -0.006804733350872995 0.0022005542491873096 -0.0060853467866157475 0.0039436593186110251 -0.00086329403954247619
leaf_weight=3.0000000000000018 3.9999999999999982 3 3 4 3
leaf_count=3 4 3 3 4 3
internal_value=-1.16415e-12 0.00330004 -0.00270003 -0.000354486 0.00066863
internal_weight=20 9 11 7 6
internal_count=20 9 11 7 6
is_linear=0
shrinkage=0.1


Tree=42
num_leaves=4
num_cat=0
split_feature=9 12 4
split_gain=0.0162327 0.0245421 0.0225574
threshold=-0.20575523376464841 0.39614365994930273 21.257919311523441
decision_type=2 2 2
left_child=-1 -2 -3
right_child=1 2 -4
leaf_value=-0.0067817941773682753 0.0070830186456441839 0.0024084786518609957 -0.006385812070220708
leaf_weight=3.0000000000000027 5.0000000000000027 6.9999999999999982 5
leaf_count=3 5 7 5
internal_value=4.5402e-11 0.00119679 -0.00125581
internal_weight=20 17 12
internal_count=20 17 12
is_linear=0
shrinkage=0.1


Tree=43
num_leaves=4
num_cat=0
split_feature=14 2 1
split_gain=0.0147945 0.0232133 0.0462183
threshold=0.020628991536796096 0.17404410243034366 1.0000000180025095e-35
decision_type=2 2 2
left_child=-1 2 -2
right_child=1 -3 -4
leaf_value=-0.0064744013672073612 0.012136195099446911 -0.0055191697843838487 -0.00078276629921876723
leaf_weight=3.0000000000000027 4.0000000000000027 3.9999999999999991 8.9999999999999982
leaf_count=3 4 4 9
internal_value=2.32831e-11 0.00114254 0.0031923
internal_weight=20 17 13
internal_count=20 17 13
is_linear=0
shrinkage=0.1


Tree=44
num_leaves=5
num_cat=0
split_feature=9 2 12 4
split_gain=0.0133067 0.0218299 0.0402349 0.0196605
threshold=-0.20575523376464841 0.12675541639328006 0.39614365994930273 21.257919311523441
decision_type=2 2 2 2
left_child=-1 3 -3 -2
right_child=1 2 -4 -5
leaf_value=-0.006140209920704358 0.0019558426924049829 0.013606314182591936 2.6551194605417552e-05 -0.0094927504658699011
leaf_weight=3.0000000000000027 3.0000000000000027 2.9999999999999991 7.9999999999999991 3
leaf_count=3 3 3 8 3
internal_value=-4.88944e-11 0.00108357 0.00373012 -0.00376845
internal_weight=20 17 11 6
internal_count=20 17 11 6
is_linear=0
shrinkage=0.1


Tree=45
num_leaves=6
num_cat=0
split_feature=10 7 6 8 5
split_gain=0.0125042 0.00874251 0.00691123 0.00256219 0.000564967
threshold=0.32746414840221411 0.96526518464088451 -0.0703274831175804 0.20641204714775088 0.30158731341362005
decision_type=2 2 2 2 2
left_child=1 -1 3 -2 -3
right_child=2 4 -4 -5 -6
leaf_value=0.0071720130741596156 -0.0024834192668398217 0.0015308349393308158 0.00048410490155220042 -0.0066163715596000332 -0.00040989877112830667
leaf_weight=3.0000000000000018 3 3 4.9999999999999982 3 3
leaf_count=3 3 3 5 3 3
internal_value=-1.22236e-11 0.00276432 -0.00226171 -0.0045499 0.000560468
internal_weight=20 9 11 6 6
internal_count=20 9 11 6 6
is_linear=0
shrinkage=0.1


Tree=46
num_leaves=5
num_cat=0
split_feature=9 2 12 4
split_gain=0.0113419 0.0176024 0.031196 0.0149918
threshold=-0.20575523376464841 0.12675541639328006 0.39614365994930273 21.257919311523441
decision_type=2 2 2 2
left_child=-1 3 -3 -2
right_child=1 2 -4 -5
leaf_value=-0.0056688120006583567 0.0016420658522595943 0.012073259459187587 0.00011575868702493609 -0.008355203270912168
leaf_weight=3.0000000000000027 3.0000000000000027 2.9999999999999991 7.9999999999999991 3
leaf_count=3 3 3 8 3
internal_value=-1.92085e-11 0.00100038 0.0033769 -0.00335657
internal_weight=20 17 11 6
internal_count=20 17 11 6
is_linear=0
shrinkage=0.1


Tree=47
num_leaves=6
num_cat=0
split_feature=10 4 5 6 2
split_gain=0.0097269 0.00721186 0.00957981 0.00567462 0.0016788
threshold=0.32746414840221411 21.257919311523441 0.23015873134136203 -0.0703274831175804 0.17404410243034366
decision_type=2 2 2 2 2
left_child=1 2 -1 4 -2
right_child=3 -3 -4 -5 -6
leaf_value=0.0044322199498613634 -0.0057409037525455141 0.0064413699011007927 -0.0035593619608941169 0.00049328096210956586 -0.0023954589230318858
leaf_weight=3.0000000000000018 3 3 3 4.9999999999999982 3
leaf_count=3 3 3 3 5 3
internal_value=2.2701e-11 0.00243808 0.000436429 -0.00199479 -0.00406818
internal_weight=20 9 6 11 6
internal_count=20 9 6 11 6
is_linear=0
shrinkage=0.1


Tree=48
num_leaves=5
num_cat=0
split_feature=9 2 7 4
split_gain=0.00924545 0.0138708 0.0281567 0.0115989
threshold=-0.20575523376464841 0.12675541639328006 0.99401733279228222 21.257919311523441
decision_type=2 2 2 2
left_child=-1 3 -3 -2
right_child=1 2 -4 -5
leaf_value=-0.0051181492667334719 0.0014323212827245379 0.0085550615750253217 -0.0016057014736967782 -0.0073612047980229044
leaf_weight=3.0000000000000027 3.0000000000000027 4.9999999999999982 6 3
leaf_count=3 3 5 6 3
internal_value=3.43425e-11 0.000903203 0.00301283 -0.00296444
internal_weight=20 17 11 6
internal_count=20 17 11 6
is_linear=0
shrinkage=0.1


Tree=49
num_leaves=6
num_cat=0
split_feature=10 4 5 6 8
split_gain=0.00749099 0.00582101 0.00680737 0.00493956 0.00139103
threshold=0.32746414840221411 21.257919311523441 0.23015873134136203 -0.0703274831175804 0.20641204714775088
decision_type=2 2 2 2 2
left_child=1 2 -1 4 -2
right_child=3 -3 -4 -5 -6
leaf_value=0.0037096084173147848 -0.0021623972958574687 0.0057361922886533028 -0.0030270414349312575 0.00057076744735240948 -0.0052076411743958778
leaf_weight=3.0000000000000018 3 3 3 4.9999999999999982 3
leaf_count=3 3 3 3 5 3
internal_value=-1.80444e-11 0.00213959 0.000341283 -0.00175057 -0.00368502
internal_weight=20 9 6 11 6
internal_count=20 9 6 11 6
is_linear=0
shrinkage=0.1


end of trees

feature_importances:
turnover_1m=37
bottom_decile_return_1m=27
trend_50_200=22
nifty_vol_1m=20
max_drawdown_3m=15
nifty_trend_duration=12
hit_rate_top_k=11
nifty_ret_3m=9
india_vix=8
top_decile_return_1m=7
spread_decile=7
vix_percentile_1y=6
nifty_ret_1m=4
current_drawdown=2
cross_sectional_vol=1

parameters:
[boosting: gbdt]
[objective: regression]
[metric: l2]
[tree_learner: serial]
[device_type: cpu]
[data_sample_strategy: bagging]
[data: ]
[valid: ]
[num_iterations: 50]
[learning_rate: 0.1]
[num_leaves: 31]
[num_threads: 2]
[seed: 0]
[deterministic: 0]
[force_col_wise: 0]
[force_row_wise: 0]
[histogram_pool_size: -1]
[max_depth: 3]
[min_data_in_leaf: 3]
[min_sum_hessian_in_leaf: 0.001]
[bagging_fraction: 1]
[pos_bagging_fraction: 1]
[neg_bagging_fraction: 1]
[bagging_freq: 0]
[bagging_seed: 3]
[bagging_by_query: 0]
[feature_fraction: 1]
[feature_fraction_bynode: 1]
[feature_fraction_seed: 2]
[extra_trees: 0]
[extra_seed: 6]
[early_stopping_round: 0]
[early_stopping_min_delta: 0]
[first_metric_only: 0]
[max_delta_step: 0]
[lambda_l1: 0]
[lambda_l2: 0]
[linear_lambda: 0]
[min_gain_to_split: 0]
[drop_rate: 0.1]
[max_drop: 50]
[skip_drop: 0.5]
[xgboost_dart_mode: 0]
[uniform_drop: 0]
[drop_seed: 4]
[top_rate: 0.2]
[other_rate: 0.1]
[min_data_per_group: 100]
[max_cat_threshold: 32]
[cat_l2: 10]
[cat_smooth: 10]
[max_cat_to_onehot: 4]
[top_k: 20]
[monotone_constraints: ]
[monotone_constraints_method: basic]
[monotone_penalty: 0]
[feature_contri: ]
[forcedsplits_filename: ]
[refit_decay_rate: 0.9]
[cegb_tradeoff: 1]
[cegb_penalty_split: 0]
[cegb_penalty_feature_lazy: ]
[cegb_penalty_feature_coupled: ]
[path_smooth: 0]
[interaction_constraints: ]
[verbosity: -1]
[saved_feature_importance_type: 0]
[use_quantized_grad: 0]
[num_grad_quant_bins: 4]
[quant_train_renew_leaf: 0]
[stochastic_rounding: 1]
[linear_tree: 0]
[max_bin: 255]
[max_bin_by_feature: ]
[min_data_in_bin: 3]
[bin_construct_sample_cnt: 200000]
[data_random_seed: 1]
[is_enable_sparse: 1]
[enable_bundle: 1]
[use_missing: 1]
[zero_as_missing: 0]
[feature_pre_filter: 1]
[pre_partition: 0]
[two_round: 0]
[header: 0]
[label_column: ]
[weight_column: ]
[group_column: ]
[ignore_column: ]
[categorical_feature: ]
[forcedbins_filename: ]
[precise_float_parser: 0]
[parser_config_file: ]
[objective_seed: 5]
[num_class: 1]
[is_unbalance: 0]
[scale_pos_weight: 1]
[sigmoid: 1]
[boost_from_average: 1]
[reg_sqrt: 0]
[alpha: 0.9]
[fair_c: 1]
[poisson_max_delta_step: 0.7]
[tweedie_variance_power: 1.5]
[lambdarank_truncation_level: 30]
[lambdarank_norm: 1]
[label_gain: ]
[lambdarank_position_bias_regularization: 0]
[eval_at: ]
[multi_error_top_k: 1]
[auc_mu_weights: ]
[num_machines: 1]
[local_listen_port: 12400]
[time_out: 120]
[machine_list_filename: ]
[machines: ]
[gpu_platform_id: -1]
[gpu_device_id: -1]
[gpu_use_dp: 0]
[num_gpu: 1]

end of parameters

pandas_categorical:null
