tree
version=v4
num_class=1
num_tree_per_iteration=1
label_index=0
max_feature_idx=22
objective=regression
feature_names=nifty_ret_1m nifty_ret_3m nifty_vol_1m vol_percentile_1y india_vix vix_percentile_1y max_drawdown_3m trend_50_200 top_decile_return_1m bottom_decile_return_1m spread_decile cross_sectional_vol hit_rate_top_k sector_dispersion cash_ratio current_drawdown portfolio_vol_1m turnover_1m exposure_concentration top5_weight_sum avg_cost_per_turnover turnover_capacity_utilization nifty_trend_duration
feature_infos=[-0.061950217932462692:0.10700655728578568] [-0.11633323132991791:0.091446787118911743] [0:0.22141033411026001] [0:0.1349206417798996] none none [-0.82460588216781616:0] none [0.10166497528553009:0.72764718532562256] [-0.22188952565193176:-0.067068926990032196] [0.24193346500396729:0.84928488731384277] [0.068980887532234192:0.66067612171173096] [0.13675214350223541:0.87179487943649292] [0.068980887532234192:0.66067612171173096] none [-0.11126459389925003:-0.032696299254894257] [0.016348149627447128:0.055632296949625015] [0.018023582175374031:0.4882219135761261] none none none [0.040052406489849091:1] [-38:51]
tree_sizes=648 670 710 595 659 635 591 675 533 596 631 593 628 706 629 609 620 610 632 612 596 522 553 633 595 594 552 674 614 608 614 615 613 616 617 615 536 613 552 616 620 619 617 555 620 619 616 607 637 554

Tree=0
num_leaves=6
num_cat=0
split_feature=11 10 12 15 1
split_gain=4.41963 2.02097 1.9953 0.900646 0.132074
threshold=0.097451426088809981 0.26643852889537817 0.39614365994930273 -0.090732485055923448 1.0000000180025095e-35
decision_type=2 2 2 2 2
left_child=1 -1 -2 -4 -3
right_child=2 4 3 -5 -6
leaf_value=0.33664489462971686 0.35582419678568838 0.45200429335236547 0.23154622291525206 0.3090337035556634 0.42233117992679275
leaf_weight=3.0000000000000018 4.9999999999999982 3 3 3 3
leaf_count=3 5 3 3 3 3
internal_value=0.35169 0.40366 0.309169 0.27029 0.437168
internal_weight=20 9 11 6 6
internal_count=20 9 11 6 6
is_linear=0
shrinkage=1


Tree=1
num_leaves=6
num_cat=0
split_feature=11 10 12 15 1
split_gain=3.5799 1.63698 1.61619 0.729523 0.10698
threshold=0.097451426088809981 0.26643852889537817 0.39614365994930273 -0.090732485055923448 1.0000000180025095e-35
decision_type=2 2 2 2 2
left_child=1 -1 -2 -4 -3
right_child=2 4 3 -5 -6
leaf_value=-0.013540679216384877 0.0037206953763961798 0.090282777945200579 -0.10812948147455848 -0.038390755653381341 0.063576981425285325
leaf_weight=3.0000000000000018 4.9999999999999982 3 3 3 3
leaf_count=3 5 3 3 3 3
internal_value=2.98023e-10 0.046773 -0.0382688 -0.0732601 0.0769299
internal_weight=20 9 11 6 6
internal_count=20 9 11 6 6
is_linear=0
shrinkage=0.1


Tree=2
num_leaves=6
num_cat=0
split_feature=11 22 10 15 1
split_gain=2.89972 1.33928 1.32596 1.04329 0.0866538
threshold=0.097451426088809981 -1.0000000180025095e-35 0.26643852889537817 -0.090732485055923448 1.0000000180025095e-35
decision_type=2 2 2 2 2
left_child=2 3 -1 -2 -4
right_child=1 -3 4 -5 -6
leaf_value=-0.012186612685521434 -0.041046985685825335 -0.091422160466512054 0.081254504124323501 0.033546630541483567 0.057219282786051422
leaf_weight=3.0000000000000018 5.0000000000000009 2.9999999999999991 3 2.9999999999999991 3
leaf_count=3 5 3 3 3 3
internal_value=2.23517e-10 -0.034442 0.0420957 -0.0130744 0.0692369
internal_weight=20 11 9 8 6
internal_count=20 11 9 8 6
is_linear=0
shrinkage=0.1


Tree=3
num_leaves=5
num_cat=0
split_feature=11 12 9 17
split_gain=2.34877 1.25215 1.19162 0.643087
threshold=0.097451426088809981 0.39614365994930273 -0.10658408328890799 0.023986122570931915
decision_type=2 2 2 2
left_child=2 -2 -1 -3
right_child=1 3 -4 -5
leaf_value=0.070431780219078061 0.0059614512324333204 -0.029058569669723502 -0.0027958855032920822 -0.094535636901855444
leaf_weight=5 4.9999999999999982 3 4.0000000000000018 3
leaf_count=5 5 3 4 3
internal_value=-2.23517e-10 -0.0309978 0.0378862 -0.0617971
internal_weight=20 11 9 6
internal_count=20 11 9 6
is_linear=0
shrinkage=0.1


Tree=4
num_leaves=6
num_cat=0
split_feature=11 17 9 10 1
split_gain=1.90251 1.0612 1.33802 1.00367 0.0420836
threshold=0.097451426088809981 0.0258247209712863 -0.13307481259107587 0.26643852889537817 1.0000000180025095e-35
decision_type=2 2 2 2 2
left_child=3 2 -2 -1 -5
right_child=1 -3 -4 4 -6
leaf_value=-0.013129282991091399 0.032018864527344697 -0.078618931770324696 -0.049774123728275312 0.066085873047510776 0.049336020648479445
leaf_weight=3.0000000000000018 4 3 3.9999999999999982 3 3
leaf_count=3 4 3 4 3 3
internal_value=0 -0.027898 -0.00887763 0.0340975 0.0577109
internal_weight=20 11 8 9 6
internal_count=20 11 8 9 6
is_linear=0
shrinkage=0.1


Tree=5
num_leaves=5
num_cat=0
split_feature=11 22 15 12
split_gain=1.54103 0.899166 0.968789 0.884703
threshold=0.097451426088809981 -1.0000000180025095e-35 -0.090732485055923448 0.55263158679008495
decision_type=2 2 2 2
left_child=3 2 -2 -1
right_child=1 -3 -4 -5
leaf_value=0.0026449087262153614 -0.034555443227291094 -0.071796475847562158 0.037325531244277954 0.065741375088691698
leaf_weight=5.0000000000000018 5.0000000000000009 2.9999999999999991 2.9999999999999991 4
leaf_count=5 5 3 3 4
internal_value=-2.98023e-10 -0.0251082 -0.00760008 0.0306878
internal_weight=20 11 8 9
internal_count=20 11 8 9
is_linear=0
shrinkage=0.1


Tree=6
num_leaves=5
num_cat=0
split_feature=11 9 17 9
split_gain=1.24823 0.90049 0.867499 1.08379
threshold=0.097451426088809981 -0.10658408328890799 0.0258247209712863 -0.13307481259107587
decision_type=2 2 2 2
left_child=1 -1 3 -2
right_child=2 -3 -4 -5
leaf_value=0.055910967588424676 0.031406524032354353 -0.0077459491789340917 -0.068456160028775512 -0.042207163572311412
leaf_weight=5 4 4.0000000000000018 3 3.9999999999999982
leaf_count=5 4 4 3 4
internal_value=1.49012e-10 0.027619 -0.0225974 -0.00540032
internal_weight=20 9 11 8
internal_count=20 9 11 8
is_linear=0
shrinkage=0.1


Tree=7
num_leaves=6
num_cat=0
split_feature=11 12 10 15 1
split_gain=1.01107 0.754863 0.734053 0.49494 0.0250944
threshold=0.097451426088809981 0.39614365994930273 0.26643852889537817 -0.090732485055923448 1.0000000180025095e-35
decision_type=2 2 2 2 2
left_child=2 -2 -1 -3 -4
right_child=1 3 4 -5 -6
leaf_value=-0.015531364083290087 0.008358834385871889 -0.072972420851389538 0.051518484950065606 -0.015530280272165931 0.038584194084008525
leaf_weight=3.0000000000000018 4.9999999999999982 3 3 3 3
leaf_count=3 5 3 3 3 3
internal_value=6.70552e-10 -0.0203376 0.0248571 -0.0442514 0.0450513
internal_weight=20 11 9 6 6
internal_count=20 11 9 6 6
is_linear=0
shrinkage=0.1


Tree=8
num_leaves=4
num_cat=0
split_feature=17 22 15
split_gain=0.82458 1.42092 1.00523
threshold=0.33017019927501684 1.0000000180025095e-35 -0.090732485055923448
decision_type=2 2 2
left_child=1 2 -1
right_child=-2 -3 -4
leaf_value=-0.015847087403138477 0.035169156044721608 -0.055249617099761963 0.0488712057471275
leaf_weight=6 4.9999999999999991 4.9999999999999991 4.0000000000000018
leaf_count=6 5 5 4
internal_value=-3.35276e-10 -0.0117231 0.0100402
internal_weight=20 15 10
internal_count=20 15 10
is_linear=0
shrinkage=0.1


Tree=9
num_leaves=5
num_cat=0
split_feature=11 17 22 9
split_gain=0.740896 0.686282 0.897121 0.676774
threshold=0.097451426088809981 0.0258247209712863 -5.4999999999999991 -0.10658408328890799
decision_type=2 2 2 2
left_child=3 2 -2 -1
right_child=1 -3 -4 -5
leaf_value=0.045805448144674299 0.031373478472232812 -0.058198231458663922 -0.035601174831390386 -0.0093804404139518679
leaf_weight=5 4 3 3.9999999999999982 4.0000000000000018
leaf_count=5 4 3 4 4
internal_value=-3.72529e-11 -0.0174096 -0.00211385 0.0212784
internal_weight=20 11 8 9
internal_count=20 11 8 9
is_linear=0
shrinkage=0.1


Tree=10
num_leaves=5
num_cat=0
split_feature=3 16 9 9
split_gain=0.696325 1.22326 1.21861 0.990397
threshold=0.069444447755813613 0.045366242527961738 -0.11789804697036742 -0.13307481259107587
decision_type=2 2 2 2
left_child=1 2 -1 -3
right_child=-2 3 -4 -5
leaf_value=-0.011910635977983473 0.044417561093966169 0.0011890451982617368 0.072401697436968324 -0.061752091646194524
leaf_weight=4 2.9999999999999991 5.0000000000000036 3.0000000000000062 4.9999999999999947
leaf_count=4 3 5 3 5
internal_value=-2.79397e-11 -0.00783839 0.0242232 -0.0302815
internal_weight=20 17 7 10
internal_count=20 17 7 10
is_linear=0
shrinkage=0.1


Tree=11
num_leaves=5
num_cat=0
split_feature=8 22 9 12
split_gain=0.691944 0.98503 0.883531 1.58914
threshold=0.15615005791187289 -16.999999999999996 -0.10658408328890799 0.46052631735801702
decision_type=2 2 2 2
left_child=1 -1 3 -2
right_child=2 -3 -4 -5
leaf_value=0.012105643749237057 0.036152568161487576 -0.068930576120813603 0.051897464320063619 -0.043575579822063441
leaf_weight=3 5 3.0000000000000027 3.9999999999999973 5
leaf_count=3 5 3 4 5
internal_value=9.31323e-11 -0.0284125 0.0121768 -0.00371151
internal_weight=20 6 14 10
internal_count=20 6 14 10
is_linear=0
shrinkage=0.1


Tree=12
num_leaves=5
num_cat=0
split_feature=22 22 9 0
split_gain=0.59135 1.9439 1.16288 0.0617184
threshold=12.500000000000002 1.0000000180025095e-35 -0.11789804697036742 1.0000000180025095e-35
decision_type=2 2 2 2
left_child=1 2 -1 -2
right_child=3 -3 -4 -5
leaf_value=-0.01170788947492838 0.01612392415603002 -0.08260936737060548 0.061298175156116408 0.036408304174741099
leaf_weight=7.9999999999999991 2.9999999999999991 2.9999999999999991 3.0000000000000027 3
leaf_count=8 3 3 3 3
internal_value=-3.72529e-10 -0.0112569 0.00820286 0.0262661
internal_weight=20 14 11 6
internal_count=20 14 11 6
is_linear=0
shrinkage=0.1


Tree=13
num_leaves=6
num_cat=0
split_feature=8 22 10 9 9
split_gain=0.53141 0.715463 0.612252 0.586784 0.0558392
threshold=0.15615005791187289 -16.999999999999996 0.34373533725738531 -0.13307481259107587 -0.10658408328890799
decision_type=2 2 2 2 2
left_child=1 -1 4 -4 -2
right_child=2 -3 3 -5 -6
leaf_value=0.0096323321262995389 0.044465587536493927 -0.05943107480804119 0.027524415651957169 -0.028417668938636786 0.025171520809332534
leaf_weight=3 3 3.0000000000000027 3.0000000000000018 4.9999999999999982 2.9999999999999991
leaf_count=3 3 3 3 5 3
internal_value=-3.72529e-11 -0.0248994 0.0106712 -0.00743939 0.0348186
internal_weight=20 6 14 8 6
internal_count=20 6 14 8 6
is_linear=0
shrinkage=0.1


Tree=14
num_leaves=5
num_cat=0
split_feature=22 22 9 0
split_gain=0.44489 1.495 0.93674 0.0279465
threshold=12.500000000000002 1.0000000180025095e-35 -0.11789804697036742 1.0000000180025095e-35
decision_type=2 2 2 2
left_child=1 2 -1 -2
right_child=3 -3 -4 -5
leaf_value=-0.010568507015705109 0.015957635889450709 -0.072337617476781219 0.054955482482910094 0.029607186218102766
leaf_weight=7.9999999999999991 2.9999999999999991 2.9999999999999991 3.0000000000000027 3
leaf_count=8 3 3 3 3
internal_value=2.6077e-10 -0.00976389 0.00730167 0.0227824
internal_weight=20 14 11 6
internal_count=20 14 11 6
is_linear=0
shrinkage=0.1


Tree=15
num_leaves=5
num_cat=0
split_feature=8 22 9 9
split_gain=0.409492 0.518584 0.484052 1.7572
threshold=0.15615005791187289 -16.999999999999996 -0.13307481259107587 -0.11789804697036742
decision_type=2 2 2 2
left_child=1 -1 -2 -4
right_child=2 -3 3 -5
leaf_value=0.0075418174266815158 0.034314405471086488 -0.051256349931160551 -0.066981236139933259 0.026752547671397536
leaf_weight=3 5.0000000000000009 3.0000000000000027 3 5.9999999999999964
leaf_count=3 5 3 3 6
internal_value=3.72529e-10 -0.0218573 0.0093674 -0.00449205
internal_weight=20 6 14 9
internal_count=20 6 14 9
is_linear=0
shrinkage=0.1


Tree=16
num_leaves=5
num_cat=0
split_feature=6 16 9 9
split_gain=0.349774 0.652386 0.651842 0.458936
threshold=-0.58863858878612507 0.045366242527961738 -0.13307481259107587 -0.11789804697036742
decision_type=2 2 2 2
left_child=-1 3 -3 -2
right_child=1 2 -4 -5
leaf_value=0.031480588515599532 -0.0043159335851669306 0.0035858780145645109 -0.0474765077233315 0.047425039112567846
leaf_weight=3.0000000000000027 4 5.0000000000000036 4.9999999999999947 3.0000000000000027
leaf_count=3 4 5 5 3
internal_value=0 -0.0055554 -0.0219453 0.0178588
internal_weight=20 17 10 7
internal_count=20 17 10 7
is_linear=0
shrinkage=0.1


Tree=17
num_leaves=5
num_cat=0
split_feature=8 9 9 22
split_gain=0.351238 0.382109 1.28012 0.353737
threshold=0.15615005791187289 -0.13307481259107587 -0.11789804697036742 -16.999999999999996
decision_type=2 2 2 2
left_child=3 -2 -3 -1
right_child=1 2 -4 -5
leaf_value=0.0040379196405410751 0.030840449631214129 -0.056974147756894411 0.023029655839006118 -0.044523830711841537
leaf_weight=3 5.0000000000000009 3 5.9999999999999964 3.0000000000000027
leaf_count=3 5 3 6 3
internal_value=3.35276e-10 0.00867555 -0.00363828 -0.020243
internal_weight=20 14 9 6
internal_count=20 14 9 6
is_linear=0
shrinkage=0.1


Tree=18
num_leaves=5
num_cat=0
split_feature=22 22 9 8
split_gain=0.285205 0.97476 0.506765 0.0401303
threshold=12.500000000000002 1.0000000180025095e-35 -0.11789804697036742 0.20641204714775088
decision_type=2 2 2 2
left_child=1 2 -1 -2
right_child=3 -3 -4 -5
leaf_value=-0.0071814878843724731 0.026419397195180258 -0.058344281216462457 0.04101262614130969 0.010062890251477557
leaf_weight=7.9999999999999991 2.9999999999999991 2.9999999999999991 3.0000000000000027 3
leaf_count=8 3 3 3 3
internal_value=-2.98023e-10 -0.00781763 0.00596236 0.0182411
internal_weight=20 14 11 6
internal_count=20 14 11 6
is_linear=0
shrinkage=0.1


Tree=19
num_leaves=5
num_cat=0
split_feature=8 9 9 22
split_gain=0.278055 0.346497 0.905032 0.258508
threshold=0.15615005791187289 -0.13307481259107587 -0.11789804697036742 -16.999999999999996
decision_type=2 2 2 2
left_child=3 -2 -3 -1
right_child=1 2 -4 -5
leaf_value=0.0027458041906356805 0.028825791180133811 -0.048853157957394908 0.018416135137279837 -0.038767902553081469
leaf_weight=3 5.0000000000000009 3 5.9999999999999964 3.0000000000000027
leaf_count=3 5 3 6 3
internal_value=-1.11759e-10 0.00771902 -0.00400696 -0.018011
internal_weight=20 14 9 6
internal_count=20 14 9 6
is_linear=0
shrinkage=0.1


Tree=20
num_leaves=5
num_cat=0
split_feature=15 22 12 9
split_gain=0.23247 0.438618 0.316029 0.22932
threshold=-0.090732485055923448 -16.999999999999996 0.46052631735801702 -0.11789804697036742
decision_type=2 2 2 2
left_child=1 -1 -3 -2
right_child=3 2 -4 -5
leaf_value=-0.041447236140569027 -0.0009824782609939573 0.023922059824690218 -0.01236548324426015 0.03559209406375885
leaf_weight=3.0000000000000009 4 4 6 2.9999999999999991
leaf_count=3 4 4 6 3
internal_value=2.79397e-11 -0.00791126 0.00214953 0.0146923
internal_weight=20 13 10 7
internal_count=20 13 10 7
is_linear=0
shrinkage=0.1


Tree=21
num_leaves=4
num_cat=0
split_feature=6 17 8
split_gain=0.259544 0.390093 0.334135
threshold=-0.58863858878612507 0.1155377132818103 0.20641204714775088
decision_type=2 2 2
left_child=-1 2 -2
right_child=1 -3 -4
leaf_value=0.027117816607157359 0.021679283926884327 -0.028252899944782257 -0.011694108943144479
leaf_weight=3.0000000000000027 6.0000000000000018 4.9999999999999991 6
leaf_count=3 6 5 6
internal_value=0 -0.0047855 0.00499259
internal_weight=20 17 12
internal_count=20 17 12
is_linear=0
shrinkage=0.1


Tree=22
num_leaves=4
num_cat=0
split_feature=3 22 22
split_gain=0.225516 0.379953 0.541686
threshold=0.069444447755813613 -16.999999999999996 -5.4999999999999991
decision_type=2 2 2
left_child=1 -1 -3
right_child=-2 2 -4
leaf_value=-0.036756427089373205 0.02527771294116974 0.033561114221811253 -0.0099808310717344334
leaf_weight=3.0000000000000044 2.9999999999999991 4.0000000000000044 9.9999999999999947
leaf_count=3 3 4 10
internal_value=1.86265e-10 -0.00446077 0.00245972
internal_weight=20 17 14
internal_count=20 17 14
is_linear=0
shrinkage=0.1


Tree=23
num_leaves=5
num_cat=0
split_feature=22 22 9 8
split_gain=0.205696 0.655901 0.333092 0.0447375
threshold=12.500000000000002 1.0000000180025095e-35 -0.11789804697036742 0.20641204714775088
decision_type=2 2 2 2
left_child=1 2 -1 -2
right_child=3 -3 -4 -5
leaf_value=-0.0059916045051068073 0.024126201868057251 -0.048085887730121617 0.03308101346095399 0.0068562835454940782
leaf_weight=7.9999999999999991 2.9999999999999991 2.9999999999999991 3.0000000000000027 3
leaf_count=8 3 3 3 3
internal_value=-1.30385e-10 -0.0066391 0.00466456 0.0154912
internal_weight=20 14 11 6
internal_count=20 14 11 6
is_linear=0
shrinkage=0.1


Tree=24
num_leaves=5
num_cat=0
split_feature=12 22 16 8
split_gain=0.186678 0.312045 0.721038 0.112671
threshold=0.39614365994930273 12.500000000000002 0.045366242527961738 0.15615005791187289
decision_type=2 2 2 2
left_child=3 2 -2 -1
right_child=1 -3 -4 -5
leaf_value=-0.0014836147427558883 0.0039169228076934822 0.012507931590080261 -0.058095460881789511 0.024153236858546728
leaf_weight=3.0000000000000027 4.9999999999999982 5 3 4
leaf_count=3 5 5 3 4
internal_value=-3.72529e-10 -0.00708939 -0.0193377 0.013166
internal_weight=20 13 8 7
internal_count=20 13 8 7
is_linear=0
shrinkage=0.1


Tree=25
num_leaves=5
num_cat=0
split_feature=6 17 22 8
split_gain=0.171006 0.300593 0.711975 0.478654
threshold=-0.58863858878612507 0.0258247209712863 12.500000000000002 0.17261020839214328
decision_type=2 2 2 2
left_child=-1 3 -3 -2
right_child=1 2 -4 -5
leaf_value=0.022011774281660693 0.041266475121180181 -0.047820745408534995 0.011843946576118466 -0.0076545924569169678
leaf_weight=3.0000000000000027 3.0000000000000018 4 4 6
leaf_count=3 3 4 4 6
internal_value=-9.31323e-11 -0.00388443 -0.0179884 0.00865243
internal_weight=20 17 8 9
internal_count=20 17 8 9
is_linear=0
shrinkage=0.1


Tree=26
num_leaves=4
num_cat=0
split_feature=6 22 8
split_gain=0.138515 0.284765 0.376079
threshold=-0.58863858878612507 -16.999999999999996 0.15615005791187289
decision_type=2 2 2
left_child=-1 -2 -3
right_child=1 2 -4
leaf_value=0.019810597598552682 -0.031455014149347892 -0.028888980050881721 0.011054562777280808
leaf_weight=3.0000000000000027 3.0000000000000044 2.9999999999999973 10.999999999999998
leaf_count=3 3 3 11
internal_value=3.72529e-11 -0.00349599 0.00249523
internal_weight=20 17 14
internal_count=20 17 14
is_linear=0
shrinkage=0.1


Tree=27
num_leaves=6
num_cat=0
split_feature=12 16 22 9 8
split_gain=0.13116 0.248381 0.46619 0.269124 0.0584845
threshold=0.39614365994930273 0.045366242527961738 12.500000000000002 -0.11789804697036742 0.15615005791187289
decision_type=2 2 2 2 2
left_child=4 3 -3 -2 -1
right_child=1 2 -4 -5 -6
leaf_value=0.00048136164744694976 -0.012191176414489743 -0.048538603136936809 0.0036096652969717976 0.030166378865639377 0.018951863236725326
leaf_weight=3.0000000000000027 3 3 4 2.9999999999999982 4
leaf_count=3 3 3 4 3 4
internal_value=-1.49012e-10 -0.00594243 -0.0187396 0.0089876 0.0110359
internal_weight=20 13 7 6 7
internal_count=20 13 7 6 7
is_linear=0
shrinkage=0.1


Tree=28
num_leaves=5
num_cat=0
split_feature=9 15 17 16
split_gain=0.122576 0.343972 0.468055 0.297158
threshold=-0.20575523376464841 -0.090732485055923448 0.33017019927501684 0.03261923789978028
decision_type=2 2 2 2
left_child=-1 2 -2 -3
right_child=1 3 -4 -5
leaf_value=0.018635921676953614 -0.029387318116745761 -0.006283136705557509 0.013493783026933668 0.03822591106096903
leaf_weight=3.0000000000000027 7.0000000000000036 2.9999999999999973 4 3
leaf_count=3 7 3 4 3
internal_value=-3.3062e-10 -0.00328869 -0.0137942 0.0159714
internal_weight=20 17 11 6
internal_count=20 17 11 6
is_linear=0
shrinkage=0.1


Tree=29
num_leaves=5
num_cat=0
split_feature=17 9 12 8
split_gain=0.1233 0.232956 0.452971 0.316299
threshold=0.020628991536796096 -0.13307481259107587 0.55263158679008495 0.12918264046311381
decision_type=2 2 2 2
left_child=-1 3 -3 -2
right_child=1 2 -4 -5
leaf_value=0.018690884858369807 -0.016552347938219684 -0.04606200108925506 0.0015284909556309381 0.02451988890767097
leaf_weight=3.0000000000000027 3.0000000000000036 2.9999999999999964 6 5
leaf_count=3 3 3 6 5
internal_value=-1.11759e-10 -0.00329839 -0.014335 0.0091178
internal_weight=20 17 9 8
internal_count=20 17 9 8
is_linear=0
shrinkage=0.1


Tree=30
num_leaves=5
num_cat=0
split_feature=9 15 17 16
split_gain=0.102703 0.267115 0.35261 0.215458
threshold=-0.20575523376464841 -0.090732485055923448 0.33017019927501684 0.03261923789978028
decision_type=2 2 2 2
left_child=-1 2 -2 -3
right_child=1 3 -4 -5
leaf_value=0.017058489720026632 -0.025802212035549523 -0.0049877030154069297 0.011416770331561563 0.032912012437979372
leaf_weight=3.0000000000000027 7.0000000000000036 2.9999999999999973 4 3
leaf_count=3 7 3 4 3
internal_value=-2.7474e-10 -0.00301032 -0.012268 0.0139622
internal_weight=20 17 11 6
internal_count=20 17 11 6
is_linear=0
shrinkage=0.1


Tree=31
num_leaves=5
num_cat=0
split_feature=17 11 12 9
split_gain=0.107408 0.177796 0.262252 0.261082
threshold=0.020628991536796096 0.097451426088809981 0.39614365994930273 -0.10658408328890799
decision_type=2 2 2 2
left_child=-1 3 -3 -2
right_child=1 2 -4 -5
leaf_value=0.017444876829783101 0.021797265708446485 0.0041800666600465769 -0.032031231746077533 -0.012479075975716118
leaf_weight=3.0000000000000027 5.0000000000000036 4 4 3.9999999999999982
leaf_count=3 5 4 4 4
internal_value=-2.6077e-10 -0.00307851 -0.0139256 0.00656334
internal_weight=20 17 8 9
internal_count=20 17 8 9
is_linear=0
shrinkage=0.1


Tree=32
num_leaves=5
num_cat=0
split_feature=8 9 9 22
split_gain=0.0881913 0.137558 0.288194 0.0864279
threshold=0.15615005791187289 -0.13307481259107587 -0.11789804697036742 -16.999999999999996
decision_type=2 2 2 2
left_child=3 -2 -3 -1
right_child=1 2 -4 -5
leaf_value=0.0018584733208020525 0.017646098695695396 -0.028347837800780925 0.009612300184865797 -0.022145399947961147
leaf_weight=3 5.0000000000000009 3 5.9999999999999964 3.0000000000000027
leaf_count=3 5 3 6 3
internal_value=6.51926e-11 0.0043472 -0.00304108 -0.0101435
internal_weight=20 14 9 6
internal_count=20 14 9 6
is_linear=0
shrinkage=0.1


Tree=33
num_leaves=5
num_cat=0
split_feature=17 11 9 12
split_gain=0.0874037 0.138556 0.211349 0.173926
threshold=0.020628991536796096 0.097451426088809981 -0.10658408328890799 0.39614365994930273
decision_type=2 2 2 2
left_child=-1 2 -2 -3
right_child=1 3 -4 -5
leaf_value=0.015736703916142368 0.019440940916538224 0.0023921410553157324 -0.011398454569280151 -0.027097389288246627
leaf_weight=3.0000000000000027 5.0000000000000036 4 3.9999999999999982 4
leaf_count=3 5 4 4 4
internal_value=2.56114e-10 -0.00277707 0.00573454 -0.0123526
internal_weight=20 17 9 8
internal_count=20 17 9 8
is_linear=0
shrinkage=0.1


Tree=34
num_leaves=5
num_cat=0
split_feature=9 15 22 16
split_gain=0.0883085 0.187937 0.246535 0.126245
threshold=-0.20575523376464841 -0.090732485055923448 12.500000000000002 0.03261923789978028
decision_type=2 2 2 2
left_child=-1 2 -2 -3
right_child=1 3 -4 -5
leaf_value=0.015817942718664789 -0.024223097693175061 -0.0030603523055712403 0.0058428539335727689 0.025950514773527774
leaf_weight=3.0000000000000027 6.0000000000000036 2.9999999999999973 5 3
leaf_count=3 6 3 5 3
internal_value=-4.65661e-11 -0.0027914 -0.0105568 0.0114451
internal_weight=20 17 11 6
internal_count=20 17 11 6
is_linear=0
shrinkage=0.1


Tree=35
num_leaves=5
num_cat=0
split_feature=8 9 9 22
split_gain=0.081468 0.0949851 0.190092 0.0537078
threshold=0.15615005791187289 -0.13307481259107587 -0.11789804697036742 -16.999999999999996
decision_type=2 2 2 2
left_child=3 -2 -3 -1
right_child=1 2 -4 -5
leaf_value=-0.0002880200743675231 0.015229169260710475 -0.022514232620596882 0.0083152957571049572 -0.019210285941759723
leaf_weight=3 5.0000000000000009 3 5.9999999999999964 3.0000000000000027
leaf_count=3 5 3 6 3
internal_value=2.468e-10 0.00417821 -0.00196121 -0.00974915
internal_weight=20 14 9 6
internal_count=20 14 9 6
is_linear=0
shrinkage=0.1


Tree=36
num_leaves=4
num_cat=0
split_feature=17 9 22
split_gain=0.078131 0.105329 0.195666
threshold=0.020628991536796096 -0.20575523376464841 12.500000000000002
decision_type=2 2 2
left_child=-1 -2 -3
right_child=1 2 -4
leaf_value=0.014878548445024821 0.014378453294436112 -0.016507582832127814 0.0073816096099714431
leaf_weight=3.0000000000000027 3.0000000000000044 7.9999999999999964 6
leaf_count=3 3 8 6
internal_value=1.10595e-11 -0.00262563 -0.00626936
internal_weight=20 17 14
internal_count=20 17 14
is_linear=0
shrinkage=0.1


Tree=37
num_leaves=5
num_cat=0
split_feature=8 9 16 8
split_gain=0.0709525 0.125565 0.118316 0.0225127
threshold=0.12918264046311381 -0.13307481259107587 0.045366242527961738 0.17261020839214328
decision_type=2 2 2 2
left_child=-1 3 -3 -2
right_child=1 2 -4 -5
leaf_value=-0.014178574581940953 0.02026427363355951 0.0098745178431272583 -0.011685043140979748 0.0080133787045876172
leaf_weight=3.0000000000000027 3.0000000000000044 3.9999999999999964 7 3
leaf_count=3 3 4 7 3
internal_value=1.32713e-10 0.0025021 -0.0038452 0.0141388
internal_weight=20 17 11 6
internal_count=20 17 11 6
is_linear=0
shrinkage=0.1


Tree=38
num_leaves=4
num_cat=0
split_feature=3 16 9
split_gain=0.0620273 0.122266 0.0519089
threshold=0.069444447755813613 0.052211105823516853 -0.11789804697036742
decision_type=2 2 2
left_child=1 2 -1
right_child=-2 -3 -4
leaf_value=-0.0018479113260077098 0.01325685257713 -0.017628123750910163 0.011843286547809828
leaf_weight=9.0000000000000018 2.9999999999999991 3.9999999999999991 4.0000000000000027
leaf_count=9 3 4 4
internal_value=3.49246e-10 -0.00233944 0.00236476
internal_weight=20 17 13
internal_count=20 17 13
is_linear=0
shrinkage=0.1


Tree=39
num_leaves=5
num_cat=0
split_feature=17 11 9 12
split_gain=0.0588454 0.0930266 0.14396 0.113449
threshold=0.020628991536796096 0.097451426088809981 -0.10658408328890799 0.39614365994930273
decision_type=2 2 2 2
left_child=-1 2 -2 -3
right_child=1 3 -4 -5
leaf_value=0.012912349496036752 0.016007802486419666 0.0017837029881775377 -0.0094444638118147892 -0.02203325424343347
leaf_weight=3.0000000000000027 5.0000000000000036 4 3.9999999999999982 4
leaf_count=3 5 4 4 4
internal_value=3.25963e-11 -0.00227865 0.00469568 -0.0101248
internal_weight=20 17 9 8
internal_count=20 17 9 8
is_linear=0
shrinkage=0.1


Tree=40
num_leaves=5
num_cat=0
split_feature=9 15 17 16
split_gain=0.0599508 0.113058 0.168174 0.0773967
threshold=-0.20575523376464841 -0.090732485055923448 0.33017019927501684 0.03261923789978028
decision_type=2 2 2 2
left_child=-1 2 -2 -3
right_child=1 3 -4 -5
leaf_value=0.013033060729503616 -0.01766968700768691 -0.0026155382394790665 0.0080341039691120379 0.020099608600139613
leaf_weight=3.0000000000000027 7.0000000000000036 2.9999999999999973 4 3
leaf_count=3 7 3 4 3
internal_value=4.65661e-12 -0.00229995 -0.00832285 0.00874204
internal_weight=20 17 11 6
internal_count=20 17 11 6
is_linear=0
shrinkage=0.1


Tree=41
num_leaves=5
num_cat=0
split_feature=8 9 9 22
split_gain=0.0587042 0.0547685 0.10958 0.0325257
threshold=0.15615005791187289 -0.13307481259107587 -0.11789804697036742 -16.999999999999996
decision_type=2 2 2 2
left_child=3 -2 -3 -1
right_child=1 2 -4 -5
leaf_value=-0.00091305077075958224 0.011938220206648108 -0.016719976781557001 0.0066872339695692095 -0.015638475616772951
leaf_weight=3 5.0000000000000009 3 5.9999999999999964 3.0000000000000027
leaf_count=3 5 3 6 3
internal_value=-2.32831e-10 0.00354676 -0.00111517 -0.00827576
internal_weight=20 14 9 6
internal_count=20 14 9 6
is_linear=0
shrinkage=0.1


Tree=42
num_leaves=5
num_cat=0
split_feature=8 9 16 8
split_gain=0.0517574 0.0821082 0.0671642 0.0156201
threshold=0.12918264046311381 -0.13307481259107587 0.045366242527961738 0.17261020839214328
decision_type=2 2 2 2
left_child=-1 3 -3 -2
right_child=1 2 -4 -5
leaf_value=-0.012109749019145952 0.01664931260359781 0.0073412176221609171 -0.0089025278043534072 0.0064447113623221702
leaf_weight=3.0000000000000027 3.0000000000000044 3.9999999999999964 7 3
leaf_count=3 3 4 7 3
internal_value=3.49246e-11 0.00213701 -0.00299571 0.011547
internal_weight=20 17 11 6
internal_count=20 17 11 6
is_linear=0
shrinkage=0.1


Tree=43
num_leaves=4
num_cat=0
split_feature=9 22 8
split_gain=0.051981 0.0858117 0.0507641
threshold=-0.20575523376464841 -16.999999999999996 0.17261020839214328
decision_type=2 2 2
left_child=-1 -2 -3
right_child=1 2 -4
leaf_value=0.01213587125142414 -0.017489638924598653 -0.0083737992914393617 0.0049556502886116509
leaf_weight=3.0000000000000027 3.0000000000000062 3.9999999999999956 9.9999999999999982
leaf_count=3 3 4 10
internal_value=1.35042e-10 -0.00214162 0.00114724
internal_weight=20 17 14
internal_count=20 17 14
is_linear=0
shrinkage=0.1


Tree=44
num_leaves=5
num_cat=0
split_feature=17 11 9 12
split_gain=0.0459266 0.0673708 0.099782 0.0648945
threshold=0.020628991536796096 0.097451426088809981 -0.10658408328890799 0.39614365994930273
decision_type=2 2 2 2
left_child=-1 2 -2 -3
right_child=1 3 -4 -5
leaf_value=0.01140724606811999 0.013339964374899852 0.00031641827663406722 -0.0078501064330339446 -0.017696701548993585
leaf_weight=3.0000000000000027 5.0000000000000036 4 3.9999999999999982 4
leaf_count=3 5 4 4 4
internal_value=6.28643e-11 -0.00201304 0.00392216 -0.00869014
internal_weight=20 17 9 8
internal_count=20 17 9 8
is_linear=0
shrinkage=0.1


Tree=45
num_leaves=5
num_cat=0
split_feature=9 15 22 16
split_gain=0.0431493 0.0706109 0.118485 0.0546208
threshold=-0.20575523376464841 -0.090732485055923448 12.500000000000002 0.03261923789978028
decision_type=2 2 2 2
left_child=-1 2 -2 -3
right_child=1 3 -4 -5
leaf_value=0.011056961119174945 -0.01618530796840786 -0.002766093984246256 0.0046580603485926976 0.016316314972937101
leaf_weight=3.0000000000000027 6.0000000000000036 2.9999999999999973 5 3
leaf_count=3 6 3 5 3
internal_value=1.28057e-11 -0.00195123 -0.00671105 0.00677511
internal_weight=20 17 11 6
internal_count=20 17 11 6
is_linear=0
shrinkage=0.1


Tree=46
num_leaves=5
num_cat=0
split_feature=17 11 9 12
split_gain=0.0459586 0.103163 0.0732188 0.023668
threshold=0.023986122570931915 0.097451426088809981 -0.10658408328890799 0.46052631735801702
decision_type=2 2 2 2
left_child=3 2 -2 -1
right_child=1 -3 -4 -5
leaf_value=0.013603120297193511 0.011327502066269516 -0.01465508058667183 -0.0068242135457694548 0.0010417959342400231
leaf_weight=3.0000000000000027 5 4.9999999999999991 3.9999999999999982 3
leaf_count=3 5 5 4 3
internal_value=9.54606e-11 -0.0031382 0.00326007 0.00732246
internal_weight=20 14 9 6
internal_count=20 14 9 6
is_linear=0
shrinkage=0.1


Tree=47
num_leaves=5
num_cat=0
split_feature=8 9 12 22
split_gain=0.0423106 0.0326019 0.0939271 0.0215185
threshold=0.15615005791187289 -0.10658408328890799 0.46052631735801702 -16.999999999999996
decision_type=2 2 2 2
left_child=3 2 -2 -1
right_child=1 -3 -4 -5
leaf_value=-0.0010371640324592587 0.0096506533306092018 0.010641121491789822 -0.0097325485199689851 -0.013014507542053844
leaf_weight=3 5 3.9999999999999973 5 3.0000000000000027
leaf_count=3 5 4 5 3
internal_value=-2.35159e-10 0.00301107 -4.09476e-05 -0.00702584
internal_weight=20 14 10 6
internal_count=20 14 10 6
is_linear=0
shrinkage=0.1


Tree=48
num_leaves=5
num_cat=0
split_feature=8 9 15 8
split_gain=0.0358995 0.0451043 0.043697 0.0110858
threshold=0.12918264046311381 -0.13307481259107587 -0.090732485055923448 0.17261020839214328
decision_type=2 2 2 2
left_child=-1 3 -3 -2
right_child=1 2 -4 -5
leaf_value=-0.010085403919219959 0.013052556415398892 -0.0067888475688440419 0.0063133151270449266 0.0044557390734553323
leaf_weight=3.0000000000000027 3.0000000000000044 7.0000000000000036 3.9999999999999929 3
leaf_count=3 3 7 4 3
internal_value=1.11759e-10 0.00177978 -0.00202442 0.00875415
internal_weight=20 17 11 6
internal_count=20 17 11 6
is_linear=0
shrinkage=0.1


Tree=49
num_leaves=4
num_cat=0
split_feature=3 17 9
split_gain=0.038874 0.0687844 0.0518628
threshold=0.069444447755813613 0.1155377132818103 -0.11789804697036742
decision_type=2 2 2
left_child=1 2 -1
right_child=-2 -3 -4
leaf_value=-0.0015416477703385878 0.010494906455278397 -0.011706348326988518 0.013640618262191598
leaf_weight=9.0000000000000018 2.9999999999999991 4.9999999999999991 3.0000000000000027
leaf_count=9 3 5 3
internal_value=1.29221e-10 -0.00185204 0.00225392
internal_weight=20 17 12
internal_count=20 17 12
is_linear=0
shrinkage=0.1


end of trees

feature_importances:
bottom_decile_return_1m=49
nifty_trend_duration=32
top_decile_return_1m=24
turnover_1m=18
hit_rate_top_k=16
cross_sectional_vol=14
current_drawdown=13
portfolio_vol_1m=12
spread_decile=6
nifty_ret_3m=5
vol_percentile_1y=4
max_drawdown_3m=4
nifty_ret_1m=2

parameters:
[boosting: gbdt]
[objective: regression]
[metric: l2]
[tree_learner: serial]
[device_type: cpu]
[data_sample_strategy: bagging]
[data: ]
[valid: ]
[num_iterations: 50]
[learning_rate: 0.1]
[num_leaves: 31]
[num_threads: 2]
[seed: 0]
[deterministic: 0]
[force_col_wise: 0]
[force_row_wise: 0]
[histogram_pool_size: -1]
[max_depth: 3]
[min_data_in_leaf: 3]
[min_sum_hessian_in_leaf: 0.001]
[bagging_fraction: 1]
[pos_bagging_fraction: 1]
[neg_bagging_fraction: 1]
[bagging_freq: 0]
[bagging_seed: 3]
[bagging_by_query: 0]
[feature_fraction: 1]
[feature_fraction_bynode: 1]
[feature_fraction_seed: 2]
[extra_trees: 0]
[extra_seed: 6]
[early_stopping_round: 0]
[early_stopping_min_delta: 0]
[first_metric_only: 0]
[max_delta_step: 0]
[lambda_l1: 0]
[lambda_l2: 0]
[linear_lambda: 0]
[min_gain_to_split: 0]
[drop_rate: 0.1]
[max_drop: 50]
[skip_drop: 0.5]
[xgboost_dart_mode: 0]
[uniform_drop: 0]
[drop_seed: 4]
[top_rate: 0.2]
[other_rate: 0.1]
[min_data_per_group: 100]
[max_cat_threshold: 32]
[cat_l2: 10]
[cat_smooth: 10]
[max_cat_to_onehot: 4]
[top_k: 20]
[monotone_constraints: ]
[monotone_constraints_method: basic]
[monotone_penalty: 0]
[feature_contri: ]
[forcedsplits_filename: ]
[refit_decay_rate: 0.9]
[cegb_tradeoff: 1]
[cegb_penalty_split: 0]
[cegb_penalty_feature_lazy: ]
[cegb_penalty_feature_coupled: ]
[path_smooth: 0]
[interaction_constraints: ]
[verbosity: -1]
[saved_feature_importance_type: 0]
[use_quantized_grad: 0]
[num_grad_quant_bins: 4]
[quant_train_renew_leaf: 0]
[stochastic_rounding: 1]
[linear_tree: 0]
[max_bin: 255]
[max_bin_by_feature: ]
[min_data_in_bin: 3]
[bin_construct_sample_cnt: 200000]
[data_random_seed: 1]
[is_enable_sparse: 1]
[enable_bundle: 1]
[use_missing: 1]
[zero_as_missing: 0]
[feature_pre_filter: 1]
[pre_partition: 0]
[two_round: 0]
[header: 0]
[label_column: ]
[weight_column: ]
[group_column: ]
[ignore_column: ]
[categorical_feature: ]
[forcedbins_filename: ]
[precise_float_parser: 0]
[parser_config_file: ]
[objective_seed: 5]
[num_class: 1]
[is_unbalance: 0]
[scale_pos_weight: 1]
[sigmoid: 1]
[boost_from_average: 1]
[reg_sqrt: 0]
[alpha: 0.9]
[fair_c: 1]
[poisson_max_delta_step: 0.7]
[tweedie_variance_power: 1.5]
[lambdarank_truncation_level: 30]
[lambdarank_norm: 1]
[label_gain: ]
[lambdarank_position_bias_regularization: 0]
[eval_at: ]
[multi_error_top_k: 1]
[auc_mu_weights: ]
[num_machines: 1]
[local_listen_port: 12400]
[time_out: 120]
[machine_list_filename: ]
[machines: ]
[gpu_platform_id: -1]
[gpu_device_id: -1]
[gpu_use_dp: 0]
[num_gpu: 1]

end of parameters

pandas_categorical:null
